//Numpy array shape [16, 16, 20, 1]
//Min -0.197772249579
//Max 0.237912893295
//Number of zeros 0

#ifndef W11_H_
#define W11_H_

#ifndef __SYNTHESIS__
model_default_t w11[5120];
#else
model_default_t w11[5120] = {-0.0024421788, 0.0071113496, -0.1589323729, -0.0490762256, 0.1115815490, 0.0314416103, 0.1290937364, 0.0653636456, -0.1073214486, 0.0548438989, 0.0015370079, -0.0890357643, -0.0725506321, 0.0108345598, -0.0251612645, 0.0140459379, 0.1463796943, 0.1170264706, 0.0062939101, 0.0234193858, 0.0214450974, -0.0095845275, -0.0992416516, -0.0544288345, 0.1421673149, -0.0051200008, 0.0512908250, 0.0998215526, -0.1731581092, 0.0743748173, -0.0263319258, -0.1430672109, -0.1068285927, -0.0302388184, 0.0068649431, 0.0476838686, 0.0841411576, 0.0942826197, -0.0350762345, 0.0546812676, -0.0021646104, 0.0416169390, -0.1376727074, -0.0390867628, 0.1175544187, 0.0254335403, 0.1423500180, 0.0807954222, -0.1581990123, 0.0521965660, -0.0086038839, -0.1339094043, -0.0579354167, 0.0121651161, 0.0198017508, -0.0488799550, 0.1176497340, 0.0731979758, 0.0124741355, 0.0187989231, 0.0107753770, 0.0227816384, -0.1583644450, -0.0170860272, 0.1550018489, 0.0015933944, 0.1312480718, 0.0867154822, -0.1194172576, 0.0658396631, -0.0111022266, -0.0712608695, -0.0486462861, -0.0131969331, -0.0740732029, -0.0640289858, 0.0944147855, 0.1009220332, -0.0196959693, 0.0096555622, 0.0065524848, 0.0491319112, -0.1294276863, -0.0173232444, 0.1264635026, 0.0391330793, 0.1576892138, 0.0498324670, -0.1536766440, 0.0181900077, 0.0028376617, -0.1154196262, -0.0470397770, -0.0159923993, -0.0703939199, -0.0697180405, 0.1133791879, 0.0995677114, 0.0123466291, 0.0116740791, -0.0223119836, 0.0074490570, -0.1238024011, -0.0523681492, 0.1523199975, 0.0151207829, 0.0919866934, 0.0679700971, -0.1434963048, -0.0002151924, 0.0051554129, -0.1442770362, -0.0664551854, -0.0350346230, -0.0404142141, -0.0286332350, 0.1225247756, 0.0826094374, 0.0464978963, 0.0640569404, -0.0158907771, 0.0404889099, -0.1170882136, -0.0317931436, 0.1674222946, 0.0247273445, 0.1359171867, 0.1064860225, -0.1291407496, 0.0450626798, -0.0345893726, -0.1001292244, -0.0851236284, -0.0312672667, -0.0103202332, -0.0356739983, 0.1153577194, 0.0360258184, 0.0092269285, 0.0595012233, -0.0313795693, -0.0283115935, -0.1125732437, -0.0535232313, 0.1126985922, 0.0444368199, 0.1529776007, 0.0873024315, -0.1580029279, 0.0443700701, -0.0282557886, -0.1320440769, -0.0571477190, -0.0037970955, -0.0381117053, -0.0604234822, 0.1156569645, 0.0773502737, 0.0199677572, 0.0507561974, -0.0001827374, -0.0042165495, -0.1333422512, -0.0415531993, 0.1539629996, 0.0412021391, 0.1791459769, 0.1056747958, -0.1013710648, 0.0407306738, 0.0191727579, -0.0857178122, -0.0627971068, 0.0024107951, 0.0263277330, 0.0040482525, 0.0757588297, 0.1041508317, 0.0377835967, 0.0119427396, -0.0182707198, -0.0180134177, -0.1328850389, -0.0352391601, 0.1698499471, 0.0274804886, 0.0805846751, 0.0589796677, -0.1648584902, 0.0666007251, 0.0068289302, -0.1028773487, -0.0501216725, -0.0030765254, 0.0137030473, -0.0318198763, 0.0607372038, 0.0497134700, 0.0115146106, 0.0234794151, 0.0332625285, -0.0275037270, -0.1108639836, -0.0205456968, 0.1214637309, 0.0309261754, 0.1114546657, 0.1053972989, -0.1630194187, 0.0603671856, -0.0269981027, -0.1373823732, -0.0725739598, -0.0211318694, -0.0044993339, 0.0137056913, 0.0603012070, 0.0594373494, -0.0413204283, 0.0531438030, -0.0046976516, 0.0447465554, -0.1369439960, -0.0360585414, 0.1065712869, 0.0050707506, 0.1785206944, 0.0607396662, -0.1475905627, 0.0790093318, -0.0302885137, -0.1431617886, -0.0627699494, -0.0138997724, -0.0129549243, 0.0040960624, 0.0717677921, 0.0461483188, 0.0102320760, 0.0040802779, 0.0031519409, -0.0012253053, -0.1300397068, -0.0534040257, 0.1002595499, -0.0062965229, 0.2111226767, 0.0838372484, -0.0929671451, 0.0937503725, 0.0172778312, -0.0742872134, -0.0718637109, 0.0042857695, 0.0392092690, -0.0292399488, 0.0804018453, 0.1046680510, 0.0515634678, 0.0313357152, 0.0202331506, -0.0040572193, -0.1280703396, -0.0556043796, 0.0944816843, 0.0078949211, 0.1243316606, 0.1091137454, -0.1444993615, 0.0733577386, -0.0408488773, -0.1227388680, -0.0594441295, -0.0428119861, 0.0614224523, -0.0207785051, 0.0699950010, 0.1073291823, -0.0264150817, 0.0553680845, 0.0099976128, -0.0128314504, -0.1252187937, -0.0196355712, 0.1707440317, 0.0242940225, 0.0963605195, 0.1051758155, -0.1438611001, 0.0721346214, -0.0200721119, -0.1005469486, -0.0732263625, -0.0262685735, 0.0195404552, -0.0061811297, 0.1127444729, 0.0732620880, -0.0096981339, 0.0580751747, 0.0073212082, -0.0008787057, -0.1679996699, -0.0392471775, 0.1081297547, 0.0230552964, 0.1873595864, 0.0441993326, -0.1547518522, 0.0142675331, 0.0069328840, -0.1042311788, -0.0702505484, -0.0014852333, 0.0336198024, -0.0489472672, 0.1104055941, 0.0619404428, 0.0345457494, 0.0258152559, -0.0191878229, -0.0159174539, -0.0660376996, -0.0113900127, 0.1423150897, 0.0473065600, 0.1522367448, 0.0813141987, -0.1281336248, 0.0001909144, 0.0085092923, -0.1407218128, -0.0949431211, -0.0246976204, -0.0026014484, -0.0338803902, 0.1192244291, 0.1212650687, 0.0084381849, 0.0132216774, 0.0077526392, -0.0159637574, -0.1092857271, -0.0067355456, 0.1017834544, 0.0382177308, 0.1024223566, 0.0739922598, -0.1217186451, 0.0531887263, -0.0318642706, -0.1305790693, -0.1169412434, 0.0067390339, -0.0073177633, 0.0230878610, 0.1550491154, 0.1222733036, -0.0103661036, 0.0020527842, -0.0076042884, 0.0509192534, -0.1133051440, -0.0240090284, 0.0728548095, 0.0023216896, 0.1535281241, 0.0559773818, -0.1263703704, 0.0073132943, 0.0023024655, -0.1046753302, -0.0695852935, 0.0102571556, 0.0260524340, 0.0033834002, 0.1555690169, 0.0951510072, -0.0155600198, 0.0092995483, -0.0252742693, -0.0349529348, -0.1411922723, -0.0104228314, 0.0721690729, 0.0313670747, 0.1952334344, 0.0656305701, -0.1810109913, 0.0460458770, -0.0438929461, -0.1082617268, -0.0553566627, -0.0346265920, -0.0189792514, -0.0709041655, 0.1073018014, 0.1034958661, -0.0164045468, 0.0599661134, 0.0408753753, -0.0007445941, -0.1364709139, -0.0093665291, 0.1331029236, 0.0220121443, 0.1955654621, 0.1095932052, -0.1077107117, 0.0206091292, -0.0195924658, -0.1226741076, -0.0776361898, 0.0093241446, -0.0459434949, -0.0250220150, 0.1515151411, 0.1197549403, 0.0267069973, 0.0186769702, 0.0377499796, 0.0240568407, -0.0863211378, 0.0044664550, 0.1062288955, 0.0066266120, 0.1487466544, 0.1065498218, -0.1463859975, -0.0003625650, 0.0079913437, -0.1729582697, -0.0919502750, 0.0146208741, -0.0241327863, -0.0594163202, 0.1066384315, 0.0573959425, -0.0401662178, 0.0666952282, 0.0305832326, 0.0542454235, -0.0896731690, -0.0403389521, 0.1402254403, 0.0177406184, 0.0880820826, 0.1205823272, -0.1310428977, 0.0190606657, 0.0185418688, -0.1141052619, -0.0878620595, 0.0056888610, -0.0287644509, -0.0371815413, 0.1286378652, 0.0244140644, -0.0361366831, 0.0794427693, -0.0007298606, -0.0288307834, -0.1246790737, -0.0382895097, 0.1243167073, 0.0078105954, 0.1585101634, 0.0795663595, -0.1263536811, 0.0051470487, 0.0032891023, -0.1326892227, -0.0279482864, -0.0127471061, -0.0053900727, 0.0045683836, 0.1445708126, 0.1065823659, 0.0152772581, -0.0048761042, -0.0084340852, -0.0118005164, -0.1251062006, -0.0229253024, 0.0821916088, 0.0063534114, 0.1458929628, 0.0740491375, -0.0944692418, 0.0096685337, -0.0055701681, -0.1140796691, -0.0369684994, -0.0288861226, -0.0189409368, -0.0085476097, 0.1024227738, 0.1026382446, 0.0114792101, 0.0138155799, -0.0153432377, 0.0055142324, -0.1305382252, 0.0030992886, 0.0748676509, 0.0138270557, 0.0668252110, 0.1088343933, -0.1497100145, 0.0366781875, -0.0001139199, -0.1055076271, -0.0389876738, -0.0351322033, -0.0094054872, 0.0354260579, 0.1334808916, 0.1149692014, 0.0145576522, 0.0557895824, 0.0044915942, 0.0456749611, -0.0825407207, -0.0125201177, 0.0887698382, 0.0329144932, 0.1188593209, 0.0647561774, -0.1543492824, 0.0591686852, -0.0175565910, -0.1066738963, -0.0686705709, -0.0205947813, 0.0271525513, 0.0113087678, 0.1431574672, 0.1268266886, 0.0138181215, 0.0623768792, 0.0292159580, -0.0107193151, -0.1339689791, -0.0516522788, 0.1204395816, 0.0031036013, 0.1586169153, 0.1180962995, -0.1297480911, 0.0554382652, 0.0201537218, -0.1560859829, -0.0778358504, 0.0274879765, 0.0021034013, -0.0177813936, 0.1224222630, 0.0869442299, -0.0037467738, 0.0158349723, 0.0320924222, -0.0308109019, -0.1329547018, -0.0357218273, 0.0994048640, 0.0010432932, 0.2242271751, 0.0965546295, -0.1399975270, 0.0557931326, -0.0000656084, -0.1239622980, -0.1004904062, 0.0163716506, 0.0149724334, -0.0186108071, 0.1446621567, 0.1087717861, 0.0044864174, 0.0522723496, 0.0013006834, 0.0173368379, -0.0980458185, -0.0132646253, 0.1107606068, -0.0252245162, 0.1239321381, 0.0628878474, -0.1608209312, 0.0232623052, -0.0281759668, -0.1070323884, -0.0892350748, -0.0068451944, -0.0294465665, -0.0213747583, 0.1553483158, 0.0872378275, -0.0247888826, 0.0370629318, -0.0306068119, -0.0032365595, -0.1167946905, -0.0096206758, 0.1123138517, 0.0373968892, 0.1432039589, 0.0607917532, -0.1097585112, 0.0346847847, -0.0122472905, -0.1001510695, -0.0872652382, -0.0306919124, -0.0204909109, 0.0137925958, 0.1336298585, 0.0923695490, 0.0305292401, 0.0045083738, 0.0266743321, -0.0109330462, -0.1566189080, -0.0058881436, 0.1199027747, 0.0386747606, 0.1610566229, 0.0812910348, -0.1545728892, 0.0391951315, -0.0129160602, -0.1552446336, -0.0682624206, 0.0014347445, 0.0188500658, -0.0800249353, 0.1476751864, 0.0783791915, -0.0068939752, 0.0086418865, -0.0079714237, -0.0461806282, -0.0888757035, -0.0489016213, 0.1290964633, -0.0008715591, 0.1205047965, 0.0659843758, -0.1306378841, 0.0695670024, -0.0106309094, -0.1202114820, -0.0969255045, -0.0323805138, 0.0191135593, -0.0189417601, 0.1932306290, 0.1264014393, 0.0323392451, 0.0543278344, -0.0054657101, -0.0679623112, -0.1346536130, -0.0491629615, 0.1321352273, 0.0216734577, 0.0968240276, 0.1159587204, -0.1133849695, 0.0798263624, -0.0424533822, -0.1013802961, -0.1143815815, -0.0534209646, -0.0502198674, 0.0332769975, 0.1916970909, 0.1016755402, 0.0089343404, 0.0792532265, 0.0094938138, -0.0113734649, -0.1328030229, -0.0515855737, 0.1518909633, 0.0271879528, 0.1545892954, 0.1215151623, -0.1198269948, 0.0894831195, 0.0178948417, -0.1234466806, -0.0629741177, -0.0337188281, 0.0254959203, -0.0111462809, 0.1317366660, 0.0631500781, 0.0173913296, 0.0300601106, -0.0251866598, 0.0184519775, -0.1137090176, -0.0540596619, 0.1441409588, 0.0228350610, 0.1846496016, 0.1273567975, -0.1216307059, 0.1143959612, -0.0248859450, -0.1186948791, -0.0699060187, -0.0382810384, 0.0072126435, -0.0533205271, 0.1722152531, 0.1097491607, -0.0257471446, 0.0546733215, 0.0094516547, -0.0093459664, -0.1269127876, -0.0359440371, 0.1518609971, 0.0494530201, 0.1405634433, 0.1154089719, -0.1205331609, 0.1010208875, -0.0258769728, -0.1246236190, -0.1038055047, -0.0074215238, 0.0222753286, -0.0318847075, 0.1615813524, 0.0859369859, -0.0264838636, 0.0020948458, 0.0369882919, -0.0308295414, -0.1322019100, -0.0469682142, 0.0817463547, 0.0442512594, 0.0981362388, 0.1122496873, -0.1270071417, 0.0736212283, 0.0155643160, -0.0768207088, -0.0763119310, 0.0082088644, -0.0337691009, 0.0007957587, 0.1916692704, 0.0918328911, 0.0092405034, 0.0135902762, 0.0286011249, 0.0170320906, -0.0969111174, -0.0239661783, 0.1016041934, 0.0191261750, 0.1334536225, 0.1167973429, -0.1650276482, 0.1149698570, -0.0420626253, -0.1014698744, -0.0364453644, 0.0109409746, 0.0457529128, -0.0024551961, 0.1244077086, 0.0546043180, -0.0545720719, 0.0619797334, 0.0016076535, -0.0201334693, -0.0757074580, -0.0184649359, 0.1486503035, 0.0224807877, 0.1516872048, 0.1118115112, -0.1197873354, 0.1176697910, -0.0112250634, -0.1341608763, -0.0399124026, 0.0009252791, -0.0059592691, -0.0156992599, 0.1870789230, 0.1254896224, -0.0004319999, 0.0218670778, 0.0214693621, -0.0030486805, -0.0983713120, -0.0267939083, 0.1366551518, 0.0113243973, 0.1546631008, 0.0938793421, -0.1168256253, 0.1189547628, 0.0126617178, -0.1099509448, -0.0809964985, -0.0223082881, 0.0000855551, 0.0136236204, 0.1739277691, 0.0612189285, 0.0046091811, 0.0269406475, -0.0268878452, -0.0203753989, -0.1178734973, -0.0065927585, 0.1121019870, -0.0144546973, 0.0894235894, 0.0906462371, -0.1251855344, 0.1268458217, -0.0230283923, -0.1286181360, -0.0936060324, 0.0142364781, 0.0192253739, 0.0367359631, 0.1408751905, 0.0733944625, 0.0172590390, 0.0561470762, -0.0019799669, 0.0151078496, -0.0932138711, -0.0164768100, 0.1415303200, 0.0539239608, 0.1207981184, 0.0934484079, -0.1559207737, 0.1252816767, -0.0144754006, -0.0652509704, -0.0876352936, 0.0107613401, -0.0132484576, 0.0431667529, 0.1571887136, 0.0962568298, 0.0069438214, 0.0355773121, 0.0056274720, 0.0209832583, -0.0803755000, -0.0164097678, 0.1208723634, 0.0494656861, 0.1919660121, 0.1124049425, -0.1521190107, 0.1453648508, -0.0304813143, -0.1280295253, -0.0669881031, -0.0226049609, -0.0286171883, 0.0118516712, 0.1644054055, 0.1485522538, -0.0085148113, 0.0256437827, 0.0183600560, 0.0303444881, -0.1068017110, 0.0042620585, 0.1282574981, 0.0488511287, 0.1762552708, 0.1081084162, -0.1125296503, 0.1381661296, 0.0168729648, -0.1353178322, -0.0985283926, -0.0176212303, 0.0309697706, -0.0199637264, 0.1571357846, 0.0863516554, -0.0094777122, 0.0263474621, -0.0073921797, 0.0470713079, -0.1373604387, -0.0386001207, 0.1192613095, -0.0062914835, 0.1245257333, 0.0855388492, -0.1114884093, 0.1345038563, -0.0348271988, -0.0736702085, -0.0497447625, -0.0367701203, -0.0086025028, -0.0143005345, 0.1342710555, 0.0763371065, 0.0135781858, 0.0483987145, -0.0292392056, 0.0228277333, -0.1452690214, -0.0194535423, 0.1386081427, -0.0075012236, 0.1463210136, 0.0816440955, -0.1218289882, 0.1458546519, -0.0122382138, -0.0999060869, -0.1041542441, 0.0062747751, -0.0425987430, -0.0072253831, 0.1498415917, 0.0649352372, -0.0415014811, 0.0654348210, -0.0096488083, 0.0129070962, -0.0971361622, -0.0138339195, 0.1758878976, -0.0128912227, 0.1891589463, 0.0933556780, -0.1497102380, 0.1119119152, 0.0093108583, -0.1254676878, -0.1102604717, 0.0179139469, 0.0055830264, -0.0085393637, 0.1550748795, 0.0621329285, -0.0126775298, 0.0660637468, -0.0106675839, -0.0205775481, -0.0718730390, -0.0345333628, 0.1207731441, 0.0478427447, 0.1397717595, 0.1241886541, -0.1665281206, 0.1800251752, -0.0026312550, -0.1376937926, -0.0742953271, -0.0208027381, 0.0459326580, 0.0100080064, 0.1272063553, 0.0829290003, -0.0159748644, 0.0171715207, 0.0129726855, 0.0131546706, -0.0965079889, -0.0169829521, 0.1399262249, 0.0441337004, 0.1003414690, 0.0845203474, -0.1527770162, 0.1316388994, -0.0176113229, -0.1479627341, -0.1189832464, -0.0351509191, 0.0084514422, 0.0079176212, 0.0631017983, 0.0950014591, 0.0046618627, 0.0482385829, -0.0208316930, 0.0036818101, -0.1140126288, -0.0563664287, 0.0679893270, 0.0164192747, 0.1562456191, 0.0863763466, -0.1757163405, 0.1301384121, -0.0008119233, -0.1435410231, -0.0623445623, 0.0028084444, 0.0223896336, -0.0329500102, 0.0638897642, 0.0869932398, -0.0136806127, 0.0767000839, -0.0201396644, -0.0190645978, -0.1290829927, -0.0123370886, 0.1212785393, 0.0216327440, 0.1810767353, 0.0981656536, -0.1646402329, 0.1806782335, -0.0380142629, -0.1162927747, -0.0624847561, 0.0105852429, 0.0372964405, -0.0701212734, 0.0616518222, 0.0529634319, 0.0028012334, 0.0137157105, 0.0006108896, -0.0625575706, -0.0662171170, -0.0496209152, 0.0766817778, 0.0094606541, 0.1703310162, 0.1326158196, -0.1689692736, 0.1295559406, -0.0037571683, -0.0934397951, -0.0531773120, -0.0085205082, -0.0211078227, -0.0134372842, 0.0781747773, 0.0774026588, -0.0140673388, 0.0648725331, 0.0146974139, 0.0129255550, -0.1361817122, -0.0398172364, 0.0778363720, 0.0096497964, 0.1434754580, 0.1139340401, -0.1739025116, 0.1404604316, 0.0141070560, -0.0988257974, -0.0975876376, -0.0452629142, 0.0089145228, -0.0407410115, 0.0906831920, 0.0954159945, 0.0042356499, 0.0136005031, 0.0141413845, 0.0316095725, -0.1060518175, -0.0078631304, 0.1092727557, 0.0162481461, 0.1010980010, 0.1058816537, -0.1171841919, 0.1537363082, 0.0043546152, -0.1502104849, -0.0618467331, -0.0280047283, -0.0057270038, 0.0224243663, 0.0827673152, 0.1069805026, -0.0097106025, 0.0531660840, 0.0037749645, -0.0030594501, -0.1179292873, -0.0547408611, 0.1120415553, 0.0356838815, 0.1787859499, 0.0921178907, -0.1471248269, 0.1209573224, 0.0108585302, -0.1431070864, -0.0798863769, -0.0115726674, 0.0355151780, 0.0096061071, 0.0636030957, 0.0951591805, -0.0037162497, 0.0638863891, 0.0348312594, -0.0533197522, -0.1179140434, -0.0427524596, 0.0792453438, 0.0280750096, 0.1359773427, 0.1092991382, -0.0993569568, 0.1363405436, 0.0104252603, -0.1258888692, -0.0811098367, 0.0146250296, 0.0014375556, 0.0115988646, 0.0586761758, 0.0851443037, -0.0197384730, 0.0656719357, 0.0300436504, 0.0344915986, -0.0639420375, -0.0300670695, 0.1231013536, 0.0093948171, 0.0862509832, 0.0993547812, -0.1194898635, 0.1592980921, 0.0160068739, -0.0977966562, -0.0851135999, -0.0094939293, -0.0053526671, -0.0052789780, 0.0867716148, 0.0846174583, 0.0071502677, 0.0610394850, 0.0153819500, -0.0188043993, -0.1092580408, -0.0170515571, 0.1226695031, 0.0385016315, 0.0859872177, 0.1295305640, -0.1433130205, 0.1568513215, -0.0027245728, -0.1471714973, -0.0907412246, 0.0036980230, 0.0017916247, 0.0237022638, 0.0533807389, 0.1181309000, -0.0099720163, 0.0214138832, -0.0202195719, 0.0106222397, -0.0789856091, -0.0022065297, 0.0963769406, 0.0210756734, 0.1608448029, 0.0790030584, -0.1600322872, 0.1393972635, -0.0249081813, -0.1486699730, -0.0925303102, -0.0149987955, -0.0180974249, -0.0336372517, 0.0715879351, 0.0891551822, -0.0303380042, 0.0581827499, -0.0228569396, -0.0625699461, -0.0870892778, -0.0198028870, 0.0983853638, 0.0271848124, 0.1728443652, 0.0880686417, -0.1101497412, 0.1219933406, 0.0059679751, -0.1411255002, -0.0881598145, 0.0151861273, 0.0284383241, 0.0083087496, 0.0729072988, 0.0627816543, 0.0139791323, 0.0463644527, 0.0328784138, 0.0528114513, -0.1116723344, -0.0219129417, 0.0884869024, 0.0150134237, 0.1690992564, 0.0948246568, -0.1093077064, 0.1728562117, -0.0466890708, -0.1157065108, -0.1020152867, -0.0214675441, -0.0330124572, -0.0379065946, 0.0897873566, 0.0826455131, 0.0226131454, 0.0761441663, 0.0289929044, 0.0010651281, -0.0748911574, -0.0389120504, 0.0856553838, -0.0062062372, 0.1014999077, 0.0923628062, -0.0972399116, 0.1319276989, -0.0445420370, -0.1207629517, -0.0775531977, -0.0094785942, -0.0130148279, 0.0329067446, 0.0726358891, 0.0782473087, -0.0158134028, 0.0513837785, 0.0305374283, -0.0165827964, -0.0826001242, -0.0599235855, 0.1090955362, 0.0108893616, 0.1763978899, 0.0855424106, -0.1192860231, 0.1267528236, -0.0369644053, -0.1359183043, -0.0796280429, 0.0248899423, 0.0326565765, -0.0210685395, 0.0701894984, 0.0146161756, 0.0169820525, 0.0454146415, 0.0306518730, 0.0225950126, -0.1826050282, -0.0535667650, 0.0788730457, 0.0035634763, 0.1487877965, 0.0903136432, -0.1246007830, 0.1582327634, 0.0024559458, -0.0854840279, -0.0761465281, -0.0538164712, 0.0396737345, -0.0382323153, 0.1661204100, 0.0751180425, 0.0128903538, 0.0597855598, 0.0402869321, -0.0079032239, -0.1165145859, -0.0168354884, 0.0507205315, 0.0452462398, 0.0674875602, 0.0780047774, -0.1299167424, 0.1557505131, -0.0506524481, -0.0854584053, -0.0839616582, -0.0417579263, 0.0294151921, -0.0151329311, 0.1153248549, 0.0755742118, 0.0180157926, 0.0505609512, 0.0204419624, -0.0230022185, -0.1731023490, -0.0225566346, 0.1125040054, 0.0622177459, 0.1188697517, 0.0747287050, -0.1543010324, 0.1243507490, -0.0213952065, -0.0785298645, -0.1090912148, 0.0123762963, 0.0653840303, -0.0511775576, 0.1463683695, 0.0915017501, 0.0206893757, 0.0892679915, 0.0374688953, -0.0183329396, -0.1914674342, -0.0498952605, 0.1344009638, 0.0230483357, 0.1866547316, 0.0791430473, -0.1708085537, 0.1590491384, -0.0253509898, -0.1474471241, -0.0577607229, 0.0193790980, -0.0179763380, -0.0563961789, 0.1218450442, 0.0609178804, -0.0007351206, 0.0318225659, 0.0092019998, -0.0459765606, -0.1862260550, -0.0419977158, 0.0890250951, 0.0596114099, 0.1638836116, 0.0784750134, -0.1477540582, 0.1850026697, -0.0226671584, -0.1280328482, -0.0620605834, 0.0113502303, -0.0021049718, -0.0118346298, 0.0825658813, 0.0882064253, 0.0177512970, 0.0755122826, 0.0429480001, 0.0174068026, -0.1269862801, -0.0161859021, 0.1111375168, -0.0114712128, 0.1301842481, 0.0930929929, -0.1202566698, 0.1819138378, -0.0119498456, -0.0957724676, -0.0927261338, 0.0059665856, 0.0397491306, -0.0145839034, 0.0762938112, 0.0792165101, 0.0070729302, 0.0384764001, 0.0170455221, -0.0138129201, -0.1261356175, -0.0354684591, 0.1240718141, 0.0372591205, 0.1285986453, 0.1003791541, -0.1547255516, 0.1693327874, 0.0048460723, -0.1150159836, -0.0361227319, 0.0115168970, 0.0567454733, 0.0107658962, 0.0915497839, 0.0441168137, 0.0143274544, 0.0629951209, 0.0393941402, -0.0340800136, -0.1258450896, -0.0522909723, 0.1200208738, -0.0377366692, 0.1203241721, 0.1068713292, -0.1339718997, 0.1767169088, 0.0182027090, -0.1006727591, -0.0912241787, 0.0058810902, 0.0041599702, -0.0603429973, 0.0947416276, 0.0874123797, 0.0012450572, 0.0787435696, -0.0053531318, -0.0443093441, -0.1608778834, 0.0049344641, 0.0518447012, -0.0115642305, 0.1341962069, 0.1322188824, -0.0998875424, 0.1683912575, -0.0403016098, -0.0666821972, -0.0580641776, -0.0385459140, -0.0117337387, 0.0215331204, 0.0725521073, 0.0694322437, 0.0253836159, 0.0729400143, -0.0165810883, -0.0311526097, -0.1641192436, -0.0485524535, 0.1294684857, -0.0097151045, 0.0808341503, 0.1081438959, -0.1090756804, 0.1426783204, -0.0310117323, -0.0942295119, -0.0952167138, -0.0120227467, -0.0113458969, -0.0034803920, 0.1311493516, 0.0439888909, -0.0033491754, 0.0165036339, 0.0359119289, -0.0261537861, -0.1518362761, -0.0487809256, 0.0957492068, 0.0131882345, 0.1109401211, 0.1012106612, -0.1573833525, 0.1315440983, 0.0132261254, -0.0937535539, -0.0833047479, -0.0129219387, 0.0042727394, 0.0507821701, 0.0976282358, 0.0907991827, -0.0060138931, 0.0473621599, 0.0168122761, 0.0392285846, -0.1275323033, -0.0216792263, 0.1254407018, -0.0183370858, 0.1854066849, 0.1081730202, -0.1498332173, 0.1014099568, -0.0088162096, -0.1011910066, -0.0514605120, 0.0025332714, 0.0309531614, -0.0261909869, 0.0832772553, 0.0708929524, -0.0091587529, 0.0352883264, -0.0233363565, -0.0098886872, -0.1387563050, -0.0344397165, 0.1163337305, 0.0150933312, 0.1451654136, 0.0754791945, -0.1249860898, 0.0887674689, -0.0169798266, -0.1338188946, -0.0438023508, 0.0026714751, 0.0471654534, -0.0204168484, 0.1207488030, 0.0658990517, 0.0236156117, 0.0198193733, 0.0250212941, 0.0117035676, -0.1378514767, 0.0061307722, 0.1259160191, 0.0279151145, 0.1486301869, 0.1127382070, -0.1040909141, 0.0976098701, -0.0092329355, -0.1017820761, -0.0594629310, -0.0058029275, 0.0005047750, 0.0189434476, 0.1095576435, 0.0485560410, -0.0068724845, 0.0814704150, -0.0159236677, 0.0446828045, -0.1201246157, -0.0559383817, 0.1238109022, -0.0220078211, 0.1476373523, 0.1121191457, -0.1355022937, 0.1553642154, -0.0511900857, -0.0830832496, -0.0654571056, -0.0035911768, 0.0127280354, -0.0233237576, 0.0985127315, 0.0238091219, 0.0036986442, 0.0265865773, -0.0189253539, 0.0193302482, -0.1554366499, -0.0223990511, 0.1210405529, 0.0351030864, 0.1767009050, 0.1086959392, -0.1125694066, 0.1509754360, -0.0259994362, -0.1024457067, -0.1186826155, 0.0049507860, 0.0271630660, -0.0368605107, 0.0884485096, 0.0726803467, -0.0035027964, 0.0493557788, 0.0319018364, -0.0108627295, -0.1451024115, 0.0000316095, 0.0754010305, -0.0119447894, 0.1602092683, 0.1207317412, -0.1564151049, 0.1619311869, -0.0494270138, -0.1186103523, -0.0578041635, 0.0024666688, 0.0180586856, -0.0401484817, 0.1115887687, 0.0400505476, 0.0207502190, 0.0477694310, 0.0217515323, 0.0082639148, -0.1041951478, -0.0028211663, 0.1198486984, 0.0076442966, 0.1080915406, 0.1159623042, -0.1486714929, 0.1410154104, -0.0418400243, -0.1329761893, -0.0807608813, -0.0317070149, -0.0598842502, 0.0048499247, 0.1319816113, 0.0958791226, -0.0175219979, 0.0835870877, 0.0158777125, 0.0486337356, -0.1120042950, -0.0590709150, 0.1036905944, 0.0214577056, 0.1091858521, 0.1134827957, -0.1255396456, 0.1056736708, 0.0199692678, -0.1098791584, -0.1042402759, 0.0190223288, 0.0525294542, -0.0290237647, 0.1347716451, 0.1326744258, -0.0341461264, 0.0649940446, 0.0024535798, -0.0180544760, -0.1136125028, -0.0446530282, 0.0968201831, 0.0169866513, 0.1957816184, 0.0977207646, -0.1253276169, 0.1785372645, -0.0072955317, -0.1338828057, -0.0415747464, 0.0019469762, 0.0017392202, -0.0690015405, 0.1695744991, 0.0468265936, -0.0348143838, 0.0816932097, 0.0103438171, -0.0236753467, -0.1651848704, -0.0557353087, 0.0870986581, -0.0085836723, 0.1661668122, 0.0634839907, -0.1350877136, 0.1189396158, -0.0209123138, -0.1011848375, -0.0417845249, 0.0130097792, -0.0159420036, -0.0472339280, 0.0877721459, 0.1116405055, -0.0013892453, 0.0722247288, 0.0178589728, 0.0194435976, -0.1573456526, -0.0398083366, 0.0688257664, 0.0049889097, 0.1068710312, 0.0689849108, -0.1379168183, 0.1201783493, -0.0403807983, -0.1346639246, -0.0805451870, -0.0151123088, -0.0300445072, 0.0075678662, 0.1322797537, 0.0783314332, -0.0289542172, 0.0556970201, 0.0131725632, 0.0177041888, -0.1044876799, -0.0217272937, 0.0932078287, 0.0038749008, 0.0773400962, 0.0949100852, -0.1307411641, 0.1109238639, 0.0155438017, -0.1009778753, -0.0432982631, -0.0026216276, 0.0194502305, -0.0039124987, 0.0823605806, 0.0758965164, 0.0134820072, 0.0729546398, 0.0287930388, -0.0284944214, -0.1350780278, -0.0026845390, 0.0685689375, -0.0249192435, 0.1273393035, 0.1161762401, -0.1364949942, 0.1559829712, 0.0208587889, -0.0959121808, -0.0338863023, 0.0228053480, -0.0200688858, -0.0256104656, 0.1325938106, 0.0651175380, 0.0027309395, 0.0863410383, -0.0011407759, -0.0348533951, -0.1102918983, -0.0239371005, 0.1158375293, -0.0295475423, 0.1135902554, 0.1002935544, -0.1282974184, 0.1252105832, 0.0112116374, -0.1451896131, -0.0615117252, -0.0348443128, -0.0333003588, 0.0638373941, 0.1064205691, 0.0430376604, -0.0045161098, 0.0989875868, -0.0064010168, 0.0024419248, -0.1410008073, -0.0174622536, 0.0661147982, 0.0020117972, 0.0743582249, 0.0759879351, -0.1011247486, 0.1036069095, 0.0022873620, -0.0888995305, -0.0376909748, -0.0212703794, -0.0263418891, 0.0066479072, 0.1072201356, 0.0941097066, 0.0273316801, 0.0384509675, 0.0066376412, -0.0091051487, -0.1532977223, -0.0518811047, 0.0942201316, -0.0282233022, 0.1105435416, 0.0772239491, -0.1292156428, 0.0771638602, -0.0120117776, -0.1257557571, -0.0711906329, -0.0351069756, 0.0327636488, 0.0174086448, 0.0871410072, 0.0717886388, -0.0134953391, 0.0227737073, 0.0247476958, 0.0052306456, -0.1268742979, -0.0399268568, 0.0839898363, -0.0128224585, 0.1582111716, 0.1167816967, -0.1450835019, 0.0848556384, -0.0088597219, -0.1040732041, -0.0940860212, -0.0346923023, 0.0521957614, -0.0803289637, 0.1466390938, 0.0944277644, 0.0256890487, 0.0518406518, 0.0113592492, 0.0094929831, -0.1287213862, 0.0003565961, 0.1061331406, 0.0577719919, 0.2256044298, 0.1216853037, -0.1352257878, 0.1004304513, -0.0159391593, -0.0995326117, -0.0677611679, -0.0199304447, 0.0769192576, -0.0513137318, 0.1428631991, 0.0783360749, -0.0082784845, 0.0745882690, 0.0236405842, -0.0172031466, -0.0906042382, -0.0456054956, 0.1056126729, 0.0025356822, 0.1089609116, 0.1319629699, -0.1532949209, 0.0510161594, 0.0016351435, -0.0957929268, -0.0612681024, -0.0117430901, 0.0653209686, -0.0300653074, 0.1696142405, 0.0971207321, -0.0130188726, 0.0588114895, 0.0087291710, 0.0684911311, -0.1113775074, -0.0180578344, 0.0974079296, 0.0237420574, 0.1219813600, 0.1327763200, -0.1214202866, 0.0929788873, 0.0033338878, -0.1152187139, -0.0705891177, -0.0325132683, 0.0356332026, 0.0215066075, 0.1448437274, 0.0627988204, -0.0367349945, 0.0215500984, -0.0151273282, -0.0079623656, -0.0990895405, -0.0376948304, 0.0965957046, -0.0081009008, 0.1902276576, 0.1006200910, -0.1237014085, 0.0911331773, 0.0007548488, -0.0935648009, -0.0910739228, -0.0324569382, 0.0560860597, -0.0394479446, 0.1702427715, 0.0281670410, -0.0046794587, 0.0229091123, -0.0297681242, -0.0078281527, -0.1399456412, -0.0214117728, 0.1510667801, 0.0523523875, 0.1198446751, 0.0958520696, -0.1281491071, 0.1544816047, -0.0293656718, -0.1484636664, -0.0692432895, -0.0064856918, -0.0319230668, -0.0279081296, 0.1419554502, 0.1191343516, -0.0100900205, 0.0303442553, 0.0385164879, -0.0103716953, -0.0834592283, -0.0568901822, 0.1044134423, 0.0045780255, 0.0716114566, 0.1168994084, -0.1657317281, 0.2013495117, 0.0058334167, -0.1311262995, -0.0840782523, -0.0074813492, -0.0449356623, -0.0206401274, 0.1273672730, 0.1087620482, -0.0207242165, 0.0206811838, 0.0060693789, 0.0280864760, -0.1219494864, -0.0592153855, 0.1056933105, 0.0500130728, 0.1027461812, 0.0618254133, -0.1324668229, 0.1583810896, -0.0365967229, -0.1469226032, -0.0992399454, -0.0193731356, 0.0370284729, -0.0094193518, 0.1018299982, 0.1625630558, -0.0107867857, 0.0369173288, 0.0430021584, 0.0063921013, -0.1128137708, -0.0065267221, 0.1077451333, 0.0441264883, 0.1681926548, 0.0900865570, -0.1355911791, 0.1903279424, -0.0382503979, -0.1073428616, -0.0885579810, -0.0208222419, 0.0594538189, -0.0588254146, 0.1512213945, 0.0966859460, -0.0320283584, 0.0523521751, 0.0248710364, -0.0061662598, -0.0947530568, -0.0525746308, 0.0977953449, -0.0237804446, 0.1747654080, 0.0900733471, -0.1588021666, 0.1422890276, 0.0040590880, -0.1554688960, -0.0844439566, -0.0362859145, 0.0337042287, -0.0525662266, 0.1122805029, 0.0945936218, 0.0226428024, 0.0425239392, 0.0157440454, -0.0246754047, -0.0930038989, -0.0314544067, 0.1697971523, -0.0134998495, 0.1398791820, 0.0758481994, -0.1611316651, 0.1476678848, 0.0253040567, -0.1370875090, -0.0653229207, -0.0220541842, -0.0045076055, -0.0223706067, 0.1330978125, 0.1056157872, 0.0063248114, 0.0816621929, 0.0233164337, 0.0275548734, -0.1342995763, -0.0251308400, 0.1334288716, 0.0066877436, 0.0963845700, 0.1026089862, -0.1417704821, 0.1868395060, 0.0087803081, -0.1209903285, -0.0454191566, -0.0149111869, 0.0652867258, -0.0085165128, 0.1060837805, 0.0960312635, -0.0315817595, 0.0658927560, 0.0291971024, 0.0635301024, -0.1354442686, -0.0360682495, 0.1454476416, 0.0046939249, 0.1407335997, 0.0467820615, -0.1257219166, 0.1875595152, -0.0046582390, -0.1373984814, -0.0164010804, 0.0005215079, -0.0391266346, -0.0391392894, 0.1140787229, 0.1095453352, 0.0147138741, 0.1023330390, 0.0371037871, -0.0470545478, -0.1271287203, -0.0306858197, 0.1311160028, -0.0338235497, 0.1796116680, 0.0798910931, -0.1408656389, 0.1262091845, 0.0291274767, -0.1146803200, -0.0447119735, -0.0343460329, 0.0334937349, 0.0461090617, 0.1345698684, 0.0940894410, -0.0415794514, 0.0618367940, 0.0114020584, 0.0474190079, -0.1441034526, -0.0310536288, 0.1420868337, -0.0047662267, 0.1191519052, 0.0628909022, -0.1577603817, 0.1796834916, -0.0240250882, -0.0988928378, -0.0524075963, -0.0412021354, 0.0142427990, -0.0328045376, 0.0846573338, 0.0754624456, 0.0304028280, 0.0863034576, 0.0027286178, -0.0379489325, -0.0999936387, -0.0482655168, 0.1524157971, -0.0120037040, 0.0808170512, 0.0763063654, -0.1437700242, 0.1095187142, -0.0366640575, -0.1047639027, -0.0845434070, -0.0122539345, -0.0123400707, 0.0497962199, 0.0773419291, 0.1163298711, 0.0089915218, 0.0339662395, -0.0024631876, 0.0533132888, -0.1434171051, -0.0045451876, 0.1346006840, 0.0160827544, 0.1516635865, 0.0688688159, -0.1500583142, 0.1395788789, 0.0196979921, -0.1348804384, -0.0840681866, 0.0269343387, -0.0010276956, -0.0305113960, 0.1178026721, 0.1247892827, 0.0464179702, 0.0363616273, 0.0097142216, -0.0031914397, -0.1301983595, -0.0149036627, 0.1267638505, 0.0719564706, 0.2193519175, 0.0643437728, -0.1260701269, 0.1457504481, 0.0243868791, -0.1175887138, -0.0745302588, -0.0411950573, 0.0245889649, -0.0113523891, 0.1358730793, 0.0991220623, -0.0036973546, 0.0407835171, -0.0142074628, 0.0540945604, -0.1375720203, -0.0357895792, 0.1540626436, -0.0286991149, 0.1514031440, 0.0852080360, -0.1382007450, 0.1560473591, -0.0181117933, -0.1357839555, -0.0803137049, -0.0141287167, -0.0321081094, -0.0193907600, 0.1557881683, 0.0739142001, 0.0355237164, 0.0238345526, 0.0143229207, 0.0280080400, -0.1581034809, -0.0418238938, 0.1501105130, 0.0454966500, 0.1450345218, 0.0658845454, -0.1026720628, 0.1042328104, -0.0355837159, -0.1356998533, -0.0952104107, 0.0121784844, -0.0349594280, 0.0067736390, 0.0750786886, 0.0516286865, 0.0179680884, 0.0689796656, 0.0044160779, 0.0370486155, -0.0862117857, -0.0176132955, 0.1097860187, 0.0110294577, 0.1640902460, 0.0828667060, -0.1364074647, 0.1284283996, -0.0119804004, -0.1038748622, -0.1055901349, 0.0214828663, -0.0256497581, -0.0459547602, 0.0951713994, 0.0792398602, -0.0228569452, 0.0684854165, -0.0197818913, -0.0340862833, -0.1071683690, -0.0056783287, 0.1593811661, 0.0249147154, 0.1458058059, 0.0690635964, -0.1111383513, 0.2015345544, -0.0157508589, -0.1274432540, -0.0972157121, -0.0321595594, -0.0417313315, -0.0300321113, 0.1218627542, 0.1284927875, 0.0197124351, 0.0082004536, 0.0240862891, 0.0122141205, -0.0755228251, -0.0566702485, 0.1357615888, 0.0081329225, 0.0673623383, 0.0774323046, -0.1749903560, 0.1885757744, -0.0435929522, -0.1466897726, -0.0603296310, -0.0535502769, -0.0146329263, -0.0415117629, 0.1259097755, 0.1252109557, -0.0031074216, 0.0542246588, 0.0001181354, -0.0289830286, -0.1297577322, -0.0304433927, 0.1260096729, 0.0117568765, 0.0922631696, 0.1190294027, -0.1764251590, 0.1714119613, -0.0039112917, -0.1477600336, -0.0959125459, 0.0137083828, -0.0176891666, -0.0040461347, 0.1490756571, 0.1275123656, 0.0311602149, 0.0524587072, 0.0100094322, 0.0114950892, -0.0790079162, -0.0337538384, 0.1141381711, 0.0073883114, 0.1795772910, 0.0909598097, -0.1549385488, 0.1870028377, -0.0201968532, -0.0820130929, -0.0940814465, 0.0047616637, -0.0482039861, -0.0726538524, 0.1215194911, 0.1176935136, -0.0474852808, 0.0344205201, 0.0266443230, -0.0420883708, -0.1208823398, -0.0160893574, 0.1749058813, 0.0142885279, 0.1824330091, 0.1091990918, -0.1253068894, 0.1775026917, 0.0320958681, -0.1222094893, -0.0718612224, -0.0136075504, -0.0440518893, -0.0393572859, 0.1513606161, 0.1222600192, -0.0085601304, 0.0476732701, 0.0228198599, 0.0182965510, -0.1226661131, -0.0000065329, 0.1496577710, 0.0284112152, 0.1252574623, 0.0815147609, -0.1150729135, 0.1875227988, 0.0092741093, -0.1050688699, -0.0688778535, -0.0594333671, -0.0135384668, -0.0311845373, 0.1178334653, 0.0825365856, -0.0127921645, 0.0327594467, 0.0030292037, -0.0158404652, -0.0921255648, 0.0044414997, 0.1613366604, -0.0145712551, 0.1058845222, 0.0851125866, -0.1511428952, 0.2251197398, -0.0142073408, -0.1267960668, -0.0612471774, -0.0403492190, -0.0160391703, 0.0214090478, 0.1253848821, 0.0477395393, 0.0278487504, 0.0626304299, -0.0021365241, -0.0319064930, -0.1092229858, -0.0216674581, 0.1594830751, 0.0083956169, 0.1760791838, 0.1079106033, -0.1140521541, 0.2379128933, 0.0268671270, -0.1333917379, -0.0307453256, -0.0473211035, -0.0122926263, -0.0116617996, 0.1004914939, 0.1159280539, 0.0276796222, 0.0972431824, -0.0179918967, 0.0075080753, -0.1006849855, -0.0052451957, 0.1216032282, -0.0085414806, 0.1493596137, 0.0523943715, -0.1470106244, 0.2134539932, 0.0106505593, -0.1094908118, -0.0635812804, 0.0046514305, -0.0081078494, 0.0308858398, 0.1400456131, 0.0801011100, -0.0235446934, 0.0648865402, -0.0107302694, -0.0439982004, -0.1284278184, -0.0434693508, 0.1101885587, -0.0674080327, 0.0964307114, 0.1022589281, -0.0999034420, 0.2223908305, -0.0083430484, -0.1402877569, -0.0639457107, 0.0052761971, -0.0219776295, 0.0116325608, 0.1279769987, 0.1023002267, 0.0064494638, 0.0600100532, -0.0129287597, -0.0028516061, -0.0744033232, -0.0354475938, 0.1311443895, 0.0157998595, 0.0850806683, 0.0836666077, -0.1162943020, 0.1915617883, 0.0165868979, -0.1010350734, -0.0829263180, 0.0056641861, -0.0018259478, 0.0065246588, 0.1417182386, 0.0882600844, -0.0053810240, 0.0624048710, 0.0267060678, 0.0189973693, -0.0665405840, -0.0366854332, 0.1512697786, 0.0223814789, 0.1921718419, 0.0758782849, -0.1708629727, 0.2078585476, -0.0478260778, -0.1328205764, -0.0686810464, 0.0134866145, 0.0184258148, -0.0190143734, 0.1541870236, 0.0370931365, 0.0244401004, 0.0871586278, 0.0328068696, 0.0007626262, -0.0843600482, -0.0243197624, 0.1452584118, -0.0057682390, 0.1603313386, 0.0961604342, -0.1572750956, 0.1807868779, -0.0241158474, -0.1161369234, -0.0857911259, -0.0294763613, -0.0043044528, -0.0066457028, 0.1453679502, 0.0587603152, -0.0252922364, 0.0404673629, 0.0275701936, -0.0021479959, -0.0823062807, -0.0452874377, 0.1488625109, -0.0178766325, 0.1648888439, 0.1205748320, -0.1164802089, 0.1995553076, 0.0185363404, -0.1091687307, -0.0918454453, 0.0061277081, -0.0111345323, -0.0320415422, 0.1459408253, 0.0384352133, -0.0214538611, 0.0706975013, 0.0192964785, 0.0099772047, -0.1258323640, -0.0158453044, 0.1918839663, 0.0526621789, 0.1527523696, 0.0590769798, -0.1209266558, 0.1722106040, 0.0047442894, -0.1484498978, -0.0714877769, -0.0052513108, 0.0031424852, 0.0216231458, 0.1618258208, 0.0735795945, 0.0275643710, 0.0722177029, -0.0017817706, 0.0089408932, -0.1025021300, -0.0196405370, 0.1895743161, 0.0015013433, 0.2060731947, 0.0652988479, -0.1595499367, 0.1827300787, -0.0182477720, -0.0960599333, -0.0526010729, -0.0407106727, -0.0584421419, -0.0275042672, 0.1216937304, 0.0975582674, -0.0051022531, 0.0883484408, -0.0284299348, -0.0119744856, -0.1513641030, -0.0082698008, 0.0819137171, 0.0398563296, 0.1428265721, 0.1346636862, -0.1222724542, 0.1304502338, 0.0211168099, -0.1397197694, -0.0605663620, -0.0218480099, -0.0399149358, -0.0334735699, 0.1389928460, 0.0509790592, 0.0138876112, 0.0692021027, -0.0041918471, 0.0028394016, -0.1472832263, -0.0494468659, 0.1075015962, 0.0215337984, 0.0665739030, 0.0996207446, -0.1636098772, 0.1460043937, -0.0255658291, -0.1473449171, -0.0800555125, -0.0441292897, 0.0001842044, 0.0011346940, 0.1292522699, 0.0810872316, 0.0105368346, 0.0348582156, 0.0153962122, 0.0256387703, -0.1524609178, -0.0108157005, 0.1124778762, 0.0038015177, 0.1489279568, 0.1363905519, -0.1352006495, 0.1441754997, 0.0121489409, -0.1174665093, -0.0802826211, -0.0293003805, -0.0371750779, -0.0443516038, 0.1188011616, 0.1319962442, 0.0298098642, 0.0676103905, 0.0210170187, 0.0409239046, -0.1150593236, -0.0055701127, 0.1556573212, -0.0182879716, 0.1644514799, 0.1300287396, -0.1746206880, 0.1748117656, 0.0181116983, -0.1191988885, -0.0532578789, -0.0218958128, -0.0055306256, -0.0719417632, 0.0745267197, 0.0827415586, 0.0431157835, 0.0779371485, 0.0387203060, -0.0235861894, -0.1737410873, -0.0388974473, 0.1094609126, 0.0021401390, 0.1524745226, 0.0840483010, -0.1576676667, 0.1537597030, -0.0014003706, -0.1486511230, -0.0483568050, 0.0019624201, -0.0254622102, -0.0619070306, 0.1004832834, 0.0421588123, -0.0131154377, 0.0422197841, -0.0036692459, 0.0175230335, -0.1518025696, -0.0234998055, 0.1348424256, -0.0000271950, 0.1703284532, 0.0826321095, -0.1512358338, 0.1548838913, 0.0131683731, -0.1261038780, -0.0655981079, -0.0163920447, 0.0463500060, 0.0063106189, 0.1456335187, 0.0738281012, 0.0321255550, 0.0916057527, 0.0366404280, 0.0050698714, -0.1350670308, -0.0157742891, 0.1135876253, 0.0055370457, 0.1370461434, 0.1370704621, -0.1257940978, 0.1479982883, -0.0115962401, -0.1504774988, -0.0766426623, -0.0000588709, 0.0423259698, -0.0176312868, 0.0960687250, 0.0867261663, -0.0115369717, 0.1000485048, -0.0095443828, -0.0369203165, -0.1470004767, -0.0379561111, 0.1151938289, 0.0593787432, 0.1747734398, 0.0838219747, -0.1282879561, 0.2062812746, -0.0062244767, -0.1758944541, -0.0278389454, -0.0120665766, -0.0398181267, 0.0102825109, 0.1018016189, 0.0857644826, 0.0242966935, 0.0724037960, 0.0048605353, -0.0195024814, -0.1372329593, -0.0222967491, 0.0930700526, 0.0360335968, 0.1754706353, 0.1140543520, -0.1462187469, 0.1859044284, 0.0355905481, -0.1037915349, -0.0312767476, -0.0203921106, -0.0512578748, -0.0025828299, 0.0731263086, 0.0672811344, -0.0164752379, 0.0430129394, 0.0050870567, -0.0493145660, -0.1531052440, 0.0022325730, 0.1132493392, 0.0265913084, 0.0689195991, 0.0825153142, -0.1643863469, 0.1520355940, -0.0246785674, -0.1491314322, -0.0382452719, -0.0162865147, -0.0370650142, 0.0187133662, 0.1029275060, 0.0736354962, -0.0116461292, 0.0447615162, -0.0033002780, 0.0237431247, -0.1138522848, -0.0303014871, 0.1836648434, -0.0276428442, 0.1346766651, 0.1030611545, -0.1243410856, 0.1940504909, -0.0021770657, -0.1315428764, -0.0537961870, -0.0321108475, 0.0066455514, 0.0359942056, 0.0568585545, 0.0760126859, -0.0250754692, 0.0489357896, 0.0133237131, -0.0414152406, -0.1487654001, 0.0052250824, 0.1867011636, -0.0328971930, 0.2007807046, 0.1178909987, -0.1772636026, 0.1984976828, 0.0173439179, -0.1344505996, -0.0811649784, 0.0274874605, -0.0000816095, -0.0460620560, 0.0794038400, 0.0441385470, 0.0214547664, 0.0419437476, -0.0272944495, 0.0398686863, -0.1575298160, -0.0531606339, 0.1238142326, 0.0177335348, 0.1639051288, 0.1133848056, -0.1168075651, 0.1701842546, -0.0312754102, -0.1621594280, -0.0801147893, 0.0316287577, -0.0000862239, -0.0324776471, 0.0920905396, 0.0681979954, -0.0249142610, 0.0429611914, -0.0106126554, 0.0331601091, -0.1475875080, -0.0156868733, 0.1661028713, -0.0100324806, 0.1159148961, 0.1095127091, -0.1177466884, 0.1422034651, -0.0070813820, -0.1537656337, -0.0788115636, 0.0068607214, -0.0223520119, -0.0255242977, 0.1410478204, 0.0705635324, 0.0004520499, 0.0730197206, 0.0342859291, -0.0144549776, -0.1421611011, -0.0323373601, 0.1669911742, 0.0621411167, 0.1191757396, 0.1300251037, -0.1621534824, 0.2004200071, 0.0132857319, -0.1066288725, -0.1095347404, -0.0518647246, -0.0403922126, 0.0337045863, 0.1410149932, 0.0573405735, 0.0283369739, 0.0708034411, 0.0319813900, 0.0074408473, -0.1467249095, -0.0312728509, 0.1813913882, -0.0175956450, 0.1661433876, 0.0959776118, -0.1229281649, 0.1835793257, -0.0218593422, -0.1070968360, -0.1081677601, 0.0042024888, -0.0195495803, -0.0524687469, 0.1255378276, 0.0854991227, 0.0251342617, 0.0799580663, 0.0193350706, -0.0437953211, -0.1372773945, -0.0361147672, 0.1653641760, -0.0245259870, 0.2074846923, 0.1262538880, -0.1461743861, 0.0691406727, 0.0184406992, -0.1078049764, -0.0706771761, -0.0326141529, 0.0021533594, -0.0380916595, 0.1534815580, 0.1300915331, -0.0004768711, 0.0425912254, 0.0336708315, -0.0139186801, -0.1432766765, -0.0183681026, 0.1428389400, 0.0247790478, 0.1114289314, 0.0823950544, -0.1918855608, 0.0345719419, 0.0270003900, -0.1771300584, -0.0695176572, -0.0041769389, 0.0224681571, 0.0050065932, 0.1332616657, 0.0530334748, -0.0184708219, 0.0486769862, 0.0192408338, 0.0301175397, -0.1648442000, -0.0257988013, 0.1310711950, 0.0475834459, 0.1191549376, 0.1190268397, -0.1448311210, 0.0701012313, -0.0129282223, -0.1457640976, -0.1006196290, -0.0171666760, 0.0347078033, -0.0225385446, 0.1066283733, 0.0843447596, -0.0009872930, 0.0754229054, 0.0172785167, -0.0084915729, -0.1130358428, -0.0206079502, 0.1349134445, -0.0088074030, 0.2094268501, 0.1392270029, -0.1977722496, 0.0746530369, 0.0245388057, -0.1500122994, -0.0970657319, -0.0009965124, -0.0144270957, -0.0426993743, 0.1240531206, 0.0606904812, 0.0060187485, 0.0135977669, 0.0211823378, -0.0166360047, -0.0971997008, -0.0352269188, 0.1128634363, 0.0145136146, 0.1730969697, 0.0955454260, -0.1155870706, 0.0627195314, -0.0207239930, -0.1602004468, -0.0701332539, -0.0070123766, 0.0206681676, -0.0681850687, 0.0715048984, 0.0695055202, 0.0178505257, 0.0545262136, 0.0259437077, 0.0301371105, -0.1129143462, -0.0246769600, 0.1365262866, 0.0374849178, 0.1699609905, 0.0801574886, -0.0976919681, 0.1203108281, -0.0010763831, -0.1178966612, -0.0752657279, -0.0369074643, -0.0308968779, 0.0132720396, 0.1127939075, 0.0546352677, 0.0104479240, 0.0435037538, 0.0071090972, 0.0494938754, -0.1654382348, -0.0232107788, 0.1065852866, 0.0508592762, 0.1018462703, 0.0853432491, -0.1562106460, 0.0900501087, 0.0235271566, -0.1028352529, -0.0725390166, 0.0000505713, 0.0171397272, 0.0213109460, 0.1033999771, 0.0436485000, 0.0069832415, 0.0487237275, 0.0351473540, -0.0358316861, -0.1269542575, -0.0266342256, 0.0771185458, 0.0392361581, 0.1686630398, 0.1325723529, -0.1504438370, 0.1332237124, -0.0121125700, -0.1102935225, -0.0722385794, -0.0308401175, -0.0366974883, -0.0234874897, 0.0808252841, 0.0669578016, -0.0082012033, 0.0383185484, 0.0156101286, -0.0107902540, -0.1463740915, -0.0188835170, 0.1378359050, 0.0340415984, 0.1673834026, 0.1153613329, -0.1661367714, 0.1484779119, -0.0097431466, -0.1230565608, -0.0668806061, -0.0426704958, -0.0151611380, 0.0077368473, 0.1157338321, 0.0718431026, -0.0127548752, 0.0614087544, -0.0141704762, -0.0318699479, -0.1200697049, -0.0238699652, 0.1430545598, 0.0368324444, 0.1139893532, 0.0798737258, -0.1329178661, 0.1558350921, -0.0096727554, -0.1171480641, -0.0335208699, -0.0337180160, -0.0101470957, 0.0190787837, 0.1069041714, 0.0889113098, -0.0176613554, 0.0716150478, 0.0324075520, -0.0076138275, -0.1543684006, -0.0434875302, 0.1293984503, 0.0094819386, 0.0937751234, 0.0768191367, -0.1544591933, 0.1670210660, 0.0125544062, -0.1598239541, -0.0619284622, 0.0119255017, -0.0004919626, -0.0056703449, 0.1368781775, 0.0784201398, -0.0133957295, 0.0573114380, -0.0253493376, -0.0210873391, -0.1486470550, -0.0106657781, 0.1392073035, -0.0021172247, 0.1503511816, 0.1265275031, -0.1386760771, 0.1794751287, 0.0219358690, -0.1122714952, -0.0482166670, -0.0046137259, 0.0297968220, -0.0084071113, 0.1066686511, 0.0664435700, -0.0074394047, 0.0338860340, 0.0075379713, 0.0018269900, -0.1501746923, -0.0567122102, 0.0975871161, 0.0508430488, 0.1946036667, 0.0896587968, -0.1355947405, 0.1120908931, 0.0064891228, -0.1386445612, -0.0426397771, -0.0036371059, 0.0398997813, -0.0406797379, 0.1004218608, 0.0854877084, 0.0256218836, 0.0591858588, -0.0068599340, 0.0019812880, -0.1249272376, -0.0008173397, 0.1264154911, -0.0070716916, 0.1565584242, 0.1173145920, -0.1178951412, 0.1014660075, 0.0193899777, -0.1484013200, -0.0910663754, -0.0338950194, 0.0062269871, -0.0680460110, 0.1026677713, 0.0253400281, -0.0346975289, 0.0539761968, -0.0141648958, -0.0134516470, -0.0930251405, -0.0136982361, 0.1176130921, 0.0539630838, 0.1135551408, 0.0744220540, -0.1597803682, 0.1204985529, -0.0341744088, -0.1475417018, -0.1030254215, -0.0082861129, -0.0016797392, 0.0368068926, 0.1122269407, 0.0651260838, -0.0338077769, 0.0484168157, 0.0159289800, -0.0168371405, -0.1234261841, -0.0186791327, 0.1931799501, 0.0208382718, 0.1841799617, 0.1077710465, -0.1792813987, 0.1374098063, -0.0024154447, -0.1144332141, -0.0547224246, -0.0015893457, -0.0698361546, -0.0871059597, 0.1227036044, 0.0525856279, -0.0267364029, 0.0764674917, -0.0215019435, -0.0232312102, -0.1355558038, -0.0563933291, 0.1485800147, 0.0467144884, 0.1449159384, 0.0962828025, -0.1637560576, 0.1391699761, -0.0180030800, -0.1208615229, -0.0672601163, -0.0484547801, 0.0083977599, -0.0570121333, 0.1515021175, 0.1041124240, -0.0229929332, 0.0097573707, 0.0117945541, -0.0538060889, -0.1292555183, -0.0040301811, 0.1064664274, -0.0004513234, 0.1137220860, 0.0763452649, -0.1192754358, 0.0968067870, -0.0106875328, -0.1422467232, -0.1021551117, -0.0452141277, 0.0524687245, -0.0048707705, 0.1336606443, 0.0952761620, -0.0455383845, 0.0463661253, -0.0136280395, -0.0416349210, -0.1205598265, -0.0557620786, 0.1666156054, 0.0403678603, 0.1662192941, 0.1161159948, -0.1873367578, 0.0979409218, -0.0023760444, -0.1274366528, -0.0825157389, 0.0000640891, -0.0088600768, 0.0059238337, 0.1621563733, 0.0912366435, -0.0430403873, 0.0224952195, 0.0299879722, -0.0138180060, -0.1064147875, 0.0007459615, 0.1536141485, 0.0201357566, 0.1960374266, 0.0701447278, -0.1600115895, 0.1029180288, -0.0110751642, -0.1026550755, -0.0736736730, 0.0026375279, 0.0149547616, -0.0440633893, 0.1276936829, 0.0664020330, -0.0238120798, 0.0664591491, 0.0026478893, 0.0033763840, -0.1191627681, -0.0294497684, 0.1330492347, 0.0599931963, 0.1629676670, 0.1015757322, -0.1532677263, 0.0661629364, -0.0204907451, -0.1397038847, -0.0600636192, 0.0016585870, 0.0322970934, -0.0628945902, 0.1391491890, 0.0329225101, 0.0161730591, 0.0480081774, 0.0226167347, 0.0327884033, -0.1260267198, -0.0299699493, 0.1614217013, 0.0350404382, 0.1558161378, 0.0671043918, -0.1617731005, 0.0776263401, -0.0159628969, -0.1017834693, -0.0387170874, -0.0221269820, 0.0221442599, -0.0021867903, 0.1249243990, 0.0761062428, -0.0214957837, 0.0435247980, 0.0119170891, 0.0010987751, -0.1031775028, -0.0178992841, 0.1644791365, 0.0588764735, 0.1276581287, 0.0832829624, -0.1524564326, 0.0972459540, -0.0063249404, -0.1057955995, -0.0939646140, -0.0381978787, -0.0078329835, 0.0067202765, 0.1299295872, 0.0338606797, -0.0320750251, 0.0408751406, -0.0117630949, -0.0109345997, -0.1450617462, -0.0005089848, 0.1183677837, 0.0358489864, 0.1658576578, 0.0919163823, -0.1624243259, 0.1261542290, -0.0129717924, -0.1417499781, -0.0758836046, -0.0461098291, -0.0028353522, -0.0224711057, 0.1212307215, 0.0734590739, -0.0244725607, 0.0387175158, -0.0128623992, -0.0293415803, -0.1342639774, -0.0536786877, 0.1211442202, 0.0299578700, 0.1451659948, 0.0735175312, -0.1196881011, 0.1472847164, 0.0074137528, -0.1339066774, -0.0338674635, -0.0485555902, -0.0485956445, -0.0134151978, 0.1270370334, 0.1093641892, -0.0056316406, 0.0272028651, -0.0046868501, 0.0280928612, -0.1193872541, -0.0109395925, 0.1422683895, 0.0183548555, 0.1174725965, 0.0689298958, -0.1588919610, 0.1557158381, 0.0070375688, -0.1088299826, -0.0321840346, -0.0402753577, 0.0101922927, 0.0150160370, 0.1611614078, 0.0230656862, 0.0193151459, 0.0198352747, 0.0295426957, -0.0105121080, -0.0908673853, -0.0370601118, 0.1642112434, 0.0036849629, 0.0914093554, 0.1102834940, -0.1299524307, 0.1585409641, -0.0079665696, -0.1120050028, -0.0529363677, -0.0074600270, -0.0101260534, -0.0277205650, 0.1458023936, 0.0415479057, -0.0379324444, 0.0391339697, 0.0262354203, -0.0288127065, -0.1078895554, -0.0043725832, 0.1303305030, 0.0341613069, 0.1805073768, 0.0778694972, -0.1451641172, 0.1783776581, -0.0327126309, -0.1405982971, -0.0826055482, -0.0093812905, 0.0396119356, -0.0372954980, 0.1354364157, 0.0458896160, -0.0221726056, 0.0669733658, 0.0178224035, 0.0342097953, -0.1560781747, -0.0226860791, 0.1127133444, 0.0543188676, 0.2022026926, 0.0897280648, -0.1397674084, 0.1919032782, 0.0153092137, -0.1529797763, -0.0952914059, -0.0139146550, -0.0093619414, -0.0209666640, 0.1545686871, 0.0211712290, -0.0298610609, 0.0246943906, 0.0002776481, -0.0210989453, -0.1649153233, -0.0475751050, 0.1528712213, 0.0405159630, 0.1338196695, 0.0900592282, -0.1325475574, 0.1576192826, 0.0098309638, -0.1077969000, -0.0568684265, -0.0254315194, 0.0344739333, -0.0504698940, 0.1416046023, 0.0320746787, -0.0411385223, 0.0220483691, -0.0071571381, -0.0159793757, -0.1285655797, -0.0075098346, 0.1102406979, 0.0136618335, 0.0911395475, 0.1014643535, -0.1344092339, 0.1200408936, 0.0104893520, -0.1286362708, -0.0970106348, -0.0005496902, -0.0007064015, -0.0341430455, 0.1234017462, 0.0770325437, 0.0010194432, 0.0472922772, -0.0106783351, -0.0267219543, -0.1466491222, -0.0493301041, 0.1434547603, 0.0057654455, 0.1972580701, 0.0792310238, -0.1445090026, 0.1222451180, 0.0133613301, -0.1607591063, -0.0690308362, 0.0053206980, 0.0149105955, -0.0646125004, 0.1534785330, 0.0586623847, -0.0391986482, 0.0404442735, 0.0429355130, -0.0235765669, -0.0900521651, -0.0044608745, 0.0910234973, -0.0224164203, 0.1981774271, 0.0912909284, -0.1643215567, 0.1532793492, -0.0291091427, -0.1000830457, -0.0988785401, -0.0055651455, -0.0152846090, -0.0730089396, 0.1216010749, 0.0553047732, 0.0210542288, 0.0011208034, -0.0175739173, 0.0320603214, -0.1091926917, 0.0022090005, 0.1315205395, -0.0038394162, 0.1053192839, 0.1059588566, -0.1305212229, 0.1698282957, -0.0236030594, -0.1104935929, -0.0552427880, -0.0623867847, 0.0436143912, -0.0568338484, 0.1334904581, 0.0731569752, 0.0130294003, 0.0231532250, 0.0090082586, -0.0511758737, -0.0976281166, -0.0149732465, 0.1378902793, -0.0020155199, 0.1274025738, 0.0633881018, -0.1717260182, 0.1193055511, 0.0141890114, -0.1529678553, -0.0560139641, -0.0257497262, -0.0316289403, 0.0061816508, 0.0831860155, 0.1016911268, 0.0218485557, 0.0715352893, 0.0343970098, -0.0029135691, -0.1245779097, -0.0076946034, 0.1232691258, 0.0219692979, 0.1578605026, 0.0903716534, -0.1272092611, 0.1541661024, 0.0157922283, -0.1032417491, -0.0465208292, -0.0125656193, 0.0159218069, -0.0718477145, 0.0808539391, 0.0676451623, 0.0310784243, 0.0366001315, 0.0096335094, -0.0103136469, -0.1037599370, -0.0311179888, 0.0696023628, 0.0322495773, 0.2125695497, 0.0732283592, -0.1317964941, 0.0931597501, -0.0182926506, -0.1487712115, -0.0968331620, -0.0254480448, -0.0380588248, -0.0301305186, 0.1218653619, 0.0741939470, 0.0245646164, 0.0116612287, 0.0428401120, -0.0277170166, -0.1013518423, -0.0455251150, 0.0692517310, 0.0195658524, 0.1482830048, 0.1243222877, -0.1628180444, 0.1189563870, -0.0069622365, -0.1117255464, -0.0358843841, -0.0175626520, -0.0044227485, 0.0083606783, 0.1278836727, 0.0612700135, -0.0034358583, 0.0119299395, 0.0352838971, -0.0391014814, -0.0991223082, -0.0187026467, 0.0865864679, 0.0161210895, 0.1063806564, 0.1050682589, -0.1437322348, 0.0935299322, -0.0099294316, -0.1131097078, -0.0776286870, -0.0512534231, -0.0001946582, 0.0245765373, 0.0825487375, 0.1187118068, -0.0237632040, 0.0533115305, -0.0162041523, -0.0366099253, -0.0836794078, -0.0338674560, 0.0549737103, -0.0397486761, 0.1366660148, 0.1022975817, -0.1275943965, 0.1454186291, 0.0076567964, -0.1280408502, -0.0808911771, -0.0094600357, -0.0711063072, 0.0095595801, 0.1208012104, 0.0833825171, -0.0233014002, 0.0368012488, 0.0016353801, -0.0364237018, -0.1291905642, -0.0434270687, 0.0712501630, 0.0059897341, 0.1998583674, 0.0613896996, -0.1693760157, 0.1333401948, 0.0022771526, -0.0963497087, -0.0422231667, -0.0052407053, 0.0022596482, -0.0423754118, 0.1300513297, 0.0662892982, 0.0076914616, 0.0290328637, 0.0313695334, -0.0121509973, -0.1046069264, -0.0606770888, 0.0586007051, 0.0172760151, 0.0845740661, 0.0591410212, -0.1168872714, 0.1681224406, -0.0231249947, -0.1521299183, -0.0849408954, -0.0479889922, -0.0058581135, -0.0141621269, 0.0870415941, 0.0686030537, 0.0123826722, 0.0443721190, 0.0002956497, 0.0290390737, -0.1341043711, -0.0020618299, 0.0709691793, 0.0099770715, 0.1305599064, 0.1102318913, -0.1318941563, 0.1094368398, -0.0100166919, -0.1038644388, -0.0355384089, 0.0032236374, 0.0071384222, 0.0237325635, 0.1274792999, 0.0876403749, -0.0085878018, 0.0267247465, -0.0171128847, -0.0334022976, -0.0855337903, -0.0189826153, 0.1092429608, 0.0444573909, 0.1726050526, 0.0794945359, -0.1267984062, 0.1726613641, -0.0304021221, -0.1296895444, -0.0952555537, -0.0082524223, -0.0077988361, -0.0819150805, 0.0852142125, 0.0794309601, 0.0229069199, 0.0098797474, 0.0000268202, 0.0009166300, -0.0898855776, -0.0516650490, 0.0947050154, 0.0222490299, 0.1898863912, 0.0764134675, -0.1663519442, 0.1605496556, -0.0331083201, -0.1046474576, -0.0968387350, 0.0130694490, -0.0073130131, -0.0242212955, 0.1277907640, 0.0718516782, 0.0181735810, 0.0450155176, 0.0200929493, 0.0066582896, -0.0770900920, -0.0482154526, 0.0924452096, 0.0210631508, 0.1257929802, 0.1004639491, -0.1602952182, 0.1566004008, -0.0322665200, -0.0889595449, -0.0609328598, -0.0226533618, -0.0250789579, -0.0590006150, 0.1158943176, 0.0495871454, -0.0200036019, 0.0196373053, -0.0145702129, -0.0012042824, -0.1351127177, -0.0004682937, 0.1042244881, 0.0186117738, 0.1229465753, 0.1187577844, -0.1114064381, 0.1253600419, -0.0055264006, -0.1218003333, -0.1010255963, -0.0015390899, -0.0162646342, -0.0326959938, 0.1166488230, 0.0284456871, 0.0227065459, 0.0361651443, -0.0130461128, -0.0530258268, -0.1254616678, -0.0270542428, 0.0960801467, 0.0095135942, 0.1763091981, 0.1039174572, -0.1107282713, 0.1137091741, -0.0487291589, -0.1255146265, -0.0627434105, -0.0117190052, -0.0295576230, -0.0629096925, 0.1205526814, 0.0391089357, 0.0327265561, 0.0484142117, 0.0277146492, 0.0149940709, -0.1371221840, -0.0110469926, 0.1300175488, -0.0151054915, 0.1802239269, 0.1243539378, -0.1380781084, 0.0659594610, 0.0088949082, -0.1341366768, -0.1055784002, -0.0453679673, 0.0452158414, -0.0054004951, 0.1161616668, 0.0430697426, 0.0100392587, 0.0333939418, -0.0077199759, 0.0242861453, -0.1516326666, -0.0316085666, 0.1199024618, 0.0017364392, 0.0730508119, 0.1068394780, -0.1482907385, 0.0589878596, 0.0125125116, -0.1786377877, -0.0663303137, -0.0333471894, -0.0218064114, -0.0642728657, 0.1275404841, 0.0076020667, -0.0019503196, 0.0229168907, 0.0188875906, -0.0253518000, -0.1183014587, -0.0086423950, 0.1372395158, 0.0237356536, 0.1437398493, 0.0846618414, -0.1464521736, 0.0855597258, -0.0169171598, -0.1598276198, -0.0732277855, -0.0448047258, 0.0395406969, -0.0230324641, 0.1136286557, 0.0804292187, -0.0077152653, 0.0613498278, -0.0033944184, -0.0300944597, -0.1172184795, -0.0240478311, 0.1144774556, 0.0463891812, 0.1778130233, 0.0698381141, -0.1280818284, 0.1029383466, -0.0006977046, -0.1446538717, -0.1136647984, -0.0496971309, -0.0237347018, -0.0124980435, 0.1455347538, 0.0752987415, -0.0435349904, 0.0058848667, -0.0144780837, -0.0029075490, -0.1252230555, -0.0541311912, 0.0762940422, 0.0273005124, 0.1954186112, 0.0729136318, -0.1415278018, 0.1050694585, -0.0119910492, -0.1441230476, -0.0953259692, -0.0429829285, -0.0075916350, -0.0745426863, 0.1282840222, 0.1108240709, -0.0315241404, 0.0705389231, 0.0332845151, -0.0439676940, -0.1336438954, -0.0066121165, 0.1226065680, 0.0366628133, 0.1200865805, 0.0806275308, -0.1178070828, 0.0857131556, 0.0104803266, -0.1080499217, -0.0826364830, -0.0017328134, 0.0323004797, -0.0011319481, 0.1001546383, 0.0798501372, 0.0004035741, 0.0687738508, -0.0052691428, 0.0234322213, -0.1087211892, -0.0026188928, 0.1069547608, 0.0214029197, 0.1618951261, 0.0929422230, -0.1680704057, 0.1251091957, 0.0161446854, -0.1547239125, -0.0769054219, -0.0426836088, 0.0264987461, -0.0188792124, 0.1038168222, 0.0632316172, 0.0202668458, 0.0620585792, -0.0013204680, 0.0100707738, -0.1474769711, -0.0555017702, 0.0913449228, -0.0219491608, 0.1642104536, 0.1223626360, -0.1473378241, 0.0801810473, 0.0081060566, -0.0994681045, -0.0862548873, -0.0010726203, -0.0358975679, -0.0360896438, 0.0973391458, 0.0899552777, -0.0177593529, 0.0633299798, 0.0202131644, 0.0228416901, -0.1686144024, -0.0405636951, 0.1127500683, -0.0176867209, 0.1318286657, 0.1089833602, -0.1163665950, 0.0495797023, 0.0114711840, -0.1547087580, -0.0913947821, -0.0147363516, -0.0837404504, 0.0157283880, 0.0766844079, 0.1006277874, 0.0176834799, 0.0517450310, 0.0455855094, -0.0154166706, -0.1390886009, -0.0373122841, 0.1344516277, 0.0072984267, 0.1194791198, 0.1206386834, -0.1366087794, 0.0817396343, -0.0040914379, -0.1550009996, -0.0927792862, -0.0261605866, -0.0132791717, -0.0262811724, 0.0908802822, 0.0411055163, -0.0153956618, 0.0400334708, 0.0310565792, -0.0195610896, -0.1549340039, -0.0537337735, 0.1189985722, 0.0168056171, 0.1007940024, 0.1244360954, -0.1429668367, 0.0851371586, -0.0241150167, -0.1142184660, -0.1092265472, -0.0433823913, -0.0417550653, -0.0395171829, 0.1078403667, 0.0657001734, -0.0057663373, 0.0369961299, 0.0023283542, -0.0294327941, -0.1695693433, -0.0024610788, 0.1644326299, 0.0090832543, 0.1846161932, 0.0898880437, -0.1362483203, 0.0931301191, -0.0100789564, -0.0972263440, -0.0495394990, -0.0403999425, -0.0059607932, -0.0568152629, 0.0740582347, 0.1133678630, -0.0169460233, 0.0513729267, 0.0155903744, 0.0123792924, -0.1316403747, -0.0542012639, 0.1312512457, 0.0491194353, 0.1968620121, 0.0754689425, -0.1131040752, 0.0653472617, 0.0083466861, -0.1481942832, -0.0921060592, -0.0246724468, 0.0035561076, -0.0156869330, 0.1309378743, 0.0422982052, -0.0003542858, 0.0253079385, -0.0033801552, 0.0067444323, -0.1137950048, -0.0458381847, 0.1863870174, 0.0288346335, 0.0827181637, 0.1118391976, -0.1459368765, 0.0823372081, -0.0204652566, -0.1443471909, -0.0912616104, -0.0464637391, -0.0372938998, -0.0091362698, 0.1450422704, 0.0328201652, -0.0000620982, 0.0438818447, 0.0197458528, 0.0626885295, -0.1821540147, 0.0022204956, 0.1776159406, 0.0458286330, 0.0932264328, 0.0599748008, -0.1348640770, 0.0880461410, -0.0266986545, -0.1410792470, -0.1227764413, -0.0406563990, -0.0029437521, 0.0003151234, 0.1411100924, 0.0883456171, 0.0311488193, 0.0444774665, -0.0128618730, -0.0307974629, -0.1506873816, -0.0347201824, 0.1662096083, -0.0039977273, 0.1610054076, 0.1059786677, -0.1538463384, 0.0952530503, 0.0023314958, -0.1644569635, -0.1162704900, -0.0188961774, -0.0092401439, -0.0728895813, 0.1140042543, 0.0634284392, 0.0191476885, 0.0056250207, 0.0383398533, -0.0434998609, -0.1327069104, -0.0365019217, 0.0987010524, -0.0189631712, 0.1929929107, 0.1217154488, -0.1294302493, -0.0006810848, 0.0129509019, -0.1486881524, -0.0927284509, -0.0672547221, 0.0175719149, -0.0249668211, 0.1430171132, 0.0419610739, -0.0038377913, 0.0268809143, 0.0152180968, 0.0001261592, -0.1367123127, -0.0511309952, 0.1268720776, 0.0301216003, 0.1002759412, 0.1009604037, -0.1584960967, -0.0018258464, 0.0084486343, -0.1797252893, -0.0819320753, -0.0169664435, -0.0221806653, -0.0429070964, 0.1339152753, 0.0388495438, 0.0094693396, 0.0069520720, 0.0419777073, -0.0126516698, -0.1378898472, -0.0296274573, 0.0794263929, 0.0144039094, 0.1195561662, 0.0922675505, -0.1537988037, -0.0075811045, -0.0405920669, -0.1367315948, -0.0903045461, 0.0013844328, -0.0023069705, -0.0235808659, 0.0931023434, 0.0607208908, -0.0146435956, 0.0421684571, -0.0083586844, -0.0349243470, -0.1344195455, -0.0212002061, 0.0568106361, 0.0142738931, 0.2040006369, 0.0953468382, -0.1296481937, -0.0008034977, -0.0066940868, -0.1341704577, -0.0973686352, -0.0540673509, 0.0006914705, -0.0183002222, 0.0989065468, 0.0482642762, 0.0396440886, 0.0520347878, -0.0161646008, -0.0831839144, -0.0947567075, -0.0096714618, 0.0452694707, 0.0293189418, 0.1845859885, 0.1149958298, -0.1522517651, 0.0671472698, -0.0277866572, -0.1248657331, -0.1082129627, -0.0025807391, -0.0282098036, -0.0473181196, 0.0694523081, 0.0252118297, 0.0176749341, 0.0590322204, -0.0051321797, 0.0015242506, -0.0907159075, -0.0365302265, 0.0462785363, -0.0305833016, 0.0959729031, 0.1134273410, -0.1558241993, 0.0279521048, -0.0333383717, -0.1758709699, -0.0681130886, -0.0544684790, -0.0041109631, -0.0037251175, 0.0800965056, 0.0141490679, 0.0068156198, 0.0249277167, -0.0219946839, -0.0136468001, -0.0917042047, -0.0550166741, 0.0587082282, -0.0184967425, 0.0975332111, 0.1224721372, -0.1597932130, 0.0653078407, 0.0100484593, -0.1410738379, -0.0767025128, -0.0282279588, 0.0132602761, -0.0042939209, 0.1160361394, 0.0323344953, -0.0227423292, 0.0581262037, 0.0066873366, -0.0025374098, -0.1202723384, -0.0229005162, 0.0580706969, -0.0182663612, 0.1572739333, 0.0985846967, -0.1620766073, 0.0312110838, -0.0321256481, -0.1514837295, -0.0895764977, -0.0110920593, -0.0256595891, 0.0063987551, 0.0835228860, 0.0662328675, 0.0276312996, 0.0394578390, -0.0204061531, -0.0347303525, -0.1006137207, -0.0445879400, 0.0768352225, 0.0470032990, 0.1646568477, 0.0842406154, -0.1550575793, 0.0424447246, -0.0363610871, -0.1348242462, -0.0614367165, -0.0238410290, 0.0035523525, 0.0086704064, 0.0699625686, -0.0040657250, 0.0059007602, 0.0805324763, 0.0333277695, -0.0107260859, -0.1202993691, -0.0478040278, 0.0494976565, -0.0173485111, 0.1315403879, 0.0633355454, -0.1605118811, 0.0656975955, 0.0137869176, -0.1077290699, -0.0878817737, -0.0243405681, 0.0095735025, 0.0033519568, 0.0590801127, 0.0344357044, -0.0094565218, 0.0217478778, 0.0173908584, 0.0298526864, -0.1223770678, 0.0051168748, 0.0564978383, 0.0484953709, 0.0881710947, 0.1144579500, -0.1087704599, 0.0615945272, -0.0396723822, -0.1138911694, -0.0688264370, 0.0053551369, 0.0176342297, -0.0362529159, 0.0932449698, 0.0393230282, -0.0039854897, 0.0309581794, 0.0349544510, -0.0357020684, -0.1400720328, -0.0098820832, 0.0839067549, -0.0282721929, 0.1837704480, 0.0770035982, -0.1506098360, 0.0539876930, -0.0122752227, -0.1403492391, -0.0959422588, 0.0250123702, -0.0628918335, -0.0661979169, 0.0666349456, 0.0588477999, -0.0405196249, 0.0258123279, 0.0350435637, -0.0342758670, -0.1257442683, -0.0396377370, 0.0590317324, 0.0743511096, 0.1513310373, 0.0698067620, -0.0989469141, 0.0834380612, 0.0119280368, -0.1035215259, -0.0713966489, -0.0226192512, -0.0265822373, -0.0471202731, 0.1062892675, 0.0287719145, 0.0063062133, 0.0513183288, 0.0416349396, 0.0414535031, -0.1540392041, -0.0205938853, 0.0488913544, 0.0251152702, 0.1462274492, 0.0666003004, -0.1159100309, 0.0387311354, -0.0030510747, -0.1686334163, -0.0619395785, -0.0621272996, -0.0509935468, 0.0248956308, 0.0790384859, 0.0374134034, -0.0043091686, -0.0111042960, 0.0221107770, 0.0145524908, -0.0959223062, -0.0053644930, 0.1005847231, 0.0664655045, 0.1351338029, 0.1014521196, -0.1580432206, 0.0903627127, -0.0266875196, -0.1174896657, -0.0733525231, -0.0213884152, -0.0183419380, 0.0025096419, 0.0751103461, 0.0256705377, -0.0307129249, 0.0633601248, 0.0190497637, 0.0184337646, -0.1113975197, -0.0300226025, 0.1058614329, -0.0029224895, 0.1506936848, 0.0995099768, -0.1272318661, 0.0837229118, 0.0275353435, -0.1581462622, -0.0811816826, -0.0241919607, 0.0157265738, -0.0692671090, 0.1135953590, 0.0181090795, -0.0248250887, 0.0302388277, 0.0077725518, -0.0042228787, -0.0815500319, -0.0550327301, 0.1281085461, 0.0258379895, 0.1870593578, 0.0761682093, -0.1043415517, -0.0306980181, -0.0172671769, -0.1095044091, -0.0550165661, -0.0399728306, 0.0248498507, 0.0013367601, 0.0910597220, 0.0322032459, 0.0275327154, 0.0287988391, 0.0011412362, 0.0629858896, -0.1039143950, -0.0588904507, 0.1234498844, -0.0016166061, 0.1004156321, 0.0604104511, -0.1476001143, -0.0252909660, 0.0104804756, -0.1217247695, -0.0663943961, -0.0393648893, 0.0224747565, -0.0652516857, 0.0841803849, 0.0141727701, -0.0325064510, 0.0259332899, -0.0137680974, -0.0091986507, -0.0976082012, -0.0382167101, 0.1228590310, -0.0129045695, 0.1081950739, 0.0885571912, -0.1514132768, 0.0068689450, -0.0102620134, -0.1324248463, -0.0740867183, -0.0426229984, 0.0326976813, -0.0010261664, 0.0261537880, 0.0199915767, 0.0028966398, 0.0146535449, 0.0212528743, -0.0725730211, -0.0833442137, -0.0208077617, 0.1176466569, -0.0228246506, 0.1628972292, 0.0641048402, -0.1333716661, 0.0027602112, 0.0018655222, -0.1380839497, -0.0792379826, -0.0069237370, -0.0226803627, -0.0699658096, 0.0407059230, 0.0029089781, -0.0509713106, 0.0500095673, 0.0275658835, -0.0548217818, -0.1171237975, -0.0475035645, 0.1300669909, -0.0243360288, 0.1757731438, 0.1024101675, -0.1515529603, 0.0146434512, -0.0458904393, -0.1194070131, -0.1020688936, -0.0437893495, -0.0117784915, -0.0146031650, 0.0366869159, 0.0350424498, -0.0144103616, 0.0050128577, 0.0315056890, -0.0326820463, -0.1073647141, -0.0432935320, 0.1265369952, -0.0291219130, 0.1531268209, 0.1018146724, -0.1185083240, -0.0127336401, -0.0107156159, -0.1426174492, -0.0447832383, -0.0460926741, 0.0281171296, 0.0045716595, 0.0841007903, 0.0172479227, -0.0278998557, 0.0332061760, 0.0399340056, 0.0333350599, -0.1366698146, -0.0253454968, 0.1206173599, 0.0091378707, 0.1013625488, 0.0821747929, -0.1360895336, 0.0552075803, -0.0292190555, -0.1092698947, -0.0838968307, 0.0047740904, 0.0241090618, -0.0172224399, 0.0504743382, 0.0633402839, -0.0253612418, 0.0276769586, 0.0175097380, 0.0093192346, -0.1121010184, 0.0030560941, 0.0979738906, -0.0070384159, 0.1893752366, 0.1066448316, -0.1818118840, 0.0341428854, 0.0171307717, -0.1255670637, -0.0562309138, -0.0411121622, -0.0047335438, 0.0282979216, 0.0615945570, 0.0299574491, -0.0095769661, 0.0637803748, -0.0171483010, -0.0193904042, -0.1249027252, -0.0056709577, 0.1275190711, 0.0499539450, 0.1885254681, 0.0530538484, -0.1433689892, 0.0254710652, -0.0054420107, -0.1212497577, -0.0871192068, -0.0336669572, -0.0492829680, -0.0543388166, 0.0904891938, 0.0253064558, -0.0354586728, 0.0649284720, 0.0133571345, -0.0103811333, -0.1335814893, -0.0386746638, 0.0781058669, -0.0031422761, 0.1200330853, 0.0869002640, -0.1212007701, 0.0777506903, -0.0270812400, -0.1446283758, -0.0867341682, -0.0231670290, 0.0067219511, -0.0067392862, 0.0635004714, 0.0189079549, -0.0244363323, -0.0027702099, -0.0138054872, 0.0172810815, -0.1480476707, -0.0377588607, 0.1197651625, 0.0566900335, 0.1297846287, 0.1085033119, -0.1434853375, 0.0750710145, 0.0245218500, -0.1448998749, -0.0957306027, -0.0551297963, -0.0181184169, -0.0317303166, 0.0517255031, 0.0469847694, 0.0034789336, 0.0029764445, 0.0246297047, -0.0036636312, -0.1048517153, -0.0112563008, 0.1433052868, 0.0054016481, 0.1530389637, 0.0963548049, -0.1128996611, 0.0421309434, 0.0087167146, -0.1401967555, -0.0924843550, 0.0005232907, 0.0116102528, -0.0582538731, 0.0388488621, 0.0824403092, 0.0328548774, 0.0263289809, 0.0022399058, 0.0224000774, -0.1329713464, -0.0317200981, 0.0871102288, 0.0500448346, 0.1371533275, 0.0700683594, -0.1220472008, 0.0880413279, -0.0098172659, -0.1242146567, -0.0541823395, -0.0454006456, 0.0069455621, -0.0496227145, 0.0424680300, 0.0786531046, 0.0098125935, -0.0186038855, -0.0242670104, 0.0298138224, -0.1488709003, -0.0582213216, 0.1255039275, -0.0416363068, 0.1371016651, 0.1053867340, -0.1740157157, 0.0458521359, 0.0126144625, -0.1191760823, -0.1027464345, 0.0010318265, -0.0733863413, -0.0043465388, 0.0999196619, 0.0342100672, 0.0338142999, 0.0092635537, 0.0218417756, 0.0373748392, -0.1381852478, 0.0005431155, 0.1350010186, 0.0501363985, 0.1193141416, 0.0523893572, -0.1531408131, 0.0736450627, 0.0044658105, -0.1364630014, -0.0876713917, -0.0465693176, -0.0262925979, 0.0096820099, 0.0721704513, 0.0331759006, 0.0317145549, 0.0204024594, -0.0046394574, -0.0147450631, -0.1254278719, -0.0484744795, 0.1184246242, 0.0154298563, 0.1572891474, 0.0517832972, -0.1671184748, 0.0797549784, -0.0100467689, -0.0862886831, -0.0755953267, -0.0239577647, -0.0013735374, -0.0441364124, 0.0725829303, 0.0496875830, 0.0280748215, -0.0101679163, 0.0243193898, -0.0063038822, -0.0745073706, -0.0368999392, 0.0976982042, 0.0036420180, 0.1449235082, 0.0916370079, -0.1428676397, 0.0748185217, -0.0275402255, -0.1298418194, -0.0879534110, -0.0286400542, -0.0117497742, -0.0004976391, 0.1676572114, 0.0307171252, -0.0273741074, 0.0109045422, -0.0226312485, 0.0422184020, -0.1165301278, 0.0051330291, 0.0849204808, 0.0257963184, 0.0455193967, 0.0653756261, -0.1133951023, 0.0373316444, -0.0107133817, -0.1078289077, -0.1108396873, -0.0027108784, -0.0034656071, -0.0462315641, 0.1796164066, 0.0018395318, -0.0206181053, 0.0169837195, -0.0313483477, -0.0072740032, -0.1210087314, -0.0187756848, 0.0711499602, -0.0209152885, 0.0932292715, 0.0994633883, -0.1519666165, 0.0504399873, -0.0290248245, -0.1271393299, -0.0827150568, -0.0183174238, 0.0053639477, -0.0336554311, 0.1348431110, 0.0336370990, 0.0001633774, -0.0028152831, 0.0247873776, -0.0438088514, -0.0783048943, -0.0032107809, 0.0839917511, -0.0302863028, 0.1643279642, 0.0963747948, -0.1909613907, 0.0953109935, -0.0237908177, -0.1404296905, -0.0467501357, -0.0149955247, -0.0388877876, -0.0484136231, 0.1530087739, 0.0094949361, 0.0086063845, 0.0456231013, -0.0138840331, 0.0136996908, -0.0553809144, -0.0171892662, 0.0641029775, -0.0431289002, 0.1604203731, 0.0687906072, -0.1618110240, 0.0544709228, -0.0184677057, -0.0990039930, -0.0583992898, -0.0278964620, -0.0071702814, -0.0458215550, 0.1786403209, 0.0421980135, 0.0039908597, -0.0252735224, -0.0195932668, 0.0160842277, -0.0760728717, -0.0581325032, 0.1188979819, -0.0138925295, 0.1082562357, 0.0604082681, -0.1662593186, 0.1210201979, -0.0314361453, -0.1289401650, -0.0411638618, -0.0292789973, 0.0019769750, -0.0020710602, 0.1489198655, 0.0041273078, -0.0213809796, -0.0044408310, 0.0309197381, 0.0219976846, -0.1128003299, -0.0248231497, 0.1190735921, -0.0143142790, 0.1304585487, 0.0710260496, -0.1195744351, 0.0708123296, -0.0147142261, -0.1444967389, -0.0666428730, -0.0195613336, -0.0047958461, -0.0415070057, 0.1260191351, 0.0040053511, 0.0077534565, -0.0051743616, -0.0195259545, -0.0120675229, -0.0972954333, -0.0315431729, 0.0865511224, 0.0161200706, 0.1321420372, 0.0496561117, -0.1347139329, 0.1019560695, 0.0145339863, -0.0883104652, -0.0597577617, -0.0268500205, -0.0055798152, -0.0031960243, 0.1648716331, 0.0150115993, 0.0337392613, 0.0030472616, 0.0073163188, 0.0166480578, -0.0555576608, -0.0470099486, 0.1110481918, 0.0337963477, 0.1895167977, 0.1076117381, -0.1337067187, 0.0913388059, 0.0095415497, -0.1289789081, -0.0738926977, 0.0113259619, -0.0356825069, -0.0140973879, 0.1430651397, 0.0540150329, -0.0284803323, -0.0134694725, 0.0209933855, -0.0244675409, -0.1009225473, -0.0443804413, 0.0947961882, 0.0042671580, 0.1201745272, 0.0957445204, -0.1206030697, 0.1408836842, 0.0199838169, -0.1143091992, -0.0635156184, -0.0268825442, -0.0341156423, -0.0219934322, 0.1872013658, 0.0271929353, -0.0044441819, 0.0085434392, 0.0155144781, -0.0137437424, -0.0902575180, -0.0259788465, 0.0615719482, 0.0638157055, 0.1105378941, 0.0844125748, -0.1283952445, 0.1508917361, -0.0068085189, -0.1163175926, -0.0671812370, -0.0337515213, -0.0066739023, -0.0115626231, 0.1654310524, 0.0173490103, -0.0086644897, 0.0178762078, -0.0263512358, -0.0274445638, -0.0936182216, -0.0403224267, 0.1230611503, 0.0162973758, 0.1786454320, 0.0980886146, -0.1676502824, 0.1462221593, -0.0144589450, -0.1083489358, -0.1015574262, -0.0384387597, -0.0158741195, -0.0288253203, 0.1405154020, 0.0280468483, 0.0094811441, 0.0021536977, -0.0237727370, -0.0102920653, -0.0601769239, -0.0331576243, 0.1282006204, 0.0676720515, 0.1327552795, 0.1087179556, -0.1137837842, 0.1489155143, -0.0091571854, -0.1171270534, -0.0960176364, -0.0324532390, -0.0517458506, -0.0441502854, 0.1553293765, 0.0552839488, -0.0146426214, 0.0360318683, -0.0046819597, 0.0400561020, -0.0663558990, -0.0397809707, 0.0823240578, -0.0024813574, 0.1145817563, 0.0613437444, -0.1542607844, 0.1754938364, 0.0122784497, -0.1280136257, -0.0737237632, -0.0250452347, 0.0027729247, -0.0059115691, 0.1569648087, 0.0335268266, -0.0125717288, -0.0211239401, 0.0040646978, 0.0113294953, -0.1302897334, -0.0134869665, 0.1018876359, -0.0057921284, 0.1239392161, 0.0455698706, -0.1650898904, 0.1787376255, 0.0013089823, -0.1025329828, -0.0983012766, -0.0157990530, -0.0210900176, -0.0059071020, 0.1597633213, 0.0115560945, 0.0343441218, 0.0184097867, 0.0067304764, -0.0079981042, -0.0882301629, -0.0173064638, 0.1465473771, -0.0270505324, 0.2044987082, 0.1031311452, -0.1647585928, 0.1211506128, 0.0020792435, -0.1350436062, -0.0630806461, -0.0055252728, -0.0081140986, -0.0250015687, 0.1567218453, 0.0084049590, -0.0034503646, -0.0078449622};
#endif

#endif
