//Numpy array shape [2420, 5]
//Min -0.262327462435
//Max 0.291471630335
//Number of zeros 0

#ifndef W15_H_
#define W15_H_

#ifndef __SYNTHESIS__
model_default_t w15[12100];
#else
model_default_t w15[12100] = {0.0204148628, 0.0034617498, -0.0100520402, -0.0010497485, -0.0452326238, -0.0620428547, 0.0078390054, -0.0446479879, -0.0113670379, -0.0201921053, -0.0441756472, -0.0501528755, -0.0037088280, 0.1063278541, -0.0256648585, 0.0002507914, 0.0024912576, -0.0190789271, 0.0487181768, 0.0578935742, -0.0808212012, -0.0607262738, 0.0102721285, 0.1118746474, 0.0203562509, 0.0202824529, 0.0086191669, -0.0151183875, -0.0350797400, -0.0757194385, -0.0184437912, -0.0672694221, 0.0734865740, -0.1368028969, 0.0568200313, -0.1312065274, -0.0558435991, -0.0329391696, 0.0354007222, 0.0409082957, 0.1740824580, -0.1396797746, -0.0874795988, 0.1531601846, -0.0799531788, -0.0750153661, -0.0832638517, 0.0919176042, -0.0377038009, 0.0549374558, 0.0034175972, -0.0411047302, 0.0195936710, 0.0676693097, -0.0094045438, 0.2547526956, -0.1576666385, -0.0450050607, 0.0206230469, -0.0828574523, 0.0825330988, 0.1627119333, 0.0262234919, -0.0635241270, 0.0003009366, -0.0240050759, 0.0437109545, 0.0012172130, 0.0476434156, 0.0152585031, -0.0293186642, 0.0061571128, -0.0746527612, 0.0750004649, 0.0636608154, -0.0117166266, 0.0194297545, 0.0130751524, -0.0671981573, 0.0040557147, -0.1179116741, 0.0499724224, -0.0318613797, 0.2033561468, -0.1170842946, 0.0423639752, 0.0145414900, -0.0287610814, -0.0972506404, 0.0890282169, 0.0054676137, -0.0110089239, 0.0210003685, 0.0686136633, 0.0230984800, -0.0238947570, 0.0480368584, 0.0404491313, -0.0609490685, -0.0935757235, 0.0067343754, -0.0290811900, 0.0307538286, -0.0444135219, 0.0064062765, -0.0107423142, 0.0271866564, -0.0186739471, 0.0121876672, -0.0185664836, -0.1055341139, -0.0485612005, 0.0193497967, 0.1027166471, -0.0494727269, 0.0350661911, 0.0015811694, -0.0034613048, 0.0203200094, 0.0026440935, -0.0355345309, -0.0327336490, -0.0158713572, 0.0654873475, 0.0219479781, -0.0089425966, -0.0581419058, 0.0508784987, -0.0744376630, 0.0328492597, -0.0190612115, -0.0542123765, 0.0532146841, -0.1061815843, 0.0753943101, -0.1341200918, -0.1074925587, 0.0224132370, 0.0272240937, 0.0899758115, 0.0516102761, -0.1465226859, 0.0245588087, 0.1430401504, -0.0735484585, -0.0722382367, -0.0238391683, 0.0640514642, -0.0830983296, 0.0169220828, -0.0027310513, -0.0496998057, -0.0154020498, 0.0642582700, 0.0043324875, 0.2298005819, -0.1432660371, -0.0278245006, 0.0502461009, -0.0601430833, 0.0756755993, 0.1399450600, -0.0623802543, -0.0725179538, -0.0135235796, 0.0269664545, 0.0478180908, -0.0191396307, -0.0368968286, 0.0302898586, 0.0530651212, -0.0189380739, -0.0533484071, 0.0641838089, 0.0596119128, 0.0162601080, -0.0033949995, -0.0436508209, -0.0138563486, 0.0003670352, -0.0648693219, -0.0217661709, 0.0336739458, 0.1524792016, -0.1322665662, 0.0099019809, -0.0147498166, 0.0269331355, -0.1035233736, -0.0196570512, -0.0306797829, 0.0316039361, -0.0910171792, 0.0557321720, 0.0652333349, -0.0079348292, 0.0146964388, -0.0478127338, 0.0349503942, -0.1311271042, -0.0339359418, 0.0132083558, 0.0133697959, -0.0211702734, -0.0248138942, 0.0600914210, 0.0011217543, -0.0571741685, 0.0364071354, 0.0456989817, 0.0188572817, -0.0211850926, 0.0474838428, 0.0473567545, -0.0153536964, -0.0664555803, 0.0159050822, 0.0000407217, 0.0188056100, 0.0400137119, -0.1433347166, -0.0375025943, 0.0721319690, 0.0769226030, -0.0083931824, -0.0273662098, -0.0332101993, 0.0395156108, -0.0795965865, -0.0373457223, 0.0541249588, -0.0985033959, -0.0190929882, -0.0262170620, 0.0267296173, -0.0959887654, 0.0129034249, 0.0093253125, 0.0218005609, 0.0226608478, 0.1305767596, -0.1217615381, -0.0499506369, 0.1565410346, -0.0674760640, -0.0064915526, -0.0546457432, 0.1067347229, -0.0175224654, 0.0412670970, -0.0111606354, -0.0478845015, -0.0502632149, -0.0199778005, 0.0572693832, 0.2484943569, -0.2217164189, 0.0258658435, 0.0226908810, -0.1230344325, 0.0888097584, 0.2096947730, -0.0901087672, -0.0302600041, 0.0367507711, -0.0166160800, 0.0478233919, 0.0139760803, 0.0026670070, 0.0265046358, -0.0080399727, -0.0028151935, 0.0003703881, 0.0176441260, 0.0027266820, 0.0231205244, -0.0075872326, -0.0119959582, -0.0284821652, 0.0048564705, -0.0294763632, -0.0195663944, 0.0193708707, 0.1482338458, -0.0763730407, 0.0440764092, 0.0447813384, -0.0208282601, -0.0885029286, 0.0323132537, 0.0382543206, 0.0097303474, -0.0902971327, 0.0563320853, 0.0495678931, 0.0273184348, 0.0376188159, 0.0241952296, -0.0258819070, -0.0223466773, 0.0444668382, 0.0019339264, 0.0069573522, -0.0402407534, -0.0094079114, -0.0293165799, 0.0039666193, -0.0283142291, -0.0010109303, -0.0022211294, -0.0756458715, -0.0927474722, 0.0488967299, 0.0818735212, -0.0434910767, -0.0218665246, 0.0049125426, -0.0572842397, 0.0450853296, 0.0420609675, -0.1124323085, 0.0017924943, -0.0360861719, 0.0736041889, 0.0351533741, -0.0213740505, -0.0585280657, 0.0475719348, -0.0263808426, -0.0232660361, -0.0081446711, -0.0250045322, -0.0228691101, -0.0253488794, -0.0091772992, -0.0871635377, -0.0227705818, -0.0341879949, -0.0198523346, 0.0866415426, 0.0913640857, -0.0652992949, -0.0532785840, 0.1332259625, -0.0032375755, -0.0948491171, -0.0350527875, 0.0801567659, -0.0502809361, 0.0138529344, 0.0053995484, -0.0150313396, -0.0207399502, 0.0806390494, 0.0111717926, 0.1888962090, -0.2121680081, -0.0505325645, 0.0711844265, -0.0943296254, 0.0506335720, 0.1906533539, -0.0393612497, 0.0059496392, -0.0166560244, -0.0404596291, 0.0324929170, -0.0345789194, 0.0202229824, -0.0220645554, 0.0243476462, 0.0374574326, 0.0093736835, -0.0193080101, 0.0887937471, -0.0230547357, 0.0437519141, 0.0444768928, 0.0478512645, 0.0072345748, -0.0558132939, 0.0012095334, 0.0129481358, 0.1383172572, -0.0909099951, 0.0676833913, -0.0730079189, 0.0672966689, -0.0737254545, -0.0181442872, 0.0285380147, -0.0317914262, 0.0147685315, 0.0421255752, 0.0564597324, -0.0137211559, 0.0760562867, -0.0256923232, 0.0687641427, -0.0743817985, -0.0244182404, -0.0043688393, 0.0640676990, -0.0492910407, -0.0502928495, -0.0425890461, 0.0293190964, 0.0169410612, 0.0276197717, -0.0121492809, 0.0093767345, -0.0469917841, 0.1212479770, 0.0852089748, -0.0138688702, -0.0533559360, -0.0430090278, -0.0564535931, -0.0140185580, 0.0624541156, -0.1285062283, -0.0088688070, -0.0425843112, 0.0504015796, 0.1208725795, -0.0138822086, -0.0121215377, 0.0610200129, -0.0774073452, -0.0117123304, 0.0096595054, -0.0129260812, 0.0331167318, -0.0532728285, -0.0850864276, -0.0352102183, -0.0336843058, 0.0046458091, -0.0253656637, 0.0737760291, 0.0839642435, -0.0944632739, -0.0175169054, 0.1156873107, 0.0191406403, 0.0079871397, -0.0283209179, 0.0954131037, -0.0014075992, -0.0630424172, -0.0201984663, -0.0118887993, -0.0419865027, 0.0056764688, 0.0172860101, 0.2234214842, -0.1870900989, 0.0301266965, 0.0456752218, -0.0609400347, 0.1266272813, 0.1698959172, -0.0648261160, -0.0574473627, -0.0431860574, 0.0087056821, -0.0335016735, -0.0254267976, 0.0360043347, 0.0615772530, 0.0205727257, -0.0260024294, -0.0099847661, -0.0032238727, 0.0817420930, 0.0333263464, 0.0377917178, 0.0118708489, 0.0303661581, -0.0148153706, -0.1200682521, 0.0581048392, -0.0839756653, 0.1458325684, 0.0348675326, 0.0207433831, -0.0102201886, 0.0006199882, -0.0668615475, 0.0288343299, 0.0475601740, 0.0246444494, -0.0673994645, 0.0718144253, 0.0267640632, 0.0172773842, 0.0648405552, 0.0173253957, 0.0489574112, 0.0088137249, 0.0181976687, 0.0144282803, 0.0482609235, 0.0181232281, -0.0032328481, 0.0211383589, 0.0394498222, -0.0649741739, 0.0367830209, 0.0377208628, 0.0222536679, -0.0853203461, -0.0033375644, 0.0581978783, 0.0211696494, -0.0201348048, 0.0215664580, -0.0678723603, 0.0657553524, 0.0064206310, -0.1159673706, 0.0374315381, -0.0648708567, -0.0323047526, 0.1397141516, 0.0285080951, -0.0089953681, 0.0510148406, -0.0825342759, -0.0267311931, 0.0389251262, -0.0056454833, 0.0793398470, 0.0036650675, -0.0538478233, -0.0778670833, -0.0706647113, -0.0172851924, -0.0350343324, 0.0291376021, 0.1150265262, -0.1003052741, -0.0333304442, 0.0307255555, -0.0442963392, -0.0514918417, -0.0661967620, 0.0141161606, 0.0083373431, -0.0720980838, 0.0362457037, -0.0638148636, 0.0177325923, -0.0214689560, -0.0277766082, 0.2005643994, -0.2161884606, -0.0223530158, 0.0344873965, -0.0102501791, 0.1119112372, 0.1921877116, -0.1313211620, -0.0397012830, -0.0537386239, -0.0371523015, -0.0579052866, 0.0098223202, 0.0372069366, 0.0351572111, 0.0127503434, 0.0503087007, -0.0501182713, -0.0137026403, 0.0607316718, 0.0201064274, -0.0017156457, 0.0865115076, -0.0306374058, -0.0427152552, -0.0123090437, -0.0301705487, -0.0363120064, 0.0619118251, -0.0433184244, 0.0361989066, 0.0042803679, 0.0608510226, -0.0797554404, -0.0270621683, -0.0759548470, -0.0004124070, -0.0516632684, 0.0560882129, -0.0194989722, -0.0342925265, -0.0005416987, -0.0110369762, 0.0477914549, -0.0896376073, 0.0427660011, 0.0527133346, 0.0531529114, 0.0190006196, -0.0027040704, -0.0444810875, 0.0168389045, 0.0133203957, 0.0298316516, 0.0523015298, -0.0369330421, -0.0744295716, 0.1014129445, 0.0337884836, 0.0621017329, -0.0050450899, -0.0482364595, -0.0737293139, 0.0748737082, 0.0390767939, -0.1474880278, 0.0015421564, 0.0450505204, 0.0681045800, 0.0534634553, 0.0078867618, 0.0247026794, 0.0041781971, 0.0387568697, -0.0337557755, 0.0004031147, -0.0723539665, 0.0429929420, -0.0568728819, -0.0393598266, -0.0517989397, -0.0432225205, 0.0695381090, -0.0310593452, 0.0414455384, 0.0975794569, -0.1221220642, -0.0307110865, 0.0741551742, 0.0128777735, 0.0690701380, -0.0719361529, 0.0713208839, -0.0045080138, -0.0975857303, 0.0107500209, -0.0158066060, -0.0358990841, 0.0421660766, 0.0323442034, 0.1519995630, -0.1277513504, -0.0572459735, 0.0289903805, -0.0821524337, 0.0672081560, 0.1168067008, -0.0811624154, -0.0219228473, -0.0572965182, 0.0384608619, 0.0491832718, -0.0391984470, 0.0072227875, 0.0034843101, -0.0472519435, -0.0013216122, -0.0791336223, 0.0097790025, 0.0152063975, 0.0484858230, -0.0383292027, 0.0832856447, -0.0003955730, -0.0692359656, -0.0812555254, 0.0215006880, 0.0553942621, 0.0945708826, 0.0331251584, -0.0316549987, -0.0400312282, 0.0030822600, -0.0724818036, 0.0473139063, -0.0323216170, 0.0489045680, -0.0511068739, -0.0008338315, -0.0080968710, 0.0162884425, 0.0717129484, 0.0072015352, 0.0451141596, -0.0216661990, 0.0277236439, -0.0313110016, -0.0051597198, -0.0249530450, -0.0767743886, 0.0479756966, -0.0385877043, -0.0827805847, 0.0756438896, -0.0389022417, -0.0110710273, -0.0656111464, 0.0757299736, 0.0522514209, 0.0196223147, 0.0025031578, -0.0103325490, -0.0022145845, 0.0106755635, -0.0098984996, -0.1131182462, 0.0620803796, 0.0114940619, 0.0177072138, 0.0033111465, 0.0347578488, -0.0258261096, 0.0323993117, -0.0720820203, -0.0166538022, 0.0089021223, -0.0742173344, 0.0331593566, -0.0618614964, -0.0100477589, -0.0694923103, -0.0288992133, 0.0264237467, -0.0198645666, 0.0877273157, 0.0457288586, -0.1169960424, -0.0970344692, 0.1235907972, -0.0549413897, 0.0211449470, -0.0743646622, -0.0015765816, 0.0019499920, -0.0076374533, 0.0402962714, 0.0142030390, -0.0397507250, 0.0048700348, 0.0386534519, 0.1833882630, -0.2007035315, 0.0287919249, -0.0248670503, -0.0760635585, 0.1136982441, 0.1044533327, -0.0222383384, -0.0286651384, 0.0059311949, 0.0013601952, 0.0051572528, -0.0080323564, 0.0663314089, 0.0455777943, -0.0673512593, -0.0020229218, -0.0061567305, 0.0149691459, -0.0051748445, 0.0614862815, -0.0057341442, -0.0067268433, -0.0021297727, 0.0037562528, -0.1086037979, 0.0066336989, -0.0104196537, 0.1660388857, -0.0464146808, 0.0119177038, -0.0400375538, 0.0487092696, -0.1018409133, 0.0547672212, 0.0139994109, -0.0105913356, -0.0739210993, -0.0152783701, 0.0136994505, 0.0056815813, 0.0558288060, 0.0290669296, 0.0425752290, -0.0849622563, 0.0036511819, -0.0202363171, 0.0071097366, -0.0079654148, -0.0422499962, -0.0078869853, 0.0165832825, 0.0187194664, 0.0602548309, 0.0563344955, 0.0102912774, -0.0756966993, 0.0811404809, 0.0648838282, -0.0314725451, -0.0451164134, -0.0339251794, -0.0387720764, 0.0641604885, 0.0451535210, -0.0974386036, -0.0311532784, 0.0747991502, 0.0743392482, 0.0389337763, 0.0470272712, 0.0373993032, 0.0132299997, -0.0615412295, 0.0204781555, 0.0021619631, -0.0612790771, 0.0733376071, -0.0674363524, 0.0143574513, -0.0980736539, -0.0898768604, 0.0733403489, 0.0347499512, 0.0109721376, 0.0783234686, -0.1061686873, 0.0268885326, 0.0908604860, 0.0086694891, -0.0453898646, 0.0082931966, 0.0779181495, -0.0353927426, 0.0198046584, -0.0135110980, -0.0238001514, -0.0104325870, 0.0605602041, -0.0017036237, 0.2914716303, -0.1348938197, -0.0654082596, 0.0536307804, -0.0493961610, 0.0450518765, 0.0668407306, -0.0538901091, 0.0034056895, 0.0185105018, 0.0052481233, 0.0430332236, 0.0102776624, 0.0525697023, -0.0167152043, -0.0580913872, -0.0394083261, 0.0061242608, 0.0281972680, -0.0042550266, -0.0149825206, -0.0025698100, 0.0761186182, 0.0328583680, 0.0106680319, -0.0809134170, 0.0727301389, 0.0197037868, 0.1272888780, -0.0454846770, 0.0384191610, -0.0668986365, 0.0640605912, -0.1257871538, 0.0654171705, -0.0716418698, -0.0193343330, 0.0222117044, 0.0679535568, -0.0403197035, 0.0449646674, -0.0058255754, -0.0337327085, 0.0555861630, -0.0704087168, -0.0055962033, 0.0450850129, 0.0717929080, -0.0248274114, 0.0004980285, -0.0405545682, 0.0034920229, 0.0031821686, 0.0623063706, -0.0175266936, -0.0156768300, -0.0640006661, 0.0510178842, 0.0961121693, -0.0402445644, 0.0099027613, 0.0304639824, 0.0240580272, 0.0118295522, 0.0199655853, -0.0969699770, -0.0153498957, -0.0369411595, 0.0748105049, -0.0164662823, 0.0315540507, 0.0401790328, 0.0540091433, 0.0117569054, -0.0151003990, -0.0130432695, -0.0637259185, 0.0431318507, -0.1235573739, 0.1020864248, -0.0318021812, -0.0583237968, 0.0307125449, 0.0169238411, 0.0277211163, 0.1024501920, -0.0437220261, -0.0155666694, 0.1722503901, -0.1203708500, -0.0588060468, 0.0287824571, 0.0987839326, -0.0136933988, 0.0366852805, 0.0124686249, 0.0264939796, -0.0765360519, -0.0227814801, -0.0056322361, 0.2346289754, -0.1598137170, -0.0633566082, 0.0015261563, -0.0730411634, 0.0363359079, 0.0771766081, -0.0507020280, -0.0423137099, -0.0112265646, -0.0281884018, 0.0058244732, -0.0490067564, 0.0510137081, 0.0809997320, 0.0056108520, -0.0315134600, -0.0141336694, 0.0411018282, -0.0340423025, -0.0100420378, -0.0088099055, -0.0296170376, -0.0049287863, -0.0243859049, -0.0854003876, -0.0118325260, 0.0180722643, 0.1631670296, -0.0964983478, 0.0627653673, -0.0318017937, 0.0153599484, -0.0700196475, -0.0277508758, -0.0177755710, -0.0083722677, 0.0123597626, 0.0246345159, -0.0143975252, 0.0344965234, 0.0784097686, 0.0118724424, 0.0499908887, -0.0755026489, -0.0078345723, 0.0431585237, -0.0210367404, -0.0400325693, -0.0136406329, 0.0226779524, -0.0042024157, -0.0196071547, 0.0828137621, 0.0149379065, -0.0604359843, -0.0242769197, 0.0747739002, 0.0996015742, -0.0032697623, 0.0172323827, -0.0486209467, -0.0326372087, 0.0445322096, 0.0486489534, -0.0145225581, -0.0408551358, -0.0381466448, 0.1552138925, -0.0558369122, -0.0124334255, -0.0209062789, 0.0002802233, -0.0466447137, -0.0111938408, -0.0122561818, -0.1012226865, -0.0014143550, -0.1736153811, 0.1298151612, -0.0917137936, -0.0525995791, 0.0024075448, 0.0146260140, 0.0405740663, 0.0668092445, -0.1336703300, -0.0660944283, 0.1440312117, -0.0417517126, -0.0406608246, 0.0491743721, 0.0913021415, -0.0196429268, -0.0315683000, -0.0717060268, -0.0198284872, 0.0116268210, 0.0221518539, 0.0613678619, 0.2568108737, -0.1983007491, -0.0558072180, 0.1037526578, -0.0619362034, 0.1460569352, 0.1119207293, 0.0599319376, -0.0831637457, 0.0163238011, -0.0171402544, -0.0110450108, 0.0109463856, -0.0370800570, 0.0273514204, -0.0212311968, -0.0295236167, -0.0438724607, 0.0521966852, 0.0497901998, 0.0176633485, -0.0025662323, 0.0520845503, -0.0445863232, -0.0145260273, -0.0783483759, 0.0081685008, -0.0096225627, 0.1982069463, -0.0916891992, 0.0315988623, 0.0504426993, 0.0050466531, -0.1501734704, 0.0593118556, -0.0309610236, 0.0402496234, -0.0746007040, 0.0652262345, -0.0053626215, 0.0214437637, 0.0578477196, 0.0244168807, 0.0094306888, -0.0876811966, 0.0423879139, 0.0372155979, 0.0457124189, -0.0544547923, 0.0036735875, 0.0139145870, -0.0226000324, -0.0548569560, -0.0007594128, 0.0737637803, -0.0802036822, -0.0413080193, 0.1414674670, 0.0384980775, 0.0000153006, 0.0072295880, 0.0357730500, -0.0222165585, 0.0207233429, -0.0183955077, 0.0271895994, -0.1714123785, -0.0504527017, 0.1464114040, -0.0726744533, -0.0333905593, 0.0421257652, 0.0081167426, -0.0665450245, 0.0290276799, -0.0077466667, -0.0239183437, 0.0698651522, -0.1579174697, 0.0624749437, -0.0390926227, -0.0469151810, -0.0856841207, 0.0078319684, 0.0775688589, 0.0836931616, -0.1318518370, 0.0197574031, 0.0810762942, -0.0331590325, -0.0865845382, 0.0013728256, 0.0829499662, -0.0175551493, -0.0418935195, -0.0458820015, 0.0066583622, -0.0183030628, 0.0633902997, 0.0136007853, 0.1593704522, -0.2014630288, 0.0673508197, 0.0476240516, -0.0853965133, 0.1360993534, 0.0690260306, -0.0140134217, -0.0471544676, 0.0350402221, 0.0098318802, 0.0485522002, -0.0240103956, 0.0630766824, 0.0384259038, -0.0045591113, 0.0259161238, -0.0772044361, 0.0694486797, 0.0001881032, 0.0482181050, -0.0198290870, -0.0264209155, -0.0429152884, -0.0060772211, -0.0267795660, -0.0541279018, 0.0363467075, 0.1185577288, -0.0940994993, -0.0229558796, 0.0180218890, 0.0545352660, -0.0722186193, 0.0142059624, 0.0211339463, -0.0287077371, 0.0362085216, 0.0679462999, -0.0262809042, 0.0141169624, 0.0543977469, 0.0362823233, -0.0756460279, 0.0065445248, 0.0087659741, -0.0228719804, 0.0343913250, -0.0022418173, 0.0386800990, -0.0342013761, -0.0230447203, -0.0637329891, 0.0801753476, -0.0203493275, -0.1222334877, -0.0366001949, 0.1210284084, 0.0890601650, -0.0194282513, -0.0081760827, -0.0468758978, -0.0594446212, 0.0557304062, 0.0185523368, 0.0687665269, -0.1064065844, -0.0816510990, 0.1049006209, -0.0413822532, 0.0396489389, 0.0287754405, 0.0145516945, -0.0369054228, -0.0815680102, 0.0079726623, 0.0413419865, 0.0164427515, -0.1128141731, 0.0720334202, -0.0634551272, -0.0373564586, -0.0844363049, 0.0019002995, 0.0297237951, 0.0983568057, -0.0689415783, 0.0041382536, 0.0915246680, -0.0252160728, -0.0227115918, -0.0119055854, 0.0745455027, -0.0248260163, -0.0087889880, -0.0404775850, 0.0234893169, -0.0048042829, -0.0047088442, 0.0178720690, 0.1139605567, -0.1914526969, 0.0460142419, 0.0163867753, -0.0678503141, 0.0722150207, 0.0503937304, -0.0045190612, -0.0685777441, 0.0073127276, -0.0623059757, -0.0072062230, -0.0506007783, -0.0048644068, 0.0404535271, -0.0499358475, 0.0033985539, -0.0560331829, 0.0171874687, -0.0018472058, 0.0457161479, 0.0185344778, 0.0498793200, -0.0597186238, -0.0779813379, -0.0973006859, 0.0187923741, 0.0039421902, 0.1844399422, -0.0475408994, 0.0514352508, 0.0479016416, -0.0132580604, -0.0231388099, 0.0170651544, 0.0104773296, -0.0084099341, -0.0294704866, -0.0026998639, 0.0109240003, 0.0397617109, 0.0112195183, 0.0201434754, -0.0519868918, -0.0949689522, 0.0564939342, 0.0260693543, 0.0184565801, 0.0085166618, -0.0557722710, -0.0392196029, 0.0099875731, 0.0038974863, -0.0067541138, -0.0072984151, -0.0977914333, 0.0192945097, 0.0510295369, 0.0774745867, 0.0024602222, 0.0024303119, -0.0180937368, -0.0486844927, 0.0690960586, 0.0039775237, -0.0246500764, -0.0616771691, -0.0332975090, 0.1090302914, -0.0192379858, 0.0455020592, -0.0040737246, 0.0302344449, -0.0137680359, -0.0110548045, -0.0090119187, -0.0957750678, 0.0904371589, -0.1018313915, 0.0113324262, -0.0965388566, -0.0559108667, -0.0513630807, 0.0104955761, 0.0773899332, 0.0388270989, -0.1359847486, 0.0588844344, 0.1071953624, 0.0024545656, -0.0947822779, -0.0012382002, 0.0846039429, -0.0133621553, -0.0096233152, -0.0426848195, -0.0059131677, -0.0116686104, 0.0657145157, 0.0547442697, 0.0990772843, -0.1204432026, 0.0074940119, 0.0429041348, 0.0093509378, 0.1053584591, 0.1663116962, 0.0159549899, -0.0410976745, 0.0098549463, -0.0371408090, 0.0015680514, -0.0620047562, 0.0065883654, 0.0348595865, -0.0450296365, 0.0332452804, -0.0577851348, 0.0185165331, -0.0151284505, -0.0377797522, 0.0195134003, 0.0701457188, -0.0150169861, 0.0193441566, -0.1484946758, -0.0707089901, 0.0035270958, 0.1396910846, -0.0437780283, 0.0173357613, 0.0403810889, -0.0132936081, -0.0779563189, -0.0056112139, -0.0146254105, 0.0398993194, -0.0470864251, 0.0405868739, -0.0048586931, 0.0254086927, -0.0287638512, -0.0273591708, -0.0582503416, -0.0727200359, 0.0211383794, 0.0244308710, 0.0307001770, 0.0170542970, -0.0068115816, -0.0565434396, 0.0044826353, 0.0103053115, 0.0188523252, 0.0098183285, -0.1207302436, 0.0179849193, 0.1354634166, 0.0315559506, 0.0345627069, -0.0127277058, -0.0284425579, -0.0663271919, 0.0180214513, 0.0541764833, -0.0124184256, -0.1372566670, -0.0999141559, 0.0746426657, 0.0092197368, 0.0314731076, -0.0448775440, 0.0586551726, -0.0402457528, -0.0551536009, 0.0700262561, -0.0470358878, 0.0399830677, 0.0196578633, 0.0286293887, -0.0965647995, -0.0722259060, -0.0476822555, 0.0195603501, -0.0029827179, 0.0819001943, -0.1590894908, -0.0158486534, 0.0900342911, -0.0267858021, -0.0992647186, -0.0343108401, 0.0826378837, -0.0205332451, -0.0058770142, -0.0361495540, -0.0090411836, -0.0089382734, 0.0232896544, 0.0531777292, 0.1022931859, -0.2101117224, 0.0345561244, 0.0284051225, -0.0605282895, 0.1212006658, 0.1159877256, -0.0652388632, -0.0405212045, 0.0346862040, -0.0481601991, -0.0099277087, -0.0324085057, -0.0086443685, -0.0188845303, -0.0119975982, -0.0296303239, -0.0127826426, 0.0707521662, 0.0334417634, -0.0335122086, -0.0317985304, 0.0291369855, -0.0050906958, -0.0622338690, -0.1216803491, -0.0065029133, 0.0119068362, 0.0898192450, -0.0177323129, 0.0260165185, -0.0524527654, 0.0620955378, -0.0748938546, -0.0201144759, -0.0169326831, -0.0408799611, -0.0465314537, 0.0250302181, -0.0031477131, 0.0317559615, 0.0105544943, -0.0315742493, -0.0284069572, 0.0331311822, -0.0047473279, -0.0197359025, -0.0165659171, -0.0760328919, -0.0253696870, -0.0741572529, 0.0188660342, -0.0611714460, -0.0107660946, 0.0391685553, -0.0401646271, -0.0736210793, 0.1032485440, 0.0229465459, 0.0439701043, 0.0219088923, -0.0197116025, -0.0545804799, 0.0685585737, -0.0138791604, -0.0153347040, -0.1777671278, -0.0236985069, 0.0270645339, 0.0505721159, 0.0358033031, -0.0290645268, 0.0557849854, -0.0169133916, -0.0521913506, -0.0441377051, -0.0764816776, 0.0765885338, -0.0200778991, -0.0432201140, -0.0090696737, -0.0461379886, -0.0361643285, 0.0211060401, 0.0630215928, 0.0604218543, -0.1606976688, -0.0146483593, 0.1196748093, -0.0405018181, -0.0763823614, -0.0473815091, 0.0613323599, 0.0010110986, -0.0339886136, -0.0486792214, -0.0084572239, -0.0541003086, 0.0807691738, -0.0122116571, 0.1242527738, -0.1087507382, 0.1013798639, -0.0689484254, -0.0204495024, 0.1126819551, 0.1759201884, 0.0042301686, -0.0024256697, -0.0492025092, -0.0311505701, -0.0270432979, -0.0099902116, 0.0315539241, -0.0150674693, -0.0288673379, -0.0075003980, -0.0915975571, 0.0903999954, 0.0503094755, 0.0233650655, 0.0047588670, 0.0259637386, 0.0283637885, -0.0344830900, -0.0974145234, -0.0810477063, -0.0613173954, 0.0866300240, -0.0273912624, -0.0046422523, -0.0156979840, -0.0102024097, -0.0132348882, 0.0324090421, -0.0021189216, -0.0084323930, -0.0551238768, 0.0370935239, 0.0950220600, 0.0545981303, -0.0465530865, -0.0104547199, -0.0059459037, 0.0168989487, -0.0218568984, -0.0107682170, 0.0353861935, -0.0305169262, 0.0011474378, -0.0537265576, 0.0216003396, -0.0252999030, 0.0537414066, 0.0343486033, -0.1063292846, 0.0032740778, 0.1184546649, 0.0234689265, 0.0365273617, -0.0390121005, 0.0347963758, -0.0359784774, 0.0720320195, 0.0031506023, 0.0584489517, -0.0514581688, -0.1095371991, 0.0808653012, 0.0234494451, -0.0159350652, -0.0544995107, 0.0954447761, -0.0358724706, 0.0267682821, -0.0028419371, 0.0045702052, 0.0672686473, 0.0324845910, -0.0728514642, -0.0023996136, -0.0555555858, -0.0649462044, 0.0044730413, 0.1023751944, 0.0936121345, -0.1135668904, -0.0101455078, 0.0954661369, 0.0305904169, -0.0500946268, -0.0392692201, 0.0694974437, -0.0149408635, -0.0759595931, -0.0077593755, -0.0064907009, -0.0025336051, 0.0282823760, 0.0467128828, 0.1309900135, -0.1557596624, 0.1090479270, 0.0044409763, -0.0688174292, 0.1113912463, 0.2138440162, -0.0315257013, -0.0449118912, -0.0173488837, 0.0262055919, 0.0336567946, -0.0225159116, 0.0734201372, 0.0395618677, 0.0069247172, 0.0138246231, -0.0533967018, 0.0315753929, 0.0095271952, 0.0078183068, -0.0099263825, 0.0376892053, 0.0292924587, 0.0006436763, -0.0893517286, -0.0516576394, -0.0296386238, 0.0408370793, 0.0099430867, -0.0015919043, -0.0388142541, 0.0360483564, -0.0907429606, -0.0233316701, 0.0383471549, -0.0137689253, -0.0008031313, 0.0673100725, 0.0238772929, 0.0139685487, 0.0002818013, -0.0278585050, -0.0559280738, 0.0436015837, 0.0392898731, 0.0105848601, 0.0228424519, -0.0499697924, -0.0471752100, -0.0427663215, 0.0070709554, -0.1034007370, 0.0580475070, -0.0074733184, -0.1170648932, 0.0177098960, 0.0606791936, 0.0178630203, 0.0485891886, -0.0463018827, 0.0425990261, -0.0200759359, -0.0017767982, 0.0498803072, 0.0226506758, -0.0603989922, -0.0993178785, 0.0734116882, -0.0127865979, 0.0507967547, 0.0292670745, 0.0220493861, -0.0144858602, -0.0656506866, 0.0422601439, -0.0297041908, 0.0806363076, 0.0173244327, -0.0917228758, -0.0208718032, -0.0737257078, -0.0901168212, 0.0023048399, 0.0061007761, -0.0053609503, -0.0495554134, 0.0304273535, 0.0709824115, 0.0037852745, 0.0142147653, -0.0565255880, 0.0315835066, 0.0243944507, -0.0688403621, -0.0068193846, 0.0092610372, -0.0297881290, 0.0210772865, 0.0416388027, 0.1298326403, -0.1121222451, 0.0274746306, 0.0464532562, -0.0466431230, 0.0707509145, 0.1751238555, -0.0382902138, -0.0273706075, -0.0364994444, -0.0368839167, 0.0383203849, -0.0350711867, -0.0063694194, 0.0362507217, -0.0322022177, 0.0176823605, 0.0222753920, 0.0714427307, 0.0674741417, 0.0014415535, 0.0305237342, 0.0625872165, -0.0300300326, -0.0454674996, -0.0545493811, -0.0543887429, 0.0293717720, 0.0411031023, 0.0131443338, -0.0062864209, -0.0066904840, 0.0353107750, -0.0616937689, -0.0269430503, -0.0475904346, -0.0161251538, -0.0280154180, -0.0026348345, -0.0137787098, -0.0126852626, -0.0143645098, -0.0741603896, -0.0353277810, 0.0350281484, 0.0231046099, 0.0160714313, 0.0201680865, -0.0093135955, 0.0180118103, -0.0045986045, -0.0498470627, -0.0517058298, 0.0490421206, -0.0217549354, -0.0971742198, -0.0179987531, 0.0868452042, 0.0946274772, -0.0632597879, 0.0226635542, -0.0427320413, -0.0409544669, 0.0806102976, -0.0135132466, 0.0477916487, -0.1327534765, -0.0386901610, 0.1029104814, 0.0488185734, 0.0473139919, 0.0237257481, 0.0357050374, 0.0108786523, -0.0594958290, -0.0294069089, -0.0640247762, 0.0902520195, -0.0601109155, -0.0755401403, -0.0066105928, -0.0872203782, -0.0369519405, 0.0051008561, 0.0372742377, -0.0011095642, -0.1487534791, 0.0341416933, 0.1143720523, 0.0146777118, -0.0174115840, 0.0018018411, 0.1037534922, -0.0265675541, -0.0716901645, -0.0638668388, 0.0469789319, -0.0664597303, -0.0420876704, 0.0701977313, 0.1049050316, -0.1260695308, 0.0357044637, -0.0478744358, -0.0366759785, 0.1461800784, 0.0714261830, -0.0587141179, -0.0595066175, -0.0124333156, -0.0491922945, 0.0009996158, 0.0087067354, 0.0688750073, -0.0201620273, 0.0006062629, -0.0096273292, -0.0527777374, 0.0094913905, 0.0274220482, 0.0322219953, -0.0377771519, 0.0363260098, -0.0458032638, 0.0055820234, -0.0811352134, 0.0304955151, 0.0023118379, 0.0970681533, 0.0014911650, 0.0610562302, -0.0281086471, 0.0144675942, -0.0020066435, 0.0257162023, 0.0228293817, -0.0019608857, -0.0870290026, 0.0414120145, 0.0576101281, 0.0074006338, 0.0088128671, -0.0637631565, -0.0117988084, 0.0294073373, 0.0126673980, 0.0440682843, -0.0204524547, -0.0506821573, 0.0403600708, -0.0658505782, -0.0156738982, -0.0467799343, 0.0244827718, -0.0316385292, -0.0765463337, 0.0033884034, 0.0794275180, 0.0948800296, -0.0171241891, -0.0436861850, 0.0336978771, -0.0384987853, 0.0122531671, 0.0589283779, 0.0293752588, -0.0822972953, -0.0858799592, 0.1018321961, -0.0450048484, 0.0091637783, 0.0251508225, 0.0841296017, -0.0538539663, -0.0015377456, -0.0558149442, -0.0379655510, 0.0509982370, -0.0373622067, 0.0004893815, -0.0477000028, -0.0738318935, -0.0230706185, 0.0395432711, 0.0700990483, 0.0662000403, -0.1128031239, -0.0315371118, 0.0431020781, 0.0286587831, -0.0935161412, 0.0299665798, 0.0544673279, 0.0510910712, 0.0167287216, -0.0593600944, 0.0416624025, -0.0584332459, 0.0383765325, 0.0081048822, 0.1286210716, -0.1125887409, 0.0441144966, 0.0354169123, -0.0055686100, 0.0754350647, 0.1095082685, -0.0599866174, -0.0525732301, 0.0028688163, 0.0203242376, 0.0595477596, 0.0038714402, 0.0476168282, 0.0223383550, 0.0216179863, -0.0166159235, -0.0310112722, 0.0670052841, -0.0038540030, -0.0135080125, 0.0085922843, 0.0093581146, 0.0145733804, -0.0524004698, -0.1052807793, -0.0138363084, -0.0247840118, 0.0885917023, -0.0363082141, 0.0441769436, -0.0039405255, -0.0288304649, -0.0649572834, 0.0502905436, 0.0060567018, 0.0321778841, -0.0132108284, -0.0109802475, 0.0392967984, -0.0077824914, -0.0013113671, -0.0219091475, -0.0810200274, 0.0088513689, -0.0198402219, -0.0142770614, -0.0203118231, -0.0112540666, -0.0040463023, -0.0517455302, 0.0363995843, -0.0589403175, 0.0816142187, 0.0699690208, -0.1341932267, -0.0589085408, 0.1238711923, 0.0332083218, 0.0217838753, -0.0214914419, -0.0223413184, -0.0075232903, 0.0265342295, 0.0294868872, 0.0716945902, -0.1152727976, -0.0907247439, 0.0609623902, -0.0070659854, 0.0464290157, -0.0383886211, 0.0367744006, -0.0698967576, -0.0544007570, -0.0518829413, -0.0459334217, 0.0177700631, -0.1133953556, 0.0656834766, -0.0277785286, -0.0796215534, -0.0418130867, 0.0065174550, 0.0336770751, 0.0883855894, -0.1047130823, -0.0086961836, 0.0938435718, -0.0343261808, -0.0904734656, 0.0019848063, 0.0770846605, 0.0089939302, -0.0048428020, -0.0163492486, -0.0399725512, 0.0113041503, 0.0327133946, 0.0184159670, 0.1653914750, -0.1329997182, 0.0328770503, 0.0279646628, -0.0852074325, 0.0902582332, 0.1191478744, 0.0565957576, -0.0745200664, -0.0026240684, -0.0006097339, -0.0280044805, -0.0452490598, -0.0327736773, 0.0137298433, -0.0491066128, 0.0239405110, -0.0801863596, 0.0552223921, 0.0548098981, 0.0247420240, -0.0210586246, 0.0521673672, 0.0041459757, -0.0733886585, -0.1430811584, 0.0933116898, -0.0358584821, 0.1428674608, 0.0193584505, 0.0089192269, 0.0325287990, 0.0135184694, -0.0747391805, 0.0251192003, -0.0190003328, -0.0445741042, -0.0133043518, 0.0112441480, 0.0414167643, -0.0026790779, 0.0092202947, -0.0310346801, -0.0333466679, -0.0413428321, -0.0179655347, -0.0258366354, 0.0552534722, 0.0090646790, -0.0321633741, -0.0493944325, 0.0364797674, -0.0545385554, -0.0207591429, 0.0317143425, -0.1308787018, 0.0011070067, 0.1285390556, 0.0350586884, 0.0006090241, -0.0669698790, -0.0033083973, 0.0081569552, -0.0065764193, 0.0731079206, 0.0339550227, -0.0422010906, -0.0714677051, 0.1125703231, -0.0307345428, -0.0210679621, 0.0200483724, 0.0385909975, -0.0249172878, -0.0554025210, -0.0762251988, -0.0218102727, 0.0420782827, -0.0972882807, 0.0288089011, -0.0763610601, -0.0145421959, -0.0581631772, -0.0039891102, 0.0512456223, 0.0883219540, -0.1132083088, -0.0116522936, 0.1173609644, -0.0328185968, -0.0901730359, -0.0406418741, 0.0619240664, 0.0199252758, -0.0044083353, -0.0498556606, -0.0502902605, 0.0193254631, -0.0025620800, -0.0184801985, 0.2013079524, -0.1708919555, 0.0745887384, -0.0055026165, -0.0769832954, 0.1601788998, 0.1164628565, 0.0828220844, -0.0596048459, 0.0172923859, -0.0540453792, -0.0191813447, 0.0131793870, 0.0196845867, 0.0495065339, -0.0032773430, 0.0597927123, -0.0248667970, 0.0365970880, 0.0864997879, 0.0389543101, 0.0188482534, 0.0731973797, 0.0044163107, 0.0357299857, -0.1067864895, -0.0150288073, -0.0036945431, 0.1579553783, -0.0932943672, 0.0004785948, 0.0539837144, 0.0500163548, -0.0925060362, -0.0125602726, -0.0407224000, 0.0555828214, -0.0596479960, 0.0262317322, -0.0315247178, 0.0964038298, -0.0131572224, 0.0002925330, -0.0204128996, -0.0833114088, 0.0335799977, -0.0156374127, 0.0668767095, -0.0042901607, -0.0045847953, -0.0496143885, -0.0041501322, 0.0082340548, 0.0713723674, -0.0071971933, -0.1008237973, -0.0637761950, 0.1989302188, 0.0925530940, 0.0209813025, -0.0551801100, 0.0387109555, 0.0172537826, 0.0096927397, 0.0553099848, -0.0077216472, -0.0663030520, -0.1058404222, 0.0975130498, 0.0045887292, 0.0681768805, -0.0303772185, 0.0611603186, 0.0227973741, -0.0281329658, -0.0660761520, 0.0181706287, 0.0749955326, -0.0780184045, 0.0006927782, -0.0700622424, -0.1085454449, -0.0944749787, 0.0173286982, 0.0762658045, 0.0400986969, -0.1721896380, -0.0222053658, 0.0753029883, -0.0402501412, 0.0171620715, -0.1093961149, 0.0785933957, 0.0042652590, -0.1058438718, 0.0376541764, -0.0070834355, 0.0012487683, -0.0003357395, 0.0200801566, 0.1268523633, -0.2159115523, 0.0854083449, 0.0464016981, -0.0342543311, 0.0954882652, 0.0218909029, 0.0207382217, -0.0562334210, 0.0351561308, 0.0036867440, 0.0420351848, 0.0131309591, 0.0136910882, 0.0107390936, -0.0395078287, 0.0013688689, -0.0533206575, -0.0253731553, 0.0193348061, 0.0032157002, -0.0150387902, 0.0296455696, 0.0085000833, -0.0458080880, -0.0410142541, 0.0228759721, -0.0200673938, 0.1681410372, -0.0226485003, 0.0691771805, 0.0116004664, 0.0384964906, 0.0356844254, -0.1264917701, 0.0022138888, -0.0019969498, -0.0655880719, 0.0733655542, -0.0064509176, 0.0319986492, 0.0128398733, -0.0117612034, -0.0220577549, 0.0074621630, 0.0195937827, 0.0027928131, -0.0038820684, -0.0161316693, -0.0265507549, -0.0616510659, 0.0419650488, -0.0552896783, 0.0430158637, 0.0561164692, -0.0937471017, -0.0175071899, 0.1514412910, 0.0424919128, -0.0275916085, -0.0271348525, 0.0501669794, -0.0465051159, -0.0178640261, -0.0319408216, 0.0217490792, -0.0881379768, -0.1301670820, 0.0930264071, 0.0557630472, -0.0052962964, -0.0116433529, 0.1048028022, -0.0615086332, -0.0868715271, 0.0250738841, 0.0026475701, 0.0467322022, -0.0436944179, 0.0123249851, -0.0861806646, -0.0583702102, -0.0700510293, 0.0064993002, 0.0657261536, 0.0419896208, -0.1846023649, 0.0151480632, 0.0528938770, -0.0180119667, 0.0226132534, -0.1013092250, 0.0474350378, -0.0424026102, 0.0046900590, -0.0420214310, -0.0064010643, -0.0592783540, 0.0380854420, -0.0127924783, 0.1700041890, -0.1490111351, 0.1276983768, -0.0111779254, -0.0031143029, 0.0588764213, 0.0399233662, 0.0148796178, -0.0636555403, 0.0010194922, -0.0592848621, -0.0211310666, 0.0143670039, 0.0185219906, 0.0721015334, 0.0249770135, -0.0161568522, -0.0535746887, 0.0195026267, 0.0016007778, -0.0097223315, 0.0576595142, -0.0111786714, -0.0158490054, -0.0101138381, -0.0777063221, 0.0080820760, -0.0404642224, 0.1293537617, 0.0383848287, -0.0285399929, 0.0444905572, 0.0191928782, 0.0279111713, -0.0914265960, -0.0420119725, 0.0122168288, -0.0577893406, 0.0443661287, -0.0515467525, 0.0575381629, -0.0002765933, -0.0023934294, 0.0148565350, -0.0167909712, 0.0085598622, 0.0357880928, -0.0011907140, -0.0551391877, -0.0181591045, -0.0280884914, -0.0243723299, -0.0033908607, 0.0505683161, -0.0148217222, -0.0749419332, -0.0085304193, 0.1259839982, 0.0022434450, 0.0316418707, -0.0602162592, -0.0290973857, -0.0646014810, 0.0131969722, 0.0033772697, 0.0347230174, -0.1564171314, -0.0951392651, 0.1328284740, 0.0609205849, -0.0075102905, 0.0341400169, 0.0049975398, -0.0449387915, -0.0452830493, -0.0678310245, -0.0800267532, 0.1159906164, -0.0590791926, -0.0448406413, -0.0734957755, -0.1098249108, -0.0327555537, 0.0409710370, 0.0325590521, 0.0319154188, -0.1644495428, 0.0744983479, 0.1352915168, -0.0215271544, 0.0208263062, -0.1161898375, 0.0484849773, 0.0013886730, -0.0429524183, 0.0016234260, -0.0042468687, -0.0144460108, 0.0348198116, 0.0288211666, 0.1567809731, -0.2229643315, 0.0742091015, -0.0176614113, -0.0438993834, 0.0821205527, 0.1502126008, 0.0216396973, -0.0319844857, -0.0047805957, -0.0289858878, 0.0017194573, -0.0477212183, -0.0176218394, 0.0069339965, 0.0114061236, 0.0040713223, -0.0806082189, 0.0324915461, 0.0790612921, -0.0134512447, -0.0283727106, -0.0305399168, 0.0146259665, 0.0080585834, -0.0277534053, -0.0599371418, -0.0382316969, 0.1081555337, -0.0315148979, 0.0471638329, -0.0346360579, 0.0319136083, 0.0168100018, 0.0047406252, 0.0505869687, -0.0428821072, 0.0083231330, 0.0500964709, 0.0359160155, 0.0546710044, 0.0008368395, -0.0409781560, 0.0234747380, 0.0154188611, 0.0619545169, -0.0176573601, 0.0399809070, 0.0018215500, 0.0042448929, 0.0134323183, -0.0123070544, 0.0042323107, -0.0093198232, 0.0312769040, -0.1424561143, -0.0610434040, 0.0920109451, 0.0062688068, -0.0101333875, 0.0106369630, 0.0071151336, 0.0066534509, 0.0558961704, 0.0291213542, 0.0250937100, -0.1358001977, -0.0987034291, 0.0649274811, -0.0006001142, 0.0001620531, 0.0457363166, -0.0330035426, -0.0237589385, 0.0020353587, -0.0073666382, -0.1326291412, 0.1215356216, -0.0111782840, -0.0568877533, -0.0511507355, -0.0951345116, -0.0587759949, 0.0142802699, 0.0290992670, 0.0104060294, -0.0801053569, 0.0101793492, 0.0658680275, 0.0299198441, -0.0280367192, -0.0598504208, 0.0663435236, 0.0629234388, -0.0879169926, -0.0105235036, -0.0259365775, -0.0048864405, -0.0328285731, 0.0157530177, 0.1247692481, -0.1599908918, 0.1397028565, 0.0140505545, -0.0959303901, 0.0214643534, 0.1134429201, -0.0096403323, -0.0243454222, -0.0414361618, -0.0150565822, -0.0198177844, -0.0525402911, 0.0321612395, -0.0199831873, -0.0629004464, 0.0205358844, 0.0145877870, 0.0102324570, -0.0127145471, -0.0090876594, 0.0351977646, 0.0568370409, -0.0458976887, 0.0136712343, -0.0641900972, -0.0180080850, -0.0408626124, 0.0788818896, 0.0242275484, 0.0493230224, -0.0269006398, 0.0130747380, 0.0413231477, -0.0287235528, -0.0764925703, -0.0274950340, -0.0333922692, 0.0537250377, 0.0341884047, -0.0115503455, -0.0133661870, 0.0321321972, -0.0463875942, 0.0105206082, -0.0023992585, 0.0053298916, -0.0199005138, -0.0199733824, -0.0417149886, -0.0628068894, -0.0413384810, -0.0565658696, 0.0551492348, 0.0016587523, -0.0843659863, -0.0480897576, 0.1307527274, 0.0005826253, 0.0679950118, 0.0436435416, -0.0325904228, -0.0209812894, 0.0098535130, 0.0011634841, -0.0426031277, -0.1521513164, -0.1123951674, 0.0755949244, -0.0108771333, 0.0309635550, 0.0168381426, 0.0243887920, -0.0235460065, -0.0543363765, -0.0511464737, -0.0884256288, 0.0679539889, 0.0061048637, -0.0613003857, -0.0287075490, -0.1299423128, -0.1337705255, 0.0238218158, 0.0428910665, 0.0020623493, -0.1733215302, 0.0765297338, 0.0454548523, -0.0455387272, -0.0733158514, -0.1103389636, 0.0563748479, 0.0281333588, -0.0098127779, -0.0312424097, 0.0568309613, -0.0126742413, 0.0583406761, 0.0394040644, 0.0404882580, -0.1835246831, 0.1595088542, -0.0115187988, 0.0162630565, 0.0177188572, 0.1576223373, -0.0039699231, -0.0606003813, -0.0021068086, 0.0201199148, 0.0152497813, -0.0202266723, -0.0205737539, -0.0015509817, -0.0049719149, -0.0224687774, -0.0778590217, 0.0318292901, 0.0684004948, -0.0258390866, -0.0122498190, 0.0209968630, -0.0097813336, -0.0067279902, -0.0148500139, -0.1297541559, -0.0671291575, 0.1316102445, 0.0304282550, 0.0220393389, 0.0480694696, 0.0431089252, -0.0650505722, 0.0088237710, -0.0732936934, -0.0021720754, -0.0110796914, 0.0267643202, 0.0210680943, 0.0337032452, -0.0715946853, -0.0207935348, -0.0361822359, 0.0496629998, 0.0045802430, -0.0563635118, 0.0186635908, -0.0015011959, -0.0242049750, -0.0533364341, -0.0036070913, -0.0126600675, 0.0386863425, 0.0766712204, -0.1209842786, -0.0391463712, 0.1092749685, 0.0457570516, 0.0009301757, -0.0070072524, -0.0485398434, -0.0368917100, 0.0187467691, 0.0193762686, 0.0282541085, -0.1136553884, -0.0923451781, 0.0900277868, 0.0350356847, -0.0401486121, -0.0473196357, 0.0904525816, -0.0422400869, -0.0786076486, -0.0510246307, -0.0579562820, 0.0995046422, 0.0063056340, -0.0972811133, -0.0558030754, -0.1416052431, -0.1023601592, -0.0159405768, 0.0529916659, 0.0010198980, -0.1606643796, 0.0408438258, 0.1148002520, -0.0583585091, -0.0102845579, -0.0685384274, 0.0557329208, 0.0438443311, -0.0249973703, -0.0608382225, -0.0426547900, 0.0124290511, 0.0106155276, 0.0554240644, 0.1083464175, -0.1710250080, 0.1110033691, 0.0379008241, -0.0279439799, 0.0682934001, 0.1830113381, 0.0676055476, -0.0605802462, -0.0356631167, 0.0088518318, -0.0035152950, -0.0096918084, 0.0592920333, -0.0275640525, -0.0155383199, -0.0102726743, -0.0098192431, 0.1021459699, -0.0046192491, 0.0518566296, -0.0457771383, 0.0346291475, -0.0247156713, 0.0073872162, -0.0655350909, -0.0749090016, -0.0379487127, 0.1560293287, 0.0210213494, -0.0076622590, 0.0188800208, 0.0643671677, -0.0461319461, -0.0456052646, -0.0049296310, 0.0474202633, -0.0402590670, 0.0237589926, -0.0195565466, 0.0020625044, -0.0213687625, -0.0179166347, -0.0255021080, 0.1043698117, -0.0394571908, 0.0352482572, 0.0113704577, -0.0075613605, 0.0153898308, 0.0115474770, -0.0651109293, -0.0095521677, 0.0376832746, 0.0662711784, -0.0800942481, -0.0148017658, 0.1319069415, 0.0661512241, 0.0219546389, 0.0089471471, -0.0080818078, 0.0127316583, 0.0328009166, 0.0113018239, 0.0914545208, -0.1192708313, -0.1015452668, 0.0343340039, 0.0505241789, 0.0237547141, 0.0570354164, 0.0938411802, -0.0440209731, -0.0622480176, -0.0171355847, -0.0673428848, 0.0976661220, -0.0789321736, 0.0282037556, 0.0186736211, -0.1439626068, -0.0507501028, 0.0341639519, 0.0469459035, 0.0412724651, -0.1188256890, 0.0359006226, 0.0645816028, 0.0622532256, -0.0922440961, -0.0936095715, 0.0815860555, 0.0141407987, -0.0803337917, -0.0335935540, -0.0296691544, -0.0504534766, 0.0669586360, -0.0209290832, 0.1137398481, -0.1407629848, 0.1547541767, 0.0422546044, -0.0185263753, 0.0733545870, 0.1161476076, 0.0648567304, -0.0749360174, -0.0750963315, -0.0181891676, -0.0324723274, -0.0357974172, -0.0143855596, -0.0270319451, 0.0271501858, -0.0315660723, -0.0464627482, 0.0403636321, -0.0007814378, 0.0038022632, -0.0122555392, -0.0161044747, -0.0506154597, -0.0408960581, -0.0085555762, -0.0148168420, -0.0124037173, 0.1462784410, -0.0427783579, 0.0020077014, 0.0015724594, 0.0182543788, -0.0115644243, -0.0427478142, -0.0218389444, -0.0059682787, -0.0542590842, 0.0514099263, 0.0517059900, 0.0481786095, -0.0951889753, -0.0019561972, -0.0584847070, 0.0688585788, -0.0298608802, -0.0030891034, 0.0295628812, -0.0275475718, -0.0437908359, -0.0023041824, 0.0066216453, 0.0058233608, 0.0648916438, 0.0776438490, -0.1067387760, -0.0018243743, 0.1609702855, 0.0353967287, 0.0490259491, 0.0227473322, 0.0369928777, -0.0561669655, 0.0490324348, 0.0054595815, 0.0505146347, -0.1488352269, -0.1346563250, 0.0624615662, 0.0241945088, 0.0379714258, 0.0355397500, -0.0079384185, -0.0441196598, -0.0223888252, -0.0204730071, -0.0544468425, 0.1264609247, -0.0029610824, -0.0306792855, -0.0137680657, -0.1038113013, -0.0712891445, 0.0212532040, 0.1001363993, 0.0068306047, -0.1499386728, 0.0070208963, 0.1108021140, 0.0123129096, -0.0987759456, -0.0353105627, 0.0724468306, -0.0244166031, -0.0624711178, -0.0317063443, -0.0004975027, -0.0100177592, 0.0522668809, 0.0953660235, 0.0758261308, -0.1382108480, 0.1553527564, 0.0506376065, -0.0333219245, 0.0377693810, 0.1456754357, 0.0244174991, -0.0084794778, 0.0079799313, -0.0065802587, 0.0441536196, -0.0275287330, 0.0213962123, -0.0178077929, 0.0146676786, -0.0507806987, -0.0346787721, 0.0406962968, 0.0605414547, 0.0184375476, 0.0318718292, -0.0188546479, -0.0078731962, -0.0784131587, 0.0100748036, -0.0925521255, -0.0570327267, 0.1221077889, -0.0202331543, -0.0275202785, 0.0467553735, 0.0176298600, 0.0118412133, -0.0074042594, -0.0473754443, -0.0526624508, -0.0339772888, -0.0328237265, -0.0094280988, 0.0366106890, -0.0516355298, -0.0556788146, -0.0543749966, -0.0133289527, 0.0410137735, 0.0380924940, 0.0308350604, -0.0413453169, -0.0430553928, -0.0384875536, -0.0249239970, -0.0092346668, 0.0648735911, 0.0252990071, -0.0933431983, -0.0004785715, 0.1449099332, 0.0673407763, -0.0263572931, 0.0355108231, 0.0261533894, -0.0537741147, 0.0474115722, 0.0352868438, 0.0203103013, -0.1532871276, -0.0619175211, 0.0704517886, 0.0121578705, -0.0354484431, -0.0498991348, 0.0802534670, -0.0349963531, 0.0174871814, -0.0444534868, -0.0636687428, 0.0939327776, -0.0043133777, 0.0480292588, -0.0324011482, -0.0973162651, -0.0896489993, 0.0316610299, 0.0394008979, 0.0539839044, -0.1632934958, 0.0273582917, 0.0882039666, -0.0112635372, -0.0880173370, -0.0785939619, 0.1118195876, 0.0425576270, -0.0752191320, -0.0421826914, -0.0598195642, -0.0510487407, 0.0533787943, 0.0479480587, 0.0535657480, -0.1428412348, 0.1309505105, 0.0037335227, -0.0636579916, 0.1345265508, 0.0961564630, 0.0389945060, 0.0014931330, -0.0406028517, -0.0137479687, -0.0296810959, -0.0056355493, 0.0260132980, 0.0146754058, -0.0354311056, 0.0175511427, -0.0680027083, 0.0943215489, -0.0349235386, -0.0316721089, 0.0524788871, -0.0316069536, -0.0239638165, -0.0595693402, -0.0886196345, -0.0571192279, -0.0446154140, 0.1488071531, -0.0071199415, -0.0155752189, -0.0257403646, 0.0308373291, -0.0321486406, -0.0643213764, 0.0005585877, -0.0017742835, -0.0960513353, 0.0295234676, 0.0152968271, 0.0214018319, -0.0577104762, -0.0580848418, -0.0273662191, 0.0649907514, -0.0155186681, 0.0266702492, -0.0150681557, 0.0156810060, 0.0058115344, 0.0089980084, 0.0219409857, 0.0100979162, 0.0151624363, -0.0405071899, -0.1007484049, -0.0620344616, 0.2086241990, -0.0173223037, 0.0404789187, -0.0417455323, -0.0053977929, -0.0014740916, 0.0324980207, 0.0014928915, -0.0191720519, -0.1285884380, -0.0864886492, 0.1257665455, -0.0164580401, 0.0078954808, 0.0347083360, 0.0528162345, -0.0360925086, -0.0104712378, -0.0261578318, -0.0158276912, 0.0728678480, -0.1101607531, 0.0893543884, -0.0293353833, -0.0871485546, -0.0721300989, -0.0224585235, 0.1230884120, 0.0605243891, -0.0917677060, -0.0061281440, 0.0616322346, 0.0255189966, -0.0082330676, -0.0442155749, -0.0068706661, 0.0061390768, -0.0563927069, -0.0583035164, 0.0533563718, -0.0326252840, 0.0677896142, 0.0573860295, 0.1357584149, -0.0935942754, 0.1126266271, 0.0447322577, -0.0657526180, 0.0807851404, 0.0979888886, 0.0040986342, -0.0378922522, 0.0109634874, -0.0205631424, 0.0010404639, -0.0727254599, 0.0295230374, 0.0161416177, 0.0090470463, -0.0121834138, -0.0148422411, 0.0661418363, 0.0447067581, 0.0512827188, 0.0205934793, 0.0184856076, -0.0297504757, -0.0071698423, -0.0989971086, -0.0256102830, -0.0627459288, 0.1700226367, -0.0634920374, -0.0014304263, -0.0421295278, 0.0030393519, -0.0148937264, -0.0545859635, -0.0141421631, 0.0155756194, -0.0389671065, 0.0279053580, 0.0011452987, 0.0614531487, -0.0008996258, 0.0297146440, -0.0040384349, -0.0472493581, -0.0335977972, 0.0232851915, 0.0684528947, -0.0443306491, 0.0171024986, 0.0212177113, -0.0199119039, -0.0125215538, 0.0418976545, -0.0196044054, -0.1213154495, -0.0027110667, 0.1985604465, 0.0797099099, 0.0397879556, -0.0480680764, 0.0140077891, -0.0679708570, -0.0165020954, 0.0523468815, -0.0342673585, -0.0481818579, -0.0584266670, 0.0735084563, 0.0121848052, -0.0387979001, 0.0475498028, 0.0767277256, -0.0854510292, -0.0129468003, -0.1431360245, -0.0933599323, 0.0778772011, -0.0191367641, 0.0473873988, -0.0484589860, -0.0957316831, -0.1379328221, 0.0435876362, 0.0505320430, 0.0856243595, -0.1424404085, 0.0274039563, 0.0874441639, -0.0218631066, 0.0327637009, -0.0433164649, 0.0531724803, 0.0010757903, -0.0415272601, -0.0566238090, -0.0697196275, -0.0638368875, -0.0116695631, 0.0128030460, 0.0717906579, -0.1565982401, 0.0408103094, 0.0009635723, -0.0816516429, 0.1281431019, 0.1230171993, 0.0324144065, -0.0583318733, -0.0173981246, -0.0474236272, 0.0494490825, -0.0067164199, -0.0153478738, 0.0145100076, -0.0606275275, 0.0411426574, -0.0549926721, 0.0425738990, 0.0196947604, 0.0120203737, 0.0419097953, 0.0128400763, 0.0297548454, -0.0165377706, -0.0609583557, -0.0532106124, 0.0170152206, 0.1758112609, -0.0467374511, -0.0085419565, 0.0083281556, 0.0717998222, 0.0099687409, -0.0276925676, 0.0235347748, -0.0510139577, -0.0039989655, 0.0359591842, -0.0058711069, 0.0818574876, 0.0002532943, 0.0236478094, -0.0242910255, -0.0110455360, 0.0322978422, 0.0080745062, 0.0425823927, 0.0093956748, -0.0057942038, -0.0923491120, -0.0003365122, -0.0414956361, 0.0184551384, 0.0587934814, -0.0895005837, -0.0738975480, 0.1780535877, 0.0271829981, 0.0160999186, 0.0126387123, 0.0378881507, -0.0154635180, 0.0382640250, 0.0136952121, 0.1794353873, -0.1254404634, -0.1726186723, 0.0634870008, 0.0117595363, -0.0038040804, -0.0310929120, 0.0217185356, -0.0776168481, -0.0575900488, -0.0973383561, -0.0077720666, 0.1609109789, -0.1102162376, -0.0465754382, -0.0867363140, -0.1268281639, -0.1307737082, 0.0569429658, 0.0608043633, 0.0455086976, -0.1044352129, -0.0072382009, 0.0640832111, -0.0621719807, -0.0165095944, -0.1325362772, 0.1246933118, -0.0331632011, -0.0774146616, -0.0366157964, 0.0281401277, -0.0490957201, 0.0711109191, -0.0172254201, 0.1499808729, -0.2086592019, 0.0285813697, 0.0702045560, -0.0512159988, 0.1717531830, -0.0048673628, 0.0055710669, -0.0368887037, 0.0630871952, -0.0727087557, 0.0171481855, -0.0156994611, -0.0001203446, 0.0674621984, 0.0380468778, -0.0570935458, -0.0254180040, 0.0565721877, 0.0047144042, 0.0430525206, 0.0244944617, -0.0104592070, -0.0009794479, 0.0187404081, -0.0671295747, -0.0064529032, -0.0845115036, 0.1428351700, 0.0175004024, 0.0449068770, 0.0363939665, 0.0022088003, 0.0460611507, -0.0520138182, -0.0653062835, -0.0162317138, -0.0723177120, 0.0854761600, -0.0064360518, 0.0274461638, -0.0493659712, -0.0057279598, 0.0176957585, 0.0267235767, 0.0068450812, 0.0016714627, -0.0027221735, 0.0357383154, -0.0134205204, -0.0015628726, -0.0580080897, -0.0601857528, 0.0899764374, 0.0645741373, -0.2019287348, 0.0367984287, 0.1480316073, 0.1031542942, 0.0055339262, -0.0160030518, -0.0192065239, -0.0630481467, 0.0061540436, 0.0117337471, 0.0756492764, -0.1795757115, -0.1729150563, 0.0920502022, 0.0174349826, -0.0002038976, -0.0337602049, 0.0726708695, 0.0011706651, 0.0116933426, -0.0659318864, -0.0341138020, 0.0806872845, -0.0718172342, 0.0102714188, -0.0696717426, -0.1434475183, -0.0917962044, -0.0157617517, 0.0937603638, 0.0370597951, -0.1473882943, 0.0108273840, 0.1430582553, -0.0103073344, -0.0128713017, -0.0773792341, 0.1013359651, -0.0490338877, -0.0357434005, -0.0123682162, 0.0244817082, -0.0828047693, 0.0763367116, -0.0028445262, 0.0823338628, -0.1578966379, 0.1577305496, 0.0082159573, -0.0323620923, 0.1221127361, 0.0481073484, -0.0155662913, -0.0266018081, -0.0294700041, -0.0607293434, 0.0119000133, -0.0378523804, 0.0434328765, 0.0185310841, 0.0385362916, 0.0458078273, -0.0201897100, 0.0683383048, 0.0870197192, 0.0141939353, -0.0384703986, 0.0279857107, -0.0448915921, -0.0460872352, -0.0776327848, -0.0640322417, -0.0373785757, 0.0707895011, 0.0438380465, -0.0119559383, -0.0087924683, 0.0149121452, 0.0223090686, -0.0877106860, 0.0180355031, -0.0308591444, -0.0186336283, 0.0574326627, -0.0073304381, 0.0620738789, -0.0142962486, 0.0176566225, -0.0278143678, 0.0018439365, 0.0262440499, 0.0450411811, -0.0176914576, -0.0601835363, -0.0245038308, -0.0456599668, -0.0133631863, 0.0101593779, 0.0265270937, 0.0820729360, -0.1456566006, -0.0052816160, 0.1988898069, 0.0838618279, 0.0148443310, -0.0357489437, 0.0032037725, -0.0496837161, 0.0587618500, 0.0376020372, 0.1032953337, -0.1431440860, -0.1397412270, 0.0503305048, 0.0015384089, 0.0070123607, -0.0356588028, 0.0039469679, -0.0280946139, -0.0166373365, -0.0649700612, -0.0698574483, 0.0661721602, 0.0300588831, -0.0232048165, -0.0915216804, -0.1240335032, -0.0269493442, 0.0372495465, 0.0513568297, 0.0679608732, -0.1065613627, 0.0351657495, 0.0628361702, -0.0116878459, -0.0694969296, -0.0396395847, 0.1071455255, 0.0229245462, -0.0834712386, -0.0252657291, 0.0601091422, -0.0430701226, 0.0007680816, 0.0016077611, 0.0815567076, -0.1577188522, 0.1350219697, -0.0030012946, -0.0727690831, 0.0646756887, 0.0918631032, -0.0438814014, -0.0010681606, -0.0222872458, -0.0366333276, 0.0320061706, -0.0680635199, -0.0372230932, -0.0010965382, 0.0493411981, -0.0153929312, -0.0328401290, 0.0514399745, 0.0310678184, -0.0205889139, 0.0035682006, 0.0050681494, -0.0008150712, -0.0690172836, -0.1150884181, -0.0725355074, 0.0278520733, 0.1165923625, 0.0243636407, -0.0049795727, -0.0126022147, 0.0264883749, 0.0418889336, -0.0397015996, 0.0001637508, -0.0040683961, -0.0211503860, 0.0658036768, 0.0774719268, -0.0240233392, -0.0126336832, -0.0114767626, 0.0210965667, 0.0427759551, -0.0432164408, -0.0316808522, 0.0505467951, -0.0284916107, 0.0024319654, 0.0142279053, 0.0082300650, -0.0274306238, -0.0552508980, 0.0727440417, -0.0997392908, 0.0359284878, 0.0887878910, 0.0323052555, -0.0169491246, -0.0022011227, 0.0318557359, -0.0179589428, -0.0119781308, -0.0167976990, 0.1253800243, -0.1164364070, -0.1125060990, 0.0662531480, -0.0011938767, 0.0367077328, 0.0175844952, 0.0190945640, 0.0133310379, 0.0095781321, -0.0371031128, -0.0870238841, 0.0862768292, 0.0290271025, -0.0681832060, -0.0229465701, -0.1753074229, -0.0315051638, 0.0744174793, 0.0176919792, 0.0310736652, -0.1070763990, 0.0006165676, 0.0458628647, -0.0442378968, -0.0505299531, -0.0776276439, 0.0704715401, -0.0181149431, -0.0714725405, 0.0027585644, 0.0008688067, -0.0024094218, -0.0121215889, 0.0732247904, 0.1007340848, -0.1788299084, 0.1364097595, -0.0135641955, -0.1004730985, 0.0465627499, 0.1303632408, 0.0380284823, -0.0159627404, -0.0235129688, -0.0370913707, 0.0427135304, -0.0357362516, -0.0269290470, 0.0529701710, 0.0251009390, -0.0035434260, -0.0142385727, -0.0036850139, 0.0335959382, -0.0415568389, 0.0426313579, -0.0135604898, -0.0370584205, 0.0375710838, -0.0599010028, -0.0174125452, -0.0136879748, 0.0463968925, -0.0011462901, 0.0527058281, -0.0637861341, 0.0439890251, 0.0004779725, -0.0821029618, -0.0535790771, -0.0090592196, -0.0043456000, 0.0880949050, -0.0139644789, 0.0389991552, -0.0859518200, 0.0264863279, 0.0042146747, 0.0205043070, 0.0567534864, -0.0190303549, 0.0048880428, -0.0057351221, -0.0525690131, -0.0246366896, -0.0096297674, -0.0072295298, 0.0173143297, 0.0610521287, -0.0862163007, 0.0288893301, 0.1002026275, 0.0672900602, 0.0048361127, -0.0107045770, -0.0055601471, -0.0208505988, 0.0493590906, 0.0553837456, 0.0626368970, -0.1335185468, -0.1293974519, 0.1205460429, -0.0461306758, -0.0587488860, -0.0109490287, 0.0467344373, 0.0192461982, -0.0107928058, -0.0696589723, -0.1225784570, 0.1527135670, 0.0013407645, -0.0446454585, 0.0248519890, -0.1555913985, -0.0880487263, 0.0093805389, 0.0228979625, 0.0056639439, -0.1191388592, 0.0485588089, 0.1062190831, -0.0429491140, -0.0644354969, -0.0635957941, 0.0367736295, -0.0273196548, -0.0285197739, 0.0148250256, 0.0099233231, 0.0028762470, 0.0585462973, 0.0249356162, 0.1219256371, -0.1235873327, 0.0983203426, -0.0112162521, 0.0012336081, 0.0448052697, 0.1675324440, 0.0952556208, -0.0313666984, -0.0106124533, 0.0129145943, -0.0062876614, 0.0386146642, -0.0445915647, 0.0432273783, 0.0195242576, 0.0368022621, -0.0848030671, 0.0447843038, 0.0367653444, -0.0645617694, 0.0811991468, 0.0142250378, -0.0538727157, 0.0124064926, -0.0475629121, 0.0095574940, -0.0646958575, 0.0662429333, 0.0091059040, 0.0195618216, -0.0354739800, -0.0083345072, 0.0296520386, -0.0889953300, 0.0352658294, -0.0161170177, -0.0245127603, 0.0209737364, 0.0242567658, 0.0525326915, 0.0011687182, -0.0152547359, -0.0638567880, 0.0544589460, -0.0075587900, -0.0329722688, -0.0017947445, -0.0417356566, -0.0102775581, 0.0220271461, 0.0184364524, -0.0521342643, 0.0764648840, -0.0114446478, -0.1204279363, -0.0451300554, 0.1954431683, 0.0000555937, -0.0539058521, -0.0156339779, 0.0004166490, 0.0054852651, 0.0681151152, -0.0182398073, 0.0648873821, -0.1249250546, -0.1377501488, 0.1165657341, 0.0472403541, 0.0853478163, -0.0683820024, -0.0173749030, -0.0424410403, -0.0394018814, -0.0467020497, -0.0865528882, 0.0834564492, 0.0335720628, -0.0520443916, 0.0556500405, -0.2031758130, -0.0849725008, 0.0151880030, 0.0672219098, 0.0588813312, -0.1746954024, 0.0267696138, 0.0899758860, -0.0514206886, -0.0546830632, -0.0816162601, 0.0809244066, 0.0601338409, -0.0366190039, 0.0244649220, -0.0638943315, 0.0096265273, 0.0493936017, -0.0018263011, 0.0107260644, -0.1556585878, 0.1799252778, -0.0167981200, -0.0192199647, 0.1161870137, 0.1181525961, 0.0271412712, -0.0388978943, -0.0212375689, -0.0191966034, 0.0159344673, -0.0440219566, 0.0391447209, 0.0035230997, -0.0803109035, 0.0142612569, -0.0145898536, 0.0677993596, 0.0093319286, 0.0339478180, 0.0047373530, 0.0592040867, 0.0177728776, -0.0697542056, -0.0564743467, -0.0082260035, -0.0407308899, 0.0734149963, 0.0037729682, 0.0243591201, 0.0155853881, -0.0057945061, 0.0283030570, -0.0252826549, -0.0270694941, -0.0110042468, -0.0511793830, 0.0237427019, 0.0760908648, -0.0030260785, -0.0303443111, 0.0546221212, -0.0814795122, 0.0492216535, -0.0020636080, -0.0347488746, 0.0057237432, -0.0317978412, -0.0323193073, -0.0431970097, 0.0083385557, 0.0300601460, 0.0547558628, 0.0331661850, -0.1960465759, 0.0446787439, 0.1695562005, 0.0272354353, 0.0076035699, -0.0085568354, 0.0263656899, 0.0291195288, 0.0282759499, 0.0165846646, 0.0638823062, -0.1520772725, -0.0839148685, 0.0849406049, 0.0147393290, 0.0690135583, -0.0426557511, 0.0339466892, -0.0758086294, -0.0378261060, 0.0043019382, -0.1512588859, 0.1227396429, 0.0153501965, -0.0306393709, 0.0013629841, -0.1385819614, -0.1534121037, 0.0226507224, 0.0680123046, -0.0023708940, -0.0887089595, 0.0775922686, 0.0785085782, 0.0198728368, -0.0712407231, -0.1116991118, 0.0793591142, 0.0548015758, -0.0351289697, 0.0144072911, 0.0270415917, 0.0291163549, -0.0227360819, -0.0103000225, 0.0163378753, -0.1441634297, 0.1352905184, 0.0427547880, -0.0325959399, 0.1442182958, 0.0909653455, 0.0243992656, -0.0327390917, -0.0238390453, 0.0318231173, 0.0198744088, -0.0718472749, 0.0049024136, 0.0056886710, -0.0149631687, 0.0332830362, -0.0558816902, 0.0883805230, 0.0187993497, -0.0105027435, 0.0085354019, 0.0418273769, -0.0381510742, 0.0340256095, -0.0165005755, -0.0494732447, -0.0296376534, 0.1307306737, 0.0205317531, 0.0441004820, -0.0151577201, -0.0002023406, -0.0033419647, -0.0665301904, 0.0267444551, -0.0227114297, -0.0919429660, 0.0653032735, 0.0187493786, 0.0673431754, -0.0410165973, -0.0400074199, -0.0634803697, 0.0101048257, 0.0190126281, 0.0232437514, 0.0712672696, 0.0004981664, 0.0133906649, -0.0175824370, -0.0726823360, 0.0217403285, 0.0490696356, 0.0082576973, -0.1653808355, -0.0180531330, 0.1983514279, 0.0991723761, 0.0189072955, -0.0055081751, -0.0132671567, -0.0316406488, 0.0201783087, 0.0240221098, 0.0800017416, -0.1091354787, -0.1616826057, 0.0880589336, 0.0132368254, 0.0198335703, -0.0230764095, 0.0426100045, 0.0191948153, 0.0005606274, -0.0439817868, -0.1436698139, 0.1263495088, -0.0022943069, -0.0859986469, 0.0062559047, -0.1666972041, -0.1250818074, 0.0448717065, 0.0582115427, -0.0186776202, -0.0633482337, 0.0649465099, 0.1122384146, -0.0351529904, -0.0271912254, -0.0037786770, 0.1435528547, 0.0409674421, -0.1019321308, 0.0253661517, -0.0396601371, -0.0606977940, 0.0383188836, 0.0482110642, 0.0787654370, -0.0982687920, 0.1774940342, -0.0165126342, -0.0882847607, 0.0748150796, 0.1099543348, 0.0639577433, -0.0555858202, -0.0341256149, -0.0072083808, 0.0005918285, -0.0160059948, 0.0230917167, 0.0285366010, 0.0174973365, 0.0545914769, -0.0679688007, 0.0549314432, -0.0057158540, 0.0009802108, 0.0438429266, 0.0734662190, -0.0201990902, -0.0123760635, -0.1017992422, -0.0829866305, 0.0042089685, 0.0656155124, 0.0263040029, -0.0034608722, -0.0053807586, 0.0023415834, 0.0591982938, -0.1149428338, -0.0526116602, 0.0237831082, -0.0037652941, 0.0234458894, 0.0002655751, 0.0281639863, -0.0431118309, -0.0082695885, -0.0045786030, 0.0982979611, 0.0263867583, -0.0585375465, -0.0093480330, 0.0110051725, -0.0276016034, -0.0165197644, -0.0692229196, 0.0024157374, -0.0233058259, 0.0006064960, -0.0950915441, -0.0352965072, 0.2390240133, 0.0523579754, -0.0471823588, -0.0218782220, -0.0208130628, -0.0522262268, 0.0279972870, 0.0550892204, 0.0614637882, -0.0616606846, -0.1537172645, 0.1167667806, 0.0607294291, 0.0576464124, 0.0375882685, 0.0655979589, -0.0583323911, -0.0208393987, -0.0419525877, -0.0231335275, 0.0630843267, -0.0529088713, 0.0539896712, -0.0493659452, -0.1095386446, -0.0900675952, -0.0223458707, 0.0711476356, 0.0488361083, -0.1392692477, 0.0363024101, 0.0303537119, -0.0127335284, -0.0856287554, -0.0409838818, 0.0528422594, 0.0367579311, -0.0853705928, 0.0192463752, -0.0442790277, -0.0301195122, 0.0337898210, 0.0050119245, 0.0661687553, -0.1445591599, 0.1969352365, 0.0820071623, -0.0588852987, 0.1206391454, 0.1346636117, -0.0072719776, -0.0373855345, -0.0316665545, -0.0466295071, 0.0577389002, -0.0144598382, 0.0168392863, 0.0330470353, -0.0425176360, 0.0142018935, -0.0382512994, 0.0233581904, 0.0824174806, 0.0281525087, 0.0264744330, 0.0503517911, -0.0533464067, 0.0038765166, -0.0761264935, -0.0020127189, 0.0187494550, 0.0917182714, 0.0609461516, -0.0195267051, 0.0569524169, -0.0290303137, -0.0322131887, 0.0005242273, -0.0090970229, 0.0234747063, 0.0070917653, 0.0277005360, 0.0191523600, 0.0445523933, -0.0325848758, -0.0429516323, 0.0305000227, -0.0260278042, 0.0248913802, -0.0168390889, 0.0349415503, 0.0048917676, 0.0288775843, 0.0011693806, 0.0407124907, 0.0036650891, 0.0331738107, -0.0200648885, -0.1785597205, -0.0862710252, 0.1941857338, 0.0827986076, -0.0331391767, -0.0172270648, -0.0464435630, -0.0397792310, 0.0208697654, 0.0632824376, 0.1077028885, -0.1511672884, -0.1065524071, 0.0582096986, -0.0288260356, 0.0272318441, -0.0446324050, 0.0340390727, 0.0056155440, -0.0696533397, -0.0868668556, -0.0706066117, 0.0444733128, -0.0294040218, -0.0079530021, -0.0994849950, -0.1114571914, -0.0762264505, 0.0133023299, 0.0675040483, 0.0191973858, -0.1243758202, -0.0241278559, 0.0898971483, 0.0469982512, -0.0213420652, -0.0193994064, 0.1249563098, 0.0362987779, 0.0240330435, 0.0225782469, -0.0280775465, -0.0369625315, 0.0805730075, -0.0247959513, 0.0170301404, -0.1235355884, 0.1069441363, -0.0035726160, -0.0907978266, 0.0772288293, 0.1195218414, -0.0031519176, -0.0286277812, 0.0074342908, -0.0203212686, 0.0325102769, -0.0412496775, -0.0432017706, 0.0903963372, -0.0606251769, 0.0527557060, -0.0287133511, 0.0516421646, -0.0080275452, 0.0167483464, 0.0245545059, 0.0813658014, -0.0663758144, 0.0248268545, -0.0750513375, -0.0944815502, 0.0320114307, 0.0690441132, -0.0421986952, -0.0073261773, 0.0163069386, 0.0148608955, -0.0270018019, -0.0065720449, -0.0572067946, 0.0272181109, 0.0448897071, 0.0561480224, 0.0646077096, -0.0177427102, -0.0204096083, 0.0252135620, -0.0498955101, 0.0162089448, -0.0152478013, -0.0274538808, -0.0118519990, -0.0032662931, -0.0532319061, -0.0390068069, 0.0455000661, -0.0324040763, -0.0275059510, 0.0562510267, -0.1202109009, -0.0790813640, 0.2328369915, 0.0778301135, 0.0190894883, -0.0748265311, 0.0600816272, -0.0197322909, -0.0077327839, 0.0402791649, 0.0777186602, -0.1305883676, -0.1933718473, 0.1101998016, 0.0168196000, 0.0049607116, 0.0462176017, 0.0247682892, -0.0205463842, -0.0737515837, -0.1443135291, -0.0066795964, 0.1345264167, 0.0138097508, 0.0281866752, -0.0496564135, -0.1247507855, -0.0734224319, -0.0100654196, 0.0251956508, 0.1235225201, -0.1240766570, -0.0093354518, 0.0544138923, -0.0145273637, 0.0271277260, -0.0601650849, -0.0030585881, -0.0283356812, -0.0159661714, 0.0568444952, 0.0315504037, -0.0391252153, 0.0300887302, -0.0158965848, 0.1457392424, -0.1430018097, 0.0947987884, 0.0315869972, -0.0436383374, 0.2167999148, 0.0892383754, 0.0783401653, -0.0175049286, 0.0364759043, -0.0121645341, -0.0118488800, -0.0345849246, -0.0145639852, 0.0751968771, -0.0182740074, 0.0072741704, -0.0109134959, 0.0876819119, 0.0427859612, 0.0002067957, -0.0282369871, 0.0292084124, -0.0655795783, 0.0035719005, -0.1076805294, -0.0430697799, -0.0657977238, 0.0531674735, -0.0002382095, 0.0365383253, 0.0134254722, 0.0083114430, -0.0416315123, 0.0035395480, 0.0124962274, 0.0630308166, 0.0264475364, 0.0260403492, -0.0130241476, 0.0188219585, -0.0569304824, 0.0509020276, -0.0124641145, -0.0759946778, 0.0143457307, -0.0380547531, -0.0199328307, -0.0335575119, -0.0584871583, 0.0059172716, 0.0158150271, 0.0272623412, 0.0594636537, 0.0105351461, -0.2376027852, 0.0227174610, 0.1809058040, 0.0359719619, -0.0094256476, -0.0495911613, -0.0161338504, -0.0299845915, 0.0035294911, -0.0341473706, 0.0690605715, -0.1402965486, -0.1082102582, 0.0662588626, 0.0183668975, 0.0323168337, -0.0693342090, 0.1035206392, -0.0164874196, -0.0105282003, -0.1423503458, 0.0729710683, 0.0762824044, -0.0756380633, 0.0534371808, -0.0807938203, -0.1765582263, -0.0781105459, 0.0451886617, 0.0298133511, 0.1230111271, -0.1302153915, -0.0123877358, 0.0501598269, -0.0497799069, -0.0391027778, -0.0403745659, 0.0975924134, -0.0324777737, -0.0613030083, -0.0165142696, -0.0105792144, 0.0018679998, 0.0648500547, 0.0572596304, 0.0414543487, -0.1380136311, 0.0717235953, 0.0416224375, -0.1197546646, 0.2193867713, 0.0381982401, 0.0027396258, -0.0681442916, 0.0061292029, -0.0739664808, -0.0134643940, -0.0061546923, 0.0356558785, 0.0008230102, -0.0051905075, 0.0376097038, -0.0680387765, 0.0580787696, 0.0264567621, -0.0169560928, 0.0167801101, 0.0007726275, -0.0120471921, -0.0340523943, -0.0491111726, 0.0129683129, -0.0308552496, 0.0868835598, -0.0608574860, 0.0465892442, -0.0463773161, 0.0539835915, 0.0484565981, -0.0439014956, -0.0009211609, 0.0233286191, -0.0155268051, 0.0206136387, 0.0370316803, -0.0018307081, 0.0063461210, -0.0322765373, 0.0044797743, 0.0094587933, 0.0532523617, 0.0319703631, 0.0629953742, 0.0089331856, -0.0627578199, -0.0327086896, -0.0232543834, 0.0206586756, 0.0496030226, -0.0262748413, -0.1676992476, -0.0452942774, 0.1603002101, 0.1226058528, -0.0200170614, -0.0415455513, 0.0058152089, -0.0153805558, 0.0026745978, -0.0043915636, 0.1189987436, -0.1208051145, -0.1793127507, 0.0113444990, 0.0513960682, 0.0550984666, -0.0411605090, 0.0393544510, -0.0143401977, -0.0597368851, -0.1162155643, 0.0034091338, 0.1181845143, -0.0036700373, 0.0104540307, -0.0802806467, -0.1233495176, -0.0809965655, 0.0134463329, 0.0581006184, 0.0507221036, -0.0602074973, 0.0430422351, 0.0929846689, -0.0086784586, -0.0285863783, -0.0107885720, 0.1587046981, 0.0233324282, -0.0702662840, 0.0283673778, -0.0460185260, -0.0634189025, -0.0081652431, -0.0085791275, 0.0741856173, -0.1673895121, 0.1434451044, 0.0480861366, -0.0617050342, 0.0722431839, 0.0384198353, 0.0268545039, -0.0312759504, -0.0404461734, -0.0026604093, 0.0298520923, -0.0658821166, 0.0068414956, 0.0355490297, -0.0353595503, 0.0154239321, -0.0102574965, 0.0436383076, 0.0690530613, -0.0028979899, 0.0223596524, 0.0466672741, -0.0600343719, -0.0428648628, -0.0682443678, -0.0090179304, 0.0058880923, 0.0376539305, 0.0221463796, 0.0532844327, 0.0597513877, 0.0011195996, 0.0264964513, -0.0579839945, -0.0140857110, -0.0472477563, -0.0608677939, 0.0083003575, 0.0336556286, 0.0055509880, -0.0804982558, -0.0034868687, 0.0274119023, -0.0210470185, -0.0329783261, -0.0267858077, 0.0666399002, -0.0174414124, -0.0221202150, -0.0532980114, 0.0220304634, -0.0140929846, 0.0239987597, 0.0444367751, -0.1470070779, -0.0094522685, 0.1967603564, -0.0161845069, 0.0128823947, 0.0237616934, 0.0216425173, -0.0364324674, 0.0045273611, 0.0759192258, 0.0550145507, -0.1230398342, -0.0830798000, 0.1149833947, 0.0488765649, 0.0488259085, 0.0162129588, 0.0672277510, -0.0040148515, -0.0115520218, -0.1050948650, -0.1153906882, 0.1341010481, 0.0135854129, -0.0961179286, -0.0426383242, -0.1754633039, -0.0795948952, -0.0255836565, 0.0918503702, -0.0171886720, -0.1376006454, 0.0162372738, 0.0793090686, -0.0546714738, -0.0000217163, -0.0303578228, 0.0991859660, 0.0457779206, -0.0962007642, -0.0823459551, 0.0349922888, -0.0548391566, -0.0094032651, 0.0242116544, -0.0068012471, -0.1458111554, 0.1378828287, 0.0500158556, -0.0481864922, 0.1134476811, 0.0691546649, -0.0049031680, -0.0430051237, 0.0025242902, 0.0076674470, 0.0031659149, -0.0425042361, 0.0239152983, 0.0618369468, -0.0464194119, 0.0476134270, -0.0449827425, -0.0081421500, -0.0103241019, 0.0005921234, -0.0111431712, 0.0108634392, 0.0114726452, -0.0846054628, -0.0344419330, -0.0032951105, 0.0363514014, 0.0471642725, 0.0526372679, -0.0325867608, 0.0365560018, 0.0579309128, -0.0071427012, -0.1002715901, -0.0005313800, -0.0186725520, -0.0144127952, 0.0726642758, -0.0155123621, 0.0686927736, -0.0924027637, 0.0307913832, -0.0003560396, -0.0186347030, 0.0333578028, 0.0222327728, 0.0433542505, 0.0108838445, -0.0445149653, -0.0479244180, 0.0678486601, -0.0144467885, 0.0568736717, 0.0596875772, -0.2109362483, 0.0611887574, 0.1492200941, 0.0413378254, -0.0002724850, -0.0179718770, 0.0221186038, 0.0087133972, 0.0268739890, 0.0050895666, 0.1336517334, -0.1566704512, -0.1458546817, 0.0913875997, 0.0144288633, 0.0406243838, 0.0552289486, -0.0220161695, -0.0485248379, 0.0278425459, -0.0052242978, -0.0835158005, 0.1225907952, 0.0208177976, 0.0028614081, -0.0067278231, -0.1998203546, -0.1013819128, 0.0178210661, 0.0944877863, 0.0266559497, -0.0587454513, -0.0039268681, 0.0804737732, -0.0093934620, -0.0536676683, -0.1056846827, 0.1072058082, 0.0716509521, -0.1316088140, 0.0264238082, 0.0257031042, -0.0245646425, 0.0388456136, 0.0091032311, 0.0584462434, -0.1467414647, 0.1731399298, 0.0304844417, -0.0512767956, 0.0899179950, 0.1418688297, 0.0218433663, 0.0077844416, -0.0142059680, 0.0032772375, 0.0157970283, -0.0097944168, -0.0027978877, -0.0232181158, -0.0063225743, -0.0011728491, -0.0325934216, 0.0635314211, 0.0077012372, -0.0087404922, 0.0096658552, -0.0065016993, 0.0083519546, 0.0065086135, -0.0094094379, -0.1047484577, 0.0017187386, 0.0240811966, 0.0274047852, 0.0096171321, -0.0299204458, 0.0318348482, 0.0191422328, -0.0840516835, 0.0039914050, -0.0077862893, -0.0051360005, 0.0366899371, 0.0584598966, 0.0154330768, -0.0523666665, -0.0218135007, 0.0382677428, -0.0208714958, -0.0063837315, 0.0212784186, 0.0110116098, 0.0398937166, -0.0176698919, -0.0716896206, 0.0517098717, -0.0930001438, -0.0453027673, 0.0186753962, -0.1622240394, 0.0628346726, 0.1543926299, 0.0050520534, 0.0004989181, -0.0493425392, 0.0268921480, -0.0379069224, 0.0667468235, 0.0304062627, 0.0278435927, -0.0862223580, -0.1320697665, 0.0741537586, -0.0095851002, 0.0432376154, 0.0313114524, 0.0428844839, 0.0336608589, -0.1019793004, -0.0592817143, -0.1369661242, 0.1061050817, 0.0930751935, -0.0632875115, -0.0710121542, -0.1962024420, -0.1062957719, 0.0283524618, 0.1250360757, 0.0780339539, -0.1082924455, 0.0161780324, 0.0840508789, -0.0448083468, -0.0527167246, -0.0579201430, 0.1056824178, -0.0009642607, -0.0732077137, -0.0074766013, 0.0419869497, -0.0401940905, -0.0115356473, 0.0027040064, 0.0243294220, -0.1628175378, 0.1522913724, 0.0160551928, -0.0256787073, 0.0988990217, 0.1024576426, 0.0183590576, 0.0101027954, 0.0057060658, -0.0014398588, 0.0290783476, -0.0746301562, 0.0248492155, -0.0224132091, 0.0244001821, -0.0025962801, -0.0267175026, 0.0344347954, 0.0519658551, 0.0497700386, 0.0191189740, -0.0046434137, -0.0337605402, -0.0059850523, -0.1117666215, 0.0181918163, -0.0092608938, 0.0363601930, 0.0166866109, -0.0334754065, 0.0465380624, 0.0550347157, -0.0220253170, -0.1085282713, 0.0342074186, -0.0493879020, -0.0903822854, 0.0024697175, -0.0295927413, 0.0444207266, -0.0422600321, 0.0023469522, -0.0368678905, 0.0219251812, -0.0173740834, -0.0272959173, 0.0326590240, -0.0106571987, 0.0002737219, -0.0122340117, -0.0470577255, -0.0292673223, 0.0705715716, -0.0341692083, -0.0908557847, 0.0170343053, 0.1680424213, 0.0476167202, 0.0070747607, 0.0136291720, 0.0160742830, -0.0500985309, 0.0835204124, 0.0471510626, 0.0620546304, -0.1711177528, -0.1120127290, 0.1304268390, 0.0675372630, -0.0339286178, -0.0351634249, 0.0567743108, -0.0212476887, 0.0060020089, -0.1624990851, -0.1187474579, 0.1711344868, -0.0198183339, -0.0003497373, 0.0032117262, -0.1754690558, -0.1314869225, 0.0529181510, 0.0564377010, 0.0945719853, -0.1310243011, -0.0131146163, 0.0731545463, -0.0541753545, -0.0207501575, -0.0322203301, 0.1081613302, 0.0288870148, -0.0233403780, 0.0064103254, 0.0380515493, -0.0207231939, -0.0101557057, 0.0219741557, 0.0565365218, -0.1327031553, 0.1769064963, 0.0318422392, -0.0872880071, 0.1456053704, 0.0961885899, 0.0455978028, -0.0639968365, -0.0113092568, 0.0408942439, -0.0091320528, -0.0059664678, 0.0011056933, 0.0181867462, 0.0143549927, 0.0036867319, -0.0885605216, 0.0204184074, 0.0068183672, 0.0244603753, -0.0129206376, -0.0009084270, 0.0011576740, -0.0605925471, -0.0499569662, -0.0921371281, -0.0406783782, 0.0961350203, -0.0287412032, 0.0320521183, 0.0526917353, 0.0626855716, 0.0125578241, -0.0874547511, -0.0243760701, 0.0118556749, 0.0138192996, 0.0453662649, 0.0805723146, 0.0232398938, -0.1159085482, 0.0050444212, -0.0307466779, 0.0617326424, -0.0214399360, 0.0020746188, 0.0229494963, -0.0545410328, 0.0131234536, -0.0402221456, 0.0005041178, -0.0172438901, 0.0605275519, 0.0599459708, -0.1453009993, 0.0077372626, 0.1103127524, 0.0058747577, -0.0465538651, -0.0036447502, 0.0095859952, -0.0298194699, 0.0446726196, 0.0238315277, 0.0447316021, -0.1355927885, -0.0801203400, 0.0965195224, 0.0072294828, -0.0010555265, 0.0289564189, 0.0725195333, -0.0520021953, -0.0467689484, -0.0961349383, -0.0871710330, 0.1334174871, -0.0878812224, 0.0438160934, -0.0654188991, -0.1728259474, -0.0893627852, 0.0741454586, 0.0518147461, 0.0329861194, -0.0728142485, 0.0141350105, 0.0526976362, 0.0512491986, -0.0976011828, -0.0835469216, 0.1755734235, -0.0135974213, -0.0093717827, 0.0280837603, -0.0479065217, 0.0092679085, 0.0534371547, 0.0394783132, 0.0286842622, -0.0981290713, 0.1540182382, 0.0154541386, -0.0021209223, 0.0602087080, 0.1486410350, -0.0112554301, -0.0516628996, -0.0812956318, -0.0028632483, -0.0150471563, -0.0234739371, 0.0332683101, 0.0390381776, -0.0199821722, 0.0370764211, 0.0024961762, 0.0690449402, -0.0230056774, -0.0178758278, 0.0029490588, 0.0239818208, 0.0047477279, -0.0306663793, -0.0055968608, -0.0240230486, -0.0461585782, 0.0719870031, 0.0051845219, -0.0034770893, 0.0279549118, 0.0230027456, 0.0141337691, -0.0308585614, -0.0223368667, 0.0155438483, -0.0885303989, 0.0020369638, 0.0049317204, 0.0137181478, -0.1233460829, 0.0134860044, 0.0119881313, 0.0440948866, 0.0102873780, 0.0219408851, 0.0002998221, -0.0268055890, -0.0215672012, 0.0183966663, -0.0356571339, 0.0082759811, 0.0352894031, -0.0121672684, -0.1474487185, 0.0365518220, 0.1513324231, 0.0633797422, 0.0026855962, -0.0385490209, -0.0173659157, -0.0249907356, 0.0175663792, -0.0127350045, 0.0963421911, -0.2006587088, -0.1292442083, 0.0174839702, 0.0524240583, 0.0324816443, 0.0586146265, 0.0606927052, -0.0625771806, -0.0327090397, -0.0257311352, -0.0608985163, 0.1322047114, 0.0016043595, -0.0558845289, -0.0608632341, -0.2215074003, -0.0762465149, 0.0501358882, 0.0846843719, 0.0434028469, -0.1179696023, -0.0304705482, 0.0507306196, -0.0002469805, -0.0352208428, -0.1140687764, 0.1491417289, 0.0624588169, -0.0768595561, 0.0370103084, 0.0056814174, -0.0277780313, 0.0367266685, 0.0426661409, 0.0002299826, -0.1479860246, 0.1299463809, 0.0483778045, -0.0902548134, 0.0696906298, 0.1423572749, 0.0456877984, -0.0672620162, -0.0358489007, -0.0372393280, -0.0167631377, 0.0137342298, 0.0078026587, 0.0229977891, -0.0666158125, -0.0367847383, -0.0162692163, 0.0098700775, -0.0163587742, -0.0193372946, -0.0202114899, -0.0106103085, -0.0017842614, -0.0536263660, -0.0494884141, -0.0339639857, -0.0266310554, 0.0373060517, 0.0296729039, 0.0703973174, -0.0084628658, 0.0133387195, 0.0281283166, -0.1479451805, 0.0149254343, -0.0678076446, -0.0463972129, 0.0050761811, 0.0629582554, 0.0238674376, -0.1070969105, 0.0540091023, -0.0156128537, -0.0247144774, 0.0122357523, -0.0203840341, 0.0467148684, -0.0493786223, -0.0398057736, 0.0134488530, 0.0654709935, -0.0596558452, 0.0146343270, 0.0880116820, -0.1932159513, 0.0142885307, 0.2492942363, 0.0233678650, -0.0046023182, -0.0197400600, -0.0572180934, 0.0054808133, -0.0047379546, 0.0409767032, 0.1167112067, -0.2381551266, -0.0602145158, 0.0753449276, 0.0709091052, -0.0325207897, -0.0380438976, 0.0911869928, -0.0641476586, -0.0751849413, -0.0836515874, -0.0318726264, 0.1077961251, -0.0381277464, 0.0768404230, -0.0963862091, -0.1920527518, -0.0207585897, -0.0093177147, 0.0413409062, -0.0017801009, -0.0838106722, 0.0154678533, 0.0617812611, 0.0299183056, -0.0341995507, -0.0798043981, 0.1166602597, 0.0668931082, -0.0659739003, 0.0199093893, 0.0111734858, -0.0233129114, -0.0077052773, -0.0179449767, 0.0212965049, -0.0974607021, 0.1730415374, 0.0675533414, -0.0624387488, 0.1122272462, 0.0647498369, 0.0076365359, -0.0643935353, -0.0111652128, 0.0138757043, 0.0670600832, -0.0451541692, -0.0381464176, -0.0184202176, 0.0007898419, -0.0224095117, -0.0043724193, 0.0017233820, 0.0386499688, -0.0053408248, -0.0228281561, 0.0535119474, -0.0230872408, 0.0374163948, -0.0474527702, -0.0173369609, -0.0000635632, 0.1322543323, -0.0395984203, 0.0349773951, -0.0326577090, 0.0311732870, 0.0031201807, 0.0031528482, 0.0065488135, 0.0166767035, -0.0778666660, -0.0187340081, 0.0565112904, 0.0631395057, -0.1018086448, -0.0151008107, 0.0367069393, 0.0406461135, 0.0002335188, 0.0298370458, 0.0511929616, -0.0458918363, -0.0204258077, 0.0142816482, 0.0363394544, 0.0034146607, -0.0250556767, 0.0787629262, -0.1509444267, -0.0351992287, 0.2291287035, 0.0569703169, -0.0055740657, -0.0196447708, 0.0401756279, -0.0325392261, 0.0238810070, 0.0283553004, 0.0526957363, -0.1360448301, -0.1457402855, 0.1086214259, 0.0572282821, -0.0135081504, -0.0183003303, 0.0012089340, -0.0805149004, -0.0236380212, -0.0818895474, -0.1086038798, 0.0809143186, -0.0236275345, -0.0198318530, -0.0651843548, -0.1381172091, -0.0381061509, 0.0375127345, 0.0799672529, -0.0071254717, -0.1366795599, 0.0472139791, 0.0770968720, -0.0213928297, -0.0816750377, -0.1034822986, 0.1439447254, -0.0264964756, -0.0657732636, 0.0379852578, 0.0075110067, 0.0107582537, 0.0294655375, 0.0596167035, 0.0313766748, -0.1225975156, 0.1961694062, 0.0271089952, -0.0636860281, 0.1087298021, 0.1324557066, -0.0536684468, -0.0377604105, -0.0322478451, 0.0074192751, -0.0195106324, -0.0193354599, 0.0119996294, 0.0730555207, -0.0493562743, -0.0344622396, -0.0837235674, 0.0180126894, 0.0762209967, -0.0212740097, 0.0280607250, 0.0236936025, -0.0324948244, 0.0347277187, -0.0117013436, -0.0188530032, -0.0284467526, 0.1071164012, 0.0431252755, 0.0299681593, -0.0465238206, 0.0305171404, -0.0434608385, -0.0564825162, 0.0150024304, 0.0564764030, -0.0816151723, 0.0751615986, 0.0140714776, -0.0275814272, -0.0768256634, 0.0295843296, 0.0131532121, -0.0052010533, -0.0308353510, -0.0490509048, 0.0662125945, -0.0607076809, -0.0309166592, -0.0391621068, 0.0245103259, -0.0537071452, -0.0217774324, 0.0267557148, -0.1096501350, -0.0163494274, 0.1862373054, 0.0900647789, -0.0435663462, -0.0341020636, -0.0768152401, -0.0103465850, 0.0614181720, 0.0040174392, 0.1225218326, -0.1489981562, -0.1922612190, 0.0821647272, -0.0036324428, -0.0236910880, 0.0447893105, 0.0417870097, -0.0907668471, 0.0085308868, -0.1376395524, -0.0130460327, 0.0994521305, -0.0299396850, 0.0506203175, -0.0630388781, -0.1574580073, -0.0501019992, 0.0096670501, 0.0678306967, 0.0786273256, -0.0843951255, 0.0062521971, 0.0547849201, 0.0336788520, -0.0033860335, -0.1454957575, 0.1035521775, -0.0221549142, -0.0467556119, 0.0335449465, -0.0237808097, -0.0766099393, 0.0635218844, 0.0021191677, 0.0311882049, -0.1105522141, 0.0996849611, 0.0347074047, -0.0153649263, 0.2074620575, 0.0384772643, 0.0658448413, -0.0628581718, 0.0113534303, 0.0379203409, 0.0315392204, 0.0020977966, 0.0068046930, 0.0892902538, -0.0291629583, -0.0229530446, -0.0260382909, 0.0318217352, 0.0786083713, 0.0187409632, 0.0034611870, -0.0120472321, 0.0094381412, -0.0545184240, -0.0320738293, 0.0032549328, -0.0340526365, 0.1528353393, 0.0168482661, -0.0241814032, 0.0327156931, 0.0003348480, 0.0363549441, -0.0718478337, -0.0239760336, -0.0393573195, -0.0048666210, 0.0196877569, 0.0394839235, 0.0608798489, -0.0198129695, 0.0078290403, 0.0630664900, -0.0442184731, -0.0108202593, -0.0258565173, 0.0508208871, -0.0155548332, -0.0205188580, 0.0016358035, -0.0078398120, -0.0527755395, 0.0304944608, 0.0268559009, -0.1439908296, -0.0387151875, 0.1482959539, 0.0681111142, 0.0705206394, -0.0468572937, -0.0032350849, -0.0626293421, -0.0150724426, 0.0681385696, 0.0248509720, -0.0467919596, -0.0823322609, 0.0682634264, 0.0535597950, 0.0225423910, -0.0062887939, 0.0633911118, 0.0070649255, -0.0144442795, -0.1909232587, 0.0120921414, 0.1164889187, -0.1302814931, -0.0569801368, -0.0721463114, -0.0907834172, -0.1095680371, 0.0634492412, 0.0627414212, 0.0497767702, -0.1207241789, -0.0167727340, 0.0532286428, -0.0200444069, 0.0781351477, -0.0423870273, 0.0231303256, 0.0171598978, -0.0380667485, 0.0060559222, -0.0227157231, -0.0242076553, 0.0695063919, -0.0016750792, 0.1518277526, -0.2111063600, 0.1121959463, 0.0507427193, -0.0356478803, 0.2188678384, 0.0422989838, -0.0536043681, -0.0279620066, 0.0363307633, 0.0129662231, 0.0250408072, -0.0223849826, 0.0213689543, 0.0164176673, -0.0135096861, -0.0101374406, -0.0038794875, 0.0095770657, 0.0594892763, -0.0000263655, 0.0105866594, 0.0025653485, 0.0139512243, 0.0120789241, -0.0270281248, -0.0017306906, 0.0272780713, 0.1065020412, 0.0005060366, -0.0387267396, -0.0091862306, 0.0437480286, -0.0277419165, -0.0231205449, 0.0309426486, 0.0197638012, -0.0529960915, 0.0645544231, 0.0151503291, 0.0634116903, -0.0498139895, 0.0080659296, 0.0070480029, -0.0215839781, 0.0388272814, -0.0131874029, -0.0139779663, -0.0359203182, -0.0197801497, 0.0299535096, 0.0478710122, -0.0085148802, 0.0674778074, 0.0040086871, -0.1379556805, 0.0373958312, 0.1732648015, 0.0807755813, 0.0280884597, -0.0135936905, 0.0505835228, -0.0075702486, 0.0523751266, 0.0072060372, 0.0507687442, -0.0705695227, -0.1509437710, 0.0674802288, 0.0508498289, -0.0324878693, -0.0324448831, 0.0959838852, 0.0035738938, -0.0230943803, -0.1103753000, 0.0058215791, 0.0400610082, -0.0453670062, -0.0184959751, -0.0925954282, -0.1491940022, -0.0716318488, -0.0265495013, 0.0188592579, 0.0664336681, -0.1298090518, -0.0069891741, 0.0941595435, -0.0413892530, -0.0155044561, -0.0327819139, 0.0946032181, -0.0012175837, -0.0105913179, -0.0027835371, -0.0193059519, -0.0703184977, 0.0147870993, 0.0129450979, 0.0687214434, -0.1230957583, 0.1212610528, 0.0293610375, -0.0198868867, 0.1095213592, 0.0726889372, -0.0481805056, -0.0508295372, -0.0776612535, -0.0543801337, -0.0099571412, -0.0402780920, 0.0233603120, -0.0024823591, -0.0590454414, -0.0431705005, 0.0074587283, 0.0679871663, 0.0196383577, 0.0401024334, 0.0463179871, 0.0636534244, 0.0211941078, -0.0150269195, -0.1244656891, 0.0195216145, 0.0169600453, 0.0675058961, 0.0307807159, -0.0137088532, 0.0351211429, 0.0135178771, -0.0055722669, -0.0379001573, -0.0854506418, 0.0311593544, 0.0033203445, -0.0122163324, 0.0438160971, 0.0437276550, -0.0229672454, 0.0420028046, 0.0609748103, -0.0120631689, -0.0251931250, 0.0004956346, 0.0197887830, 0.0230143797, -0.0520449094, 0.0277924128, -0.0720036104, 0.0179126300, 0.0169277824, 0.0165154692, -0.1212579012, -0.0129905483, 0.1789880693, -0.0070509776, -0.0261219982, 0.0306468308, 0.0306969564, 0.0038119908, -0.0250826497, 0.0662851259, -0.0216782484, -0.0935136825, -0.0730684400, 0.0409740768, 0.1239503473, -0.0149158649, -0.0255332496, 0.0045520165, -0.0059833927, -0.0274211578, -0.0221639462, -0.1279649287, 0.0859484524, 0.0776969790, -0.0848421603, -0.0583077520, -0.1769514680, 0.0011759049, -0.0351358503, 0.0572357662, -0.0118135521, -0.1619163007, 0.0350187086, 0.1199393943, 0.0181349926, -0.0569640808, -0.0853689015, 0.0934667736, 0.0495092608, -0.0461360589, -0.0377698615, -0.0376129895, -0.0439335853, 0.0099660084, 0.0789949298, 0.0361342803, -0.1707506627, 0.1464916319, 0.0228353310, -0.0404821038, 0.1337226629, 0.1095839739, -0.0358296633, -0.0225031301, -0.0317260064, -0.0315196104, 0.0630929992, -0.0414047055, -0.0212588906, 0.0787101313, 0.0346070826, -0.0350192748, -0.0721452609, 0.0983983055, 0.0015322873, -0.0066483296, -0.0623645596, 0.0854968056, -0.0077836737, -0.0166322552, -0.1109753996, -0.0020598827, -0.0610781088, 0.0051688380, 0.0075093345, 0.0614644438, -0.0646538958, 0.0188079532, 0.0049661091, -0.0088662244, -0.0313769691, 0.0111801438, -0.0280619357, -0.0016554695, 0.0084486846, 0.0323388912, -0.1019222140, -0.0129053006, 0.0574013889, -0.0748187378, 0.0170043167, -0.0019620068, 0.0070469989, -0.0393940546, 0.0012581456, -0.0219346117, -0.0213421248, 0.0024840110, -0.0012731538, 0.0930629298, -0.1191268191, 0.0277397577, 0.1746737957, 0.0270432997, -0.0528050438, 0.0274196416, -0.0036820329, -0.0003060855, 0.0336412229, 0.0662967488, 0.0048359823, -0.1732201129, -0.1040013060, 0.1031536534, 0.0118393982, -0.0257335734, 0.0058057872, 0.0185810439, 0.0076825144, -0.0335194692, -0.0902341232, -0.1480064690, 0.1048186049, 0.0100037334, -0.0601358972, -0.0337210111, -0.1007745564, -0.0102854576, 0.0517124832, 0.1054008752, 0.0061016451, -0.1005651951, 0.0326064937, 0.1111172587, -0.0796178430, -0.0408140682, -0.0532175265, 0.1245057508, 0.0248279795, 0.0039661750, 0.0071336078, 0.0140151801, -0.0402390324, -0.0265516359, 0.0043358188, 0.1346133500, -0.1358551234, 0.0833779350, 0.0091817956, 0.0043562334, 0.1171021909, 0.1414780617, -0.0319725126, -0.0226563346, -0.0366073437, 0.0105799614, 0.0303411074, 0.0139223402, -0.0481579825, -0.0011262136, -0.0309261885, -0.0401297174, -0.0615852252, 0.0180269256, 0.0682110190, 0.0019570393, 0.0046630744, 0.0673966259, -0.0660905018, 0.0303599704, -0.0193435717, -0.0652914792, -0.1074638516, 0.0693478808, 0.0656481385, -0.0090464186, -0.0365171656, 0.0320997462, -0.0337321013, -0.0254399423, 0.0045309211, 0.0256917700, -0.0158863254, 0.0755533352, 0.0002720437, -0.0182693787, -0.0708333179, 0.0568160452, 0.0615523793, 0.0169462450, -0.0156760011, 0.0200627279, 0.0343464613, -0.0125980508, -0.0731638148, -0.0493321903, 0.0125939231, 0.0076695825, 0.0274888109, 0.0531545691, -0.1026502922, -0.0223656055, 0.1918795705, 0.0504884236, 0.0233936459, 0.0245135203, -0.0196901355, -0.0928650573, -0.0190255921, 0.0179661345, 0.0553827919, -0.0717196539, -0.1122906804, -0.0068904888, 0.1135373414, -0.0130328042, 0.0194223821, 0.0714690164, 0.0330294743, -0.0806068778, -0.1273835897, -0.1501408815, 0.0871962160, 0.0671127737, -0.0800266117, -0.0489292257, -0.1565330923, -0.1153276488, -0.0439067297, 0.1299723387, 0.0173801109, -0.1582961231, 0.0353808179, 0.1293738186, -0.0301194973, -0.1347984076, -0.0344868451, 0.1495933235, 0.0893195495, -0.0039563472, -0.0419734456, 0.0370378830, -0.0174522158, 0.0742245764, 0.0824584737, 0.0209843162, -0.1186124384, 0.1258194596, 0.0243708380, -0.0215920880, 0.0894482806, 0.1270705611, 0.0177400485, -0.0272567421, -0.0326885954, 0.0184576772, 0.0374598838, 0.0311554223, 0.0266806744, -0.0047489181, -0.0213219151, 0.0334739089, -0.0729564503, 0.0022159389, 0.0083553577, 0.0638326332, 0.0222077500, 0.0012862595, -0.0046921107, -0.0039987443, -0.0354327671, -0.0635924265, 0.0249351859, 0.0797343776, -0.0437099785, 0.0052526887, 0.0163192134, 0.0092335222, -0.0146639636, -0.0748686865, 0.0040992014, 0.0052900580, -0.0395458713, 0.0395827256, 0.0026587709, 0.0260729678, -0.0715242699, 0.0236209109, 0.0237470716, 0.0426193476, 0.0124982949, -0.0343475044, 0.0458498970, 0.0309309401, -0.0157119278, -0.0367666185, -0.0442501232, -0.0432345197, 0.0216893200, 0.0510918498, -0.1218518764, 0.0173175447, 0.1741880476, 0.0416096114, 0.0295944829, -0.0784492046, -0.0230124630, -0.0602742061, -0.0144610023, 0.0030485827, -0.0339016505, -0.0874078050, -0.0492637567, 0.0009315740, 0.1191784441, -0.0074706743, 0.0039844634, 0.0834067911, -0.0705747455, -0.0506600998, -0.1261986494, -0.0593888909, 0.1505805552, -0.0031460647, -0.0156635828, -0.0883187354, -0.1861783564, -0.1210493371, 0.0058400547, 0.0761326179, -0.0017314957, -0.0827621296, 0.0239662956, 0.0479135439, -0.0578841455, -0.1118394285, -0.1180473641, 0.0609823279, 0.0277524255, 0.0129180569, 0.0281042513, 0.0436064266, -0.0156404730, 0.0205067191, 0.0210425612, 0.1138842329, -0.1680648178, 0.1329231411, 0.0064813434, -0.0273587834, 0.1305896491, 0.0871803313, 0.0101454575, -0.0393238366, -0.0231414139, 0.0294919983, 0.0112965191, 0.0077182134, -0.0023890578, 0.0065966123, -0.0457498506, 0.0248283669, -0.0419912897, 0.0173290987, 0.0377768651, 0.0479071178, 0.0521724820, 0.0140782492, 0.0006745157, -0.0206144974, -0.0770958439, -0.0002416003, -0.0179817472, 0.0606007911, 0.0208962820, -0.0093864799, 0.0127927391, -0.0077988408, -0.0089081004, -0.0321132168, -0.0067145363, -0.0150822904, 0.0097339014, -0.0252141375, 0.0477280840, 0.0455627516, -0.0813000128, 0.0227795411, -0.0071727736, -0.0048602032, 0.0139086116, 0.0185456481, -0.0300489720, 0.0225578919, -0.0212494899, 0.0175928138, -0.0198469758, -0.0318611600, 0.0301135629, 0.0208803266, -0.1740045100, -0.0040591774, 0.1223437935, 0.0576930232, 0.0106862318, 0.0224215314, -0.0525418371, -0.0104955407, 0.0233996138, 0.0355890468, 0.0259013884, -0.0780832767, -0.0821862444, 0.1026036963, 0.0059844488, -0.0232110005, -0.0406290069, 0.0417247191, 0.0044799945, 0.0184314083, -0.0757914633, -0.1193890125, 0.1236548126, -0.0641680956, -0.0228436477, -0.0707250386, -0.1916955858, -0.1068264022, 0.0378588922, 0.0836843327, 0.0497037619, -0.1568640023, 0.0083650816, 0.0514913686, -0.0452143848, -0.0475843102, -0.0336988717, 0.1060218066, -0.0235063341, -0.0354482196, -0.0542434044, 0.0102316774, 0.0288256295, 0.0044745351, 0.0053118975, 0.1024754569, -0.1428687721, 0.0702090487, -0.0297242980, 0.0090301055, 0.1160106063, 0.0915850103, -0.0231069103, -0.0209734961, -0.0385646187, 0.0187369790, -0.0080003524, -0.0006027683, 0.0469650067, -0.0319812372, -0.0529148430, 0.0426968671, -0.0064944145, 0.0430248231, -0.0020919195, -0.0340878107, -0.0430476144, 0.0104210638, -0.0469152555, 0.0033207594, -0.0127106700, -0.0411640033, -0.0424668640, 0.0748571381, -0.0109245833, -0.0112494044, 0.0335904881, 0.0545778647, 0.0524498560, -0.1063153073, -0.0253037177, -0.0316976644, -0.0809513479, -0.0067952545, -0.0038271230, -0.0171097703, -0.0471801870, -0.0072803805, -0.0070038163, 0.0295365937, 0.0342271477, 0.0107293343, 0.0665211380, -0.0690251589, 0.0271074157, -0.0180818401, 0.0359770097, 0.0255642589, 0.0240842365, 0.0544064716, -0.1392243505, -0.0483166538, 0.1617786288, 0.0013069619, 0.0194934718, -0.0143031888, 0.0357310362, -0.0683584660, 0.0153619200, 0.0203856416, 0.0167709440, -0.0754520670, -0.0951792821, 0.0031327596, 0.0869940072, -0.0157448091, 0.0214697588, 0.0989452526, -0.0533188358, -0.0203479417, -0.0282968972, -0.1392872781, 0.1128313765, 0.0062199743, -0.0224151649, -0.0218330137, -0.2262106240, -0.1099058986, 0.0128859347, 0.0934840143, 0.0664231405, -0.0887994245, 0.0524684191, 0.0469802469, -0.0228963364, -0.0475851521, -0.0521776602, 0.1063480675, 0.0024283552, -0.0277069882, 0.0316224881, -0.0128226392, -0.0432544835, 0.0696799234, 0.0594585799, 0.0454593524, -0.0760856047, 0.1879066974, 0.0560830645, -0.0467528403, 0.1261928380, 0.1330479234, -0.0397669077, -0.0160114933, -0.0589446761, -0.0500738285, 0.0609737635, -0.0309611242, -0.0262972508, 0.0267976187, 0.0208192691, 0.0383117981, -0.0171378069, -0.0073681558, 0.0220662542, 0.0221187938, -0.0017078695, 0.0457845107, 0.0091512548, -0.0824128166, -0.0126325386, -0.0407838635, -0.0787975192, 0.1164708063, 0.0247893464, -0.0064535746, -0.0560253076, 0.0256022587, 0.0466889739, -0.0188020617, 0.0188168492, -0.0103310430, -0.0564142093, 0.0645803139, 0.0185300205, 0.0203550905, -0.0459484532, 0.0110853724, 0.0190365333, -0.0474830344, 0.0265112855, 0.0308024157, -0.0204066150, -0.0240503140, -0.0701999739, -0.0646122023, -0.0264353007, 0.0005521532, 0.0807436779, -0.0163322929, -0.1145361215, 0.0277293324, 0.2094200402, 0.0155907534, -0.0032274378, -0.0292122066, -0.0021675886, 0.0075222212, 0.0574973784, 0.0540345423, 0.0383342169, -0.0965841264, -0.0844788849, 0.0216796249, 0.0654129535, 0.0021778443, 0.0319517069, 0.0575895682, 0.0194663182, -0.0258157104, -0.1368611753, -0.0300855339, 0.1124807671, -0.0064344043, 0.0275426023, -0.0518184379, -0.1766414493, -0.0899400264, -0.0310318545, 0.0463241972, 0.0365562551, -0.1017545015, -0.0016971841, 0.1047851518, -0.0559060127, -0.0284183156, -0.1179181337, 0.0878018737, -0.0008197839, -0.0307781249, -0.0385273844, -0.0062319031, -0.0724167302, 0.0044902368, 0.0064697475, -0.0001848038, -0.1413090676, 0.1417575479, 0.0581644960, -0.1049859077, 0.1931062341, 0.0469896905, 0.0128397066, 0.0263107549, -0.0366533361, -0.0151315322, 0.0223649014, -0.0285127573, -0.0251525585, 0.1087983027, -0.0096706366, 0.0025973474, -0.0479064882, -0.0047008125, 0.0188244116, 0.0300300568, -0.0084293121, 0.0091270097, 0.0047500748, -0.0433024205, 0.0097240703, -0.0862764940, -0.0676339492, 0.0877863467, -0.0032509607, 0.0531570241, -0.0046297503, -0.0104127321, -0.0266732797, -0.0929854289, -0.0197164714, 0.0194853134, -0.0492624491, 0.0217013229, -0.0014213868, 0.0293582585, -0.0495880954, -0.0158773605, 0.0793650299, 0.0350357294, 0.0418175608, -0.0249747559, 0.0173681732, -0.0020616131, 0.0102263549, -0.0371450447, -0.0049143718, -0.0055650692, -0.0091583300, 0.0516823009, -0.1886266470, 0.0327768438, 0.1625774652, 0.0785600469, -0.0397348553, 0.0290773474, -0.0133241201, -0.0070012296, 0.0418639816, 0.0061193700, 0.0847957283, -0.1032799333, -0.1024046242, 0.0725013986, 0.0138309160, -0.0229955763, -0.0688683838, 0.0088577550, -0.0816627443, -0.0611106046, -0.0893639252, -0.0431765877, 0.0775016025, -0.0133379390, 0.0413780138, -0.0620416030, -0.1767953336, -0.0993323550, -0.0150256269, 0.0297308750, 0.0538414344, -0.0802016705, 0.0168595333, 0.0802967176, 0.0363371521, -0.0041004624, -0.0530630574, 0.0607775412, 0.0724162683, -0.1165908799, -0.0488543659, 0.0021016554, 0.0057242746, 0.0213726945, 0.0107272919, 0.0741126686, -0.1330562234, 0.1245496199, -0.0058932970, -0.0674060807, 0.1585954875, 0.0875395089, -0.0221506041, -0.0022587816, -0.0439021215, 0.0327674560, -0.0041956548, -0.0015260802, -0.0266590454, 0.0520112589, -0.0711913854, -0.0657255277, -0.0213639066, 0.0155348442, 0.0505892262, 0.0463374369, -0.0041607339, 0.0047494364, -0.0244176760, -0.0577098094, -0.0503526479, -0.0531299226, -0.0458165035, 0.0350405201, 0.0592551865, 0.0476600341, -0.0261529721, 0.0899751335, -0.0282240640, -0.0993528962, -0.0392915644, -0.0061067040, -0.0739709958, 0.0662410855, -0.0132500203, -0.0055407910, -0.0267549679, 0.0263178404, 0.0374198966, -0.0199780874, 0.0366474092, 0.0198142715, -0.0258865133, -0.0466437414, 0.0226578303, 0.0113693615, 0.0186409745, -0.0509851687, 0.0535100661, -0.0064753150, -0.1052989662, -0.0121288272, 0.1949404925, 0.0449209139, -0.0615215041, 0.0075032441, -0.0139405206, 0.0078170681, 0.0122989509, -0.0257303286, 0.0263946876, -0.0172002539, -0.1490945518, 0.0804267004, 0.0126596745, 0.0151499733, -0.0278276335, 0.0559813753, -0.0787711293, -0.0098074349, -0.1617310494, -0.0496596806, 0.1025136039, 0.0568261668, 0.0310106091, -0.0883343145, -0.0864689797, -0.0561175011, 0.0004931721, 0.0904116780, 0.0651152208, -0.0964624211, 0.0048771044, 0.0603953749, -0.0371091589, -0.0450148284, -0.0070543783, 0.0361792818, 0.0568321310, -0.0589604937, 0.0181052480, 0.0234602615, -0.0589452386, 0.0803856701, 0.0043184697, 0.1099384800, -0.1133526564, 0.1654700786, 0.0441937484, -0.0429856554, 0.2107503712, 0.0279988851, -0.0278473478, -0.0705002472, -0.0089997519, 0.0267266780, 0.0030957311, -0.0746627375, -0.0398994163, 0.0723534822, -0.0010390234, -0.0299220588, -0.0430953391, -0.0197085124, -0.0166593157, 0.0354158208, -0.0039875186, 0.0079881791, -0.0292168166, -0.0086917412, -0.0210756697, -0.0537850782, 0.0045885015, 0.1168471947, 0.0423702374, -0.0043079196, 0.0159316435, 0.0773827657, -0.0072195274, -0.0316956826, -0.0175565723, 0.0330943801, 0.0036309375, -0.0155849410, 0.0319481120, 0.0309687834, -0.0595146380, -0.0196310412, 0.0865317881, -0.0964846835, 0.0146452226, -0.0175262764, -0.0335352086, 0.0344081447, -0.0739155635, 0.0202037022, -0.0521609001, -0.0180499572, 0.1089065000, 0.0208888054, -0.1245781481, -0.0405643508, 0.1688350886, 0.0105481287, 0.0100854654, -0.0373116694, -0.0184335466, 0.0074982066, 0.0275880806, 0.0598749667, 0.0858766884, -0.0695930198, -0.1153958663, 0.0792570412, -0.0467472337, 0.0332191102, -0.0602700412, 0.0505630448, 0.0133187929, -0.0517230369, -0.1430889815, 0.0057950141, 0.1567178071, -0.0418775193, 0.0226126947, -0.1073433608, -0.0664322749, -0.1030256525, 0.0876128152, 0.0414340869, 0.0430904143, -0.1729117036, 0.0454311781, 0.0654620975, -0.0543463565, 0.0153908329, 0.0091663152, 0.0138630560, -0.0276371203, -0.0066490993, 0.0463882983, -0.0553142428, -0.0210381038, -0.0138000809, 0.0669579729, 0.1374443918, -0.2312376946, 0.0883454084, 0.0139414920, -0.0896495283, 0.2723191082, 0.0513461232, -0.0193878990, -0.0827174112, 0.0179323498, -0.0629706085, -0.0110978568, -0.0309452415, -0.0038587449, 0.1078476459, -0.0052596582, -0.0356499776, -0.0294188559, 0.0416987538, 0.0655772611, -0.0000186877, 0.0026845993, 0.0510344096, -0.0467864461, -0.0296138451, -0.0895640329, 0.0455110371, -0.0317077674, 0.1559643447, -0.0839379802, 0.0604941174, 0.0104011269, -0.0039589717, 0.0389468931, -0.0870856866, 0.0148355374, 0.0116657596, -0.0603398159, 0.0265128277, 0.0734204426, 0.0437997617, -0.0884187222, -0.0456949845, 0.0161240622, -0.0332209170, 0.0397635810, 0.0343022346, -0.0286253486, 0.0378891081, -0.0541566275, -0.0301846769, -0.0050155954, -0.0353632495, -0.0116037372, 0.0842825025, -0.1421055496, 0.0222378466, 0.1171002313, 0.0766212940, 0.0165362358, -0.0538618155, -0.0719985962, -0.0644071549, 0.0214108527, -0.0138794901, 0.0943761989, -0.1097384915, -0.1346421689, 0.0259793997, 0.1020285785, -0.0222683158, -0.0204072259, 0.0836998150, -0.0278062411, -0.0270094406, -0.0668746307, 0.0297380332, 0.0537323542, -0.0115751550, -0.0715391785, -0.1127811819, -0.0763509125, -0.0986503959, 0.0345398784, 0.1044947729, 0.0801491067, -0.0933652595, 0.0446759239, 0.0846633464, -0.0278352425, -0.0496440493, -0.0774997920, 0.0448262207, -0.0576848425, -0.0394439213, -0.0502119437, 0.0290469043, -0.0178235304, 0.0497323163, 0.0242537949, 0.0623835772, -0.1846556067, 0.0996257290, 0.0040673707, -0.0091119884, 0.1398864239, 0.0482562780, 0.0169183426, -0.0180815924, -0.0500982739, -0.0110874763, -0.0029772646, -0.0464378223, 0.0111223292, 0.0710081756, -0.0360929370, 0.0078036403, -0.0430713370, -0.0047454368, 0.0519585200, 0.0238758940, 0.0321081690, 0.0199645981, 0.0311218984, -0.0401224457, -0.0406967886, 0.0362130813, -0.0115487138, 0.1192408130, -0.0044161375, 0.0154065583, 0.0074116210, 0.0330221169, 0.0236104522, -0.1045549586, 0.0394505933, 0.0157860946, -0.0512009710, 0.0008579878, 0.0102730971, 0.0196362510, -0.0691411793, -0.0144314384, 0.0271082316, -0.0428498462, 0.0156345721, -0.0150336279, -0.0101379324, 0.0005364473, 0.0030732355, -0.0196972471, -0.0631065294, -0.0167589225, 0.0315946043, -0.0311961155, -0.1536179930, 0.0012129107, 0.2066428810, 0.0213824306, -0.0121753318, -0.0560156293, 0.0196885206, -0.0784279034, 0.0132692298, -0.0126303881, 0.1033962667, -0.1165216565, -0.0549984686, 0.0316219851, 0.0288741589, 0.0584974103, -0.0032801726, 0.0654004291, -0.0568907931, -0.0435079113, -0.0577321909, -0.1217730641, 0.0993182883, 0.0750215650, -0.0078858752, -0.0843945891, -0.1145385206, -0.1085629687, 0.0175966509, 0.0341024138, 0.0780208781, -0.1706253886, 0.0648941472, 0.0773656070, -0.0634301305, -0.0376745090, -0.0113144657, 0.1074812487, 0.0545027554, -0.0493715405, 0.0429176725, -0.0075479620, -0.0360073894, 0.0511408634, 0.0309085120, 0.0106210792, -0.1564853191, 0.1462609917, 0.0819054395, -0.0943669826, 0.1426154375, 0.1290652007, -0.0315839089, -0.0269633643, -0.0506498404, 0.0038050271, 0.0321099758, -0.0252649039, 0.0032444585, 0.0193636641, 0.0044418597, -0.0227402151, -0.0227873642, -0.0002615397, 0.0567706786, -0.0623284876, -0.0696880370, 0.0602077618, 0.0089478632, -0.0782315060, -0.0623043291, 