//Numpy array shape [4, 4, 3, 4]
//Min -0.286095380783
//Max 0.257732152939
//Number of zeros 0

#ifndef W2_H_
#define W2_H_

#ifndef __SYNTHESIS__
model_default_t w2[192];
#else
model_default_t w2[192] = {0.1958972067, -0.0040616677, 0.1153854951, 0.2233358473, -0.2243070453, 0.0938223526, 0.0132674798, -0.1516198665, -0.0971343741, 0.1869692206, 0.1722210795, 0.0847108662, 0.1606103033, -0.0384068750, 0.0415765718, -0.1071300209, 0.1198302805, 0.1019361392, 0.0850126669, -0.2151526213, -0.0888807178, -0.0312768072, -0.1733291596, -0.0781330764, 0.1245880499, 0.0630608946, -0.2527722120, -0.1089138687, -0.1984356344, -0.1442029029, 0.0936879367, 0.1528344005, 0.0457770042, -0.1366160512, -0.0624969043, 0.1424829215, 0.0036154997, 0.2164163738, -0.0075208363, -0.1053897291, 0.1830845028, -0.0001171155, 0.1518172771, 0.1415771991, -0.0687928721, 0.0514383242, -0.0302778315, -0.1816277951, 0.0778476819, -0.0036771474, 0.1960998178, 0.1477218568, 0.0189856868, 0.0400147252, 0.1786008328, 0.0667543262, 0.0790176839, 0.1116252989, -0.1534435600, -0.0327390768, -0.0767866448, 0.1604485214, -0.2596390247, -0.1153060943, -0.0040782187, -0.0467660539, -0.0247604791, -0.0772658810, 0.0749942139, 0.0285358205, 0.0991002172, -0.1197670624, 0.1963541806, -0.0671355873, -0.1912605911, 0.1020609140, -0.0685199946, -0.1001865268, -0.0666724518, 0.1374224871, -0.1523411721, 0.2018472850, -0.1250424534, 0.1036796793, 0.1688072383, 0.1769706309, -0.2505288422, 0.0901684463, -0.2526657879, 0.1984186172, 0.1514265090, -0.2042388767, 0.0306804068, 0.2477611154, 0.0680854470, 0.1973208040, 0.0856977701, -0.1786343306, 0.1653197855, -0.0907836482, -0.0458383262, 0.0954774916, 0.0620589145, 0.0470264815, 0.1298167706, 0.2015416622, 0.2577321529, 0.1619733870, -0.1572892964, -0.0451071374, 0.1692230105, 0.2572258413, -0.0507459380, 0.0421526432, 0.1418080926, -0.1634879112, -0.1600079983, -0.1059503704, 0.0551157296, -0.1597946882, -0.0229043700, -0.2860953808, -0.2496280223, 0.0998847485, -0.2114999443, -0.0325670056, 0.1975947917, -0.2002428323, -0.0436979719, -0.1420827955, 0.1470946968, -0.1226700842, 0.2314273268, -0.1026107967, -0.0521511696, -0.1480246484, -0.1099635735, 0.1131284311, -0.0589673519, -0.2104639560, -0.2048431933, -0.1365613490, 0.1593685001, -0.1475668103, 0.2461999804, -0.1292955577, 0.1857230812, 0.1361749470, 0.1989215463, -0.1854079813, 0.1769481301, -0.1262616664, -0.1872240007, 0.0939998701, 0.2194931209, -0.2394192219, 0.1314860135, -0.2262335569, 0.1164410487, 0.0226210579, 0.0348855443, 0.1061117277, 0.0358421206, -0.0391336121, 0.1156068072, -0.1629026681, 0.0923098400, 0.0788098499, -0.0634766668, -0.2359117419, 0.0486053489, 0.1434117109, -0.0984830633, -0.1921198964, 0.2248345017, -0.0662508458, -0.0672017485, -0.2860615849, -0.0649342835, -0.0669572949, 0.0989343151, -0.2008038908, -0.0328834504, -0.1401518136, 0.1681484580, -0.2519092262, -0.2177211046, -0.2123525292, -0.1611344069, 0.1400126219, -0.1029698327, -0.2395811975};
#endif

#endif
