//Numpy array shape [4, 4, 4, 20]
//Min -0.400176316500
//Max 0.380216747522
//Number of zeros 0

#ifndef W5_H_
#define W5_H_

#ifndef __SYNTHESIS__
model_default_t w5[1280];
#else
model_default_t w5[1280] = {0.0723602250, -0.1047543734, 0.0783980042, 0.0717237219, -0.0489485934, -0.1184218898, 0.0950549319, -0.0249408856, -0.0919231251, 0.0512310080, 0.0786637142, -0.0917928517, 0.1574130952, 0.0770335272, -0.0750970244, 0.0224450268, -0.1369943768, 0.0311801434, 0.0974148288, -0.0344771594, -0.0028375932, 0.0048056371, -0.2639076114, -0.0806975961, 0.1143736318, 0.0839359462, 0.1561523825, 0.0162661616, -0.0102675371, -0.0733546615, 0.0162422881, 0.0244869739, -0.0341545045, 0.0468725413, -0.0136317853, 0.1202878356, 0.0086918836, -0.0017874758, -0.0297904052, -0.0354501083, 0.0724325031, -0.0612965487, 0.0400026813, -0.0919370353, 0.0410920531, -0.0709864721, -0.0610087439, 0.0143657271, -0.1178404167, -0.0321644098, -0.0238337107, 0.1555522382, 0.1174191162, 0.0655318722, -0.1258700639, -0.0112981526, 0.0481504053, 0.0532928891, 0.0698256046, 0.0698784441, -0.1153042093, 0.0719312429, 0.1082160398, 0.0514024720, 0.0790378302, -0.0281112455, 0.0781192556, -0.0014280254, -0.1129136831, -0.0701543316, -0.0950348899, 0.0452470109, -0.1064486578, -0.0537608489, -0.0549549758, 0.0123802256, -0.0523911677, -0.1496687829, 0.0899188146, -0.1316577494, -0.0163328126, -0.0734270960, -0.0635627210, -0.0543147027, -0.1161136404, 0.0491547026, 0.0180389024, -0.1366825551, -0.0493803620, -0.0386837088, -0.0284003317, -0.1440815330, 0.0408353508, 0.0844457969, 0.0389610305, -0.0350828692, -0.1575827748, 0.0313024111, 0.1075664461, -0.1961127818, -0.1258435845, 0.0769351944, -0.3419531584, -0.0549132377, 0.0163182393, -0.0537322611, 0.1160978451, -0.0537373535, -0.0970439240, -0.1426668316, -0.0801101699, -0.1591696590, 0.1068676487, -0.0196338538, 0.0443810150, -0.0855317414, 0.1033023968, 0.0883066803, -0.1180024669, -0.0374415256, 0.0546848737, -0.0287989471, -0.0621678010, -0.0709002241, -0.0586975515, -0.0516727082, -0.1227988973, 0.0643091276, 0.0625116825, 0.1025172994, -0.0141516495, -0.1192008182, -0.1042486727, 0.1140697226, 0.0418353751, -0.1055780947, 0.1097966358, 0.1235394850, 0.1014696285, 0.0056766621, -0.0426060781, -0.0513652042, 0.0007697341, -0.0752131939, 0.1216803864, -0.0266338177, -0.1266569346, 0.0186700616, 0.0477397405, 0.0292842779, 0.0226909816, -0.0323703736, -0.1128055453, -0.0269553941, -0.0218293648, 0.0241799876, 0.0092890151, -0.1610620767, -0.1021789610, -0.1276405752, -0.0342839174, -0.0944891423, 0.0047994386, -0.0046061766, -0.1507424563, 0.0021668326, -0.0734729916, -0.1665027142, -0.1197798625, -0.0804812685, 0.1297858208, 0.1230976656, 0.1197294518, -0.1116270795, -0.1265097260, 0.0375762656, -0.0603462867, 0.0360282063, -0.0491715893, -0.0971555337, -0.0424502008, 0.0413315408, -0.0448889695, 0.0908076242, 0.0674366355, -0.0161042903, -0.2641222179, -0.0082960511, -0.2076944113, -0.0785250515, -0.0969040766, -0.1546456963, 0.0477287062, -0.0507963412, -0.0359694660, 0.0394461714, -0.0013037599, -0.0697863176, 0.1067308486, -0.0203739516, -0.0862476751, -0.0426399298, 0.0143766943, 0.0084265061, 0.0648141205, -0.1257494390, 0.0682502165, -0.1085276678, -0.0244401153, -0.0212727301, -0.0713401288, 0.0246736538, 0.0713906437, 0.0453209393, -0.0266603399, -0.0473191068, 0.0519664697, 0.0661839023, 0.0578016154, -0.0526400469, 0.0359501652, -0.0219832007, -0.0616342723, 0.0068512796, 0.1106761843, -0.0310987383, -0.1942681521, 0.0559832044, 0.0733522251, -0.0097581735, 0.0526796319, -0.0043173246, 0.0046200640, -0.0931727886, 0.1135570481, 0.1193343624, -0.0480775833, 0.0163120702, -0.0658309460, 0.0979102775, 0.0526726022, -0.0077896486, -0.0938092545, -0.0589484125, -0.0762641579, -0.0587100908, 0.0804046541, -0.0902099833, -0.0502783507, 0.0123051172, 0.0622909889, 0.0900173485, 0.1303526759, -0.0529823489, 0.0743115023, -0.1122990102, 0.0303058550, -0.0811444446, 0.0686659738, -0.1524167657, 0.0997747704, 0.1574864537, -0.1705803126, 0.0717636123, 0.1303844750, -0.1116521955, -0.2013101429, 0.0115581602, 0.1047035679, -0.0349214338, 0.0038376544, 0.0330524594, 0.0888681859, 0.1043630689, 0.0245281346, -0.0873572528, 0.0084837899, 0.0666573197, -0.1241383478, 0.0900923759, -0.0199383199, 0.0473620854, 0.0822706819, -0.1031684279, 0.0448064804, 0.0024742559, 0.0825109705, 0.1080002561, -0.0034592648, 0.0533228219, 0.0544346794, -0.0717354417, -0.0536894873, 0.1366682500, -0.0391800553, 0.0062679178, -0.0261060502, -0.0811594352, -0.0421012081, 0.1351904124, -0.0267448351, 0.1260413229, -0.1777890325, 0.1476156712, 0.0290444978, -0.1507018358, -0.1626514345, 0.0901028216, 0.1218183339, 0.0623484440, -0.0298632961, 0.1115185097, 0.0448368490, -0.0205493756, 0.0935248658, -0.1808172762, -0.1400826275, -0.0612225458, 0.0892553180, 0.0143878069, 0.1062994748, 0.0256986916, 0.0729153678, 0.0812754929, 0.1392023563, -0.0465101935, 0.0270582717, -0.1396892816, -0.0900188312, 0.0920048729, 0.1188057363, 0.0329594165, 0.1062714309, -0.0115455864, -0.1300069541, 0.0274946280, -0.0774760395, -0.1584022939, -0.0913077369, -0.2225458324, -0.0830761641, -0.0991690829, 0.1713972092, -0.0036920772, -0.0841675475, -0.0026589427, 0.2259878069, 0.1006478071, -0.1080438718, -0.0430229977, -0.0914458036, -0.2587518990, 0.0322337113, -0.0842750594, -0.0405301899, 0.0092237424, -0.0089411819, 0.0422727577, -0.0547115393, 0.0838011131, -0.0290536806, 0.0577385686, 0.0151907373, 0.0092937658, -0.1077594310, -0.0009231367, 0.0811981410, 0.1132885143, 0.0313548557, 0.1401528865, 0.1036230177, -0.1185936630, 0.0641936883, 0.1155651286, -0.1110282913, 0.0803674310, -0.0080472119, 0.0464134142, 0.1116494238, 0.0037720096, 0.0632292107, 0.0414746478, -0.1546901762, 0.0113478182, 0.1020344570, 0.0407593176, 0.0161183607, -0.1277498305, 0.1204035357, -0.1689251512, -0.1016689688, 0.0676319599, -0.1196255311, 0.0953033194, 0.1151238456, -0.0553376190, 0.0458262153, -0.1193348244, 0.0597305670, 0.0892458931, -0.1350597739, 0.0546166860, 0.1967220157, 0.0254789833, 0.2282337695, -0.1296678483, 0.0647401661, -0.1649797261, -0.0186301637, 0.0763496831, 0.0824722350, 0.1306903511, 0.1048175395, -0.0821012259, 0.0747555792, -0.0520666055, -0.0544033498, -0.0140490560, -0.0129388506, -0.1892005801, -0.1074885130, -0.0128554255, 0.1206419542, -0.0632800981, 0.0087776892, -0.1036769524, 0.1768764257, 0.0125383101, -0.0111330245, -0.0526540801, -0.1061680838, -0.1435504556, -0.0532910414, -0.0970452428, -0.0469506383, 0.0228360556, -0.0294195488, 0.1109328270, -0.0033004070, -0.0441513360, -0.0625452399, -0.1301833987, 0.1603984386, -0.1431337893, -0.0886238962, -0.0669147372, 0.0829276145, 0.0785406083, -0.1401366442, 0.1433677226, -0.0281635821, -0.0733776912, -0.0303965900, 0.0173125342, 0.0044036671, -0.0365818329, 0.0033467780, 0.0542002581, 0.0066337138, 0.1326490492, -0.0080890916, -0.0359627977, 0.0425826088, -0.0665482953, 0.2102830559, -0.1103190854, -0.1000210345, -0.1148427948, -0.0086369254, -0.0117287328, 0.1187177077, -0.1032868400, -0.0007143601, 0.0658678338, 0.1108809859, 0.1000656858, 0.0939408913, -0.0279944502, 0.0273046438, -0.0887334272, -0.0484444909, 0.0939346477, -0.1040849090, -0.0882938132, 0.2378873676, -0.0700819418, -0.1127867699, -0.2059031725, -0.0674716234, -0.0448614731, -0.0863694772, 0.1517384201, 0.1009529606, -0.1468247175, -0.0212742500, 0.0648913383, 0.0194901731, -0.1038157567, -0.0018505387, -0.0833909661, -0.0481011868, 0.1072184592, 0.0771519318, 0.1174371690, -0.0042966395, 0.1009119600, -0.1248214766, 0.1305768490, 0.1038344353, 0.0066260886, 0.1200042665, 0.0917878971, -0.1268226802, 0.0324287675, -0.0876270831, 0.0584192388, -0.0205237400, -0.1196166426, -0.0569536760, 0.0716617480, 0.0753483847, 0.0961595699, -0.0795559660, 0.0535034649, -0.1271398962, 0.0451742262, -0.0796609893, -0.0998454764, -0.2409710884, 0.0635715798, 0.0178115275, -0.1056357995, -0.1069109216, 0.0996771529, 0.0492336452, 0.0778319165, 0.1073552445, 0.0616187416, 0.1199234799, 0.0000147399, 0.0897695199, 0.1371431798, 0.0972105339, 0.0608492158, 0.1744377017, 0.1109736785, -0.0243115984, 0.0024638323, -0.2457280010, -0.0752173811, -0.0838053226, 0.0108399950, 0.1051732525, -0.1420374066, -0.0534043498, 0.0799795687, 0.0913612768, -0.1005408540, 0.0475454479, 0.0583845824, -0.0826784670, 0.0138243195, -0.0135097904, -0.0779117718, 0.2516334057, -0.0879084319, 0.2191330940, -0.1534637362, 0.1977518052, 0.0370833986, 0.0924282819, 0.2027860433, 0.0036637140, -0.0332580470, -0.0342936739, -0.1337425560, 0.0086934064, -0.0408982523, 0.0288300123, -0.0387748219, 0.1041129604, 0.0845493972, 0.2047841549, -0.0150621384, -0.0248300266, -0.1612653434, -0.4001763165, 0.0614055172, -0.2867021859, 0.0875206441, -0.0853222683, 0.0934529155, 0.0078766886, 0.1132825762, 0.0415797643, -0.0820428431, 0.1122181639, -0.0345662571, 0.0668138117, 0.0522343032, 0.0780848563, 0.0476293527, -0.1301168054, -0.1293850690, -0.1742310226, -0.1054393426, -0.0158156008, 0.0309717990, 0.2862745821, 0.0388995856, 0.0706365556, 0.0353164673, -0.0938121006, 0.1081137583, -0.1520271599, 0.0154882679, -0.1077063903, 0.1319915652, -0.0357298888, 0.0248174891, -0.1108191162, 0.1078133360, 0.1408990622, 0.0437224507, 0.2141823322, -0.0314277448, -0.0026392951, -0.0733697414, -0.1161106750, -0.0294584315, -0.0631389767, -0.0939624310, 0.0594941899, 0.0372830108, -0.0814139843, -0.0505775064, 0.0212135892, -0.0302350428, -0.1150565073, -0.0901679546, -0.0056480081, 0.0986935571, -0.0669706464, 0.0486329496, -0.0566351712, 0.0885342211, -0.0809297115, -0.0836215466, -0.0438944846, 0.0079917554, 0.0769906417, -0.0327589177, 0.0852538943, -0.0232999511, -0.0391960852, 0.0276338793, 0.1651486307, -0.0104334326, 0.0016079638, -0.1603432149, -0.0537342764, 0.0367645845, -0.1226356849, 0.0506091416, -0.1761862934, 0.0336039774, 0.1263631433, -0.0140521852, -0.0024158799, 0.1481546462, -0.1437163949, -0.1149202138, 0.0976956934, -0.0673459992, 0.1090606675, 0.0234272089, -0.0567185655, 0.1097782031, -0.0913333148, 0.1191956326, 0.1292871833, 0.1379878521, 0.0113685708, 0.0511193052, 0.0374011174, 0.0288219638, -0.0760828257, 0.0238667298, 0.0863998160, 0.0472526290, -0.1196138561, 0.1204180047, 0.0087386593, -0.0739641339, -0.0417176522, 0.0526485555, -0.0668175220, -0.0183003172, 0.1459080279, 0.0674501881, 0.0173862707, 0.0407463349, -0.0589784123, -0.0071398434, -0.0120265447, -0.0223816335, 0.0772048607, -0.0338630490, -0.0470046960, 0.0382677801, 0.0984399691, -0.0821766332, 0.0144960396, 0.0700036809, 0.0588515550, 0.0613008924, 0.0618338212, 0.0020769006, 0.0513655692, -0.0270465091, -0.1319408566, 0.0268571172, 0.1607515812, 0.0269854516, 0.0990858674, 0.0410252288, -0.1117575243, -0.1178633720, 0.0338545330, -0.0060050264, 0.0920782983, 0.0121575873, -0.0288777966, 0.0934021622, -0.0601307712, 0.0357378237, 0.0472486950, -0.1598284841, -0.0439966917, -0.1992869526, 0.1058062166, 0.1267696023, 0.0478075258, 0.0591380820, -0.1454191953, 0.0922932997, 0.1168749332, 0.0650282875, -0.2623979747, 0.1153311208, -0.0526470058, 0.1899957806, 0.0805327594, -0.0613736436, 0.0616635457, -0.0952952430, -0.0398522057, 0.1116864011, -0.0853925943, 0.1161345541, -0.0746243596, 0.0426663980, 0.1128364876, -0.0060263211, 0.1361423582, -0.1287350357, -0.0389383100, 0.0232692100, -0.0491446257, -0.0858338475, -0.0245379992, 0.1116622537, 0.0522668026, -0.0562407412, -0.1316212267, -0.0545873754, -0.0804443285, 0.0363731533, 0.1376048774, 0.0402211174, 0.0831582621, 0.0522963516, -0.1036356241, 0.0825824067, -0.0967922285, 0.0527488664, 0.0283181407, -0.1054551303, -0.1409439594, -0.0435674861, 0.0456030555, 0.0623605177, -0.0344359316, -0.0442055166, 0.0398080163, 0.1019168124, 0.0127306739, -0.0823286176, -0.0020794717, -0.0216444600, 0.0540787987, -0.0472266972, 0.2034109235, 0.0439010113, -0.0046879849, 0.0639896691, 0.0616148375, -0.2015768141, 0.0081575792, 0.0586942285, -0.0248075649, 0.1140386537, 0.1271252483, 0.0006222305, 0.1005843580, 0.0775608495, 0.0944826975, 0.0648416728, 0.0379064269, -0.0928611457, -0.1369622201, -0.0518152826, -0.1838392317, -0.0255017187, -0.1707589924, 0.1635305732, -0.0046779704, 0.0698726028, -0.0310316253, 0.0968656018, -0.0880529433, 0.2288927138, -0.0767826810, -0.0398190208, -0.0815087259, 0.0545653775, -0.0787550211, -0.0337824263, -0.0814781561, -0.0854627416, -0.0674379542, -0.0220721755, 0.1612177789, -0.1202582493, 0.0799726024, -0.0532047115, -0.0159577820, 0.0180667508, 0.1199487820, -0.0140243368, -0.0925275907, 0.1413541138, 0.0802969933, -0.0559839234, -0.0917830244, -0.1104030758, -0.1012947336, -0.0554407910, 0.0847615823, -0.0905784667, 0.0417857170, -0.0882731676, -0.1550749540, -0.0805158541, -0.1509143412, -0.0809504762, 0.0119806416, -0.0079261605, 0.0542857535, 0.0752523839, 0.1173742414, 0.0550021119, 0.1334128231, -0.0977998301, -0.0878309906, 0.0854877457, 0.1502881497, -0.1341967434, -0.1113895476, 0.0228089187, 0.0761342421, 0.0391543917, 0.1008450240, -0.0391658470, 0.0211545397, 0.0910910964, 0.2260522544, -0.1775925308, 0.1924592853, 0.0511146225, -0.0805831105, -0.0945196897, 0.1555430591, -0.0147095043, -0.0150185991, 0.0396572277, 0.2634729743, -0.0287686829, -0.0509272590, -0.0658863559, 0.0870272741, 0.0550852269, -0.0895363986, -0.1026501358, -0.1752984822, 0.0817544684, -0.3264389634, 0.0826435462, 0.3802167475, 0.0085894987, 0.1147539541, -0.1333918422, -0.0553123504, 0.0837158263, 0.0390233658, -0.1461647451, 0.0127745531, -0.0415549539, -0.1122047678, -0.0890538022, 0.0085343355, 0.0097026546, 0.0162543692, -0.1259521991, -0.0405304804, -0.0937475637, 0.1776358187, 0.0829110518, -0.1667589843, 0.0788064450, 0.0849713832, 0.0738146082, 0.0678793490, 0.0491066873, -0.1402096599, 0.0882046297, -0.0246524606, -0.0354490802, -0.0181890242, 0.0868127346, -0.0829462558, 0.1583223343, 0.0133258980, 0.0716744512, -0.0768491924, -0.0746641830, -0.2498134822, -0.0675129816, 0.1350311041, -0.1011752337, 0.1137675270, 0.0246447194, 0.1276234388, 0.0275076870, 0.0372726135, 0.0347121693, 0.1562450826, -0.0552905686, 0.1046399698, -0.1191871241, -0.0405230299, -0.1425040513, -0.0015805792, 0.1237976030, -0.0155276367, 0.0026694783, -0.0508135036, 0.1024923250, 0.1051962227, 0.0797221810, 0.0847181007, -0.1152945757, 0.0871399194, -0.1445416957, 0.0534597673, -0.0201942995, -0.0754074454, -0.0247732587, 0.0418257490, -0.1548742801, 0.0345471725, -0.1343675703, 0.2200296521, -0.0472863279, 0.1590861231, 0.0618826561, 0.1319708079, -0.0546615347, 0.0936264694, -0.0010891581, 0.0189518910, 0.1647120714, -0.1350395381, -0.1340753436, 0.0415775627, 0.0354609527, 0.0682441443, 0.1129199490, 0.0598749891, 0.0213721953, -0.0944521204, 0.1545419246, -0.0359779187, -0.1052704155, 0.0997743458, -0.0148642529, -0.0653252155, -0.0396140926, 0.0548305362, -0.1319231987, -0.0297035705, -0.0904921740, 0.0242444091, 0.1114390418, -0.0030130427, -0.0680262819, 0.1518889815, 0.0436165631, -0.0086506112, -0.0253244117, -0.1228948161, -0.0987577215, 0.1136842445, 0.1456945837, -0.1248428822, 0.0869424418, 0.0641461909, 0.0855541900, 0.0809726417, 0.0646500587, -0.0814672112, 0.0415686406, -0.0594609790, 0.0768115744, 0.1078750938, 0.0114053935, -0.2967979312, -0.1588548422, 0.0508017428, 0.0299220979, -0.0304749161, -0.0248480607, -0.0866109505, 0.0047396407, 0.0426490568, -0.1240471750, -0.1311274618, -0.0063194125, 0.3188230693, -0.0798427463, 0.1112039611, -0.0652255490, 0.0053582718, -0.1130383387, -0.0515576042, -0.0635198504, -0.1644367129, 0.0859751552, 0.0073152846, -0.1944990605, 0.0817960650, 0.0784394890, 0.2476361543, -0.0962160155, -0.0255755391, 0.0617951751, 0.1697549522, -0.0372618064, 0.2182810456, 0.1042701453, -0.0526692346, 0.0962093100, -0.1334026605, 0.0312429424, 0.0050572380, 0.0687998310, 0.1265969127, 0.0662432536, -0.0143023673, 0.1000733823, 0.0098080076, -0.0264294185, -0.1831253022, -0.0784287751, 0.0366383269, 0.0128922844, 0.0275253821, 0.0613728426, 0.0858717263, -0.1615541279, -0.1110387146, 0.0339460075, -0.0931272879, -0.0831570923, 0.0756391361, -0.0170819666, 0.1358036846, -0.0238208957, -0.0123472633, -0.0734575316, -0.0728806779, -0.1447959691, 0.0061527342, 0.1057223082, -0.1571509987, -0.0486989953, 0.0445907228, 0.1070955396, -0.0224621017, 0.1272929013, 0.1275825948, 0.0500370525, -0.0495368019, -0.0407427549, 0.0786430538, 0.1002421677, -0.3198859394, -0.1171265543, -0.1246828809, 0.0938772857, 0.0212469399, 0.1183678284, 0.0852014720, 0.0687862560, -0.0222373214, -0.0897436291, -0.0045544174, -0.0049308520, 0.2051944137, -0.0843504965, -0.0182046555, -0.1734475195, -0.0764766261, 0.0701158345, -0.0751678124, -0.0538163669, -0.1227651164, 0.0622566752, 0.0382775255, -0.0771921352, -0.0727971867, 0.0892912373, 0.2204779685, 0.0260825790, -0.0003487931, 0.0285845697, -0.0980506986, -0.1129002273, 0.1317156553, -0.0106331147, 0.0273964871, -0.1790523380, 0.0787599459, 0.0726044104, 0.0138353445, 0.1376473606, 0.0430823825, -0.0239114761, -0.0600228198, 0.0010106809, -0.0137944333, -0.0133767081, -0.0916864723, 0.0164530836, 0.0048087500, 0.0079592671, -0.0438877605, -0.1034136713, 0.1418398619, -0.1304347813, -0.0554688014, -0.0182835758, 0.0119311530, -0.0136230784, 0.0282953512, -0.0923764929, 0.0308201388, 0.0202598739, 0.0457426384, -0.0866296887, -0.0909085944, 0.0095778443, 0.0299478639, -0.0927830040, -0.1257696748, -0.0478419103, -0.1612453908, -0.0239063781, 0.1227222681, 0.0134737855, 0.1096040979, -0.1534665078, 0.0742170289, 0.0845269039, -0.0893079117, 0.0570606142, -0.3496902585, -0.0930651650, -0.0250226650, 0.0409680605, -0.1022746637, 0.1118170917, 0.1428412050, 0.0945489407, -0.0952223316, 0.0679266527, 0.1627731621, 0.0083291903, -0.2257618904, -0.0498671643, 0.1110154465, -0.1189740151, 0.1179478914, 0.0957219973, -0.0027946536, -0.0453046486, -0.1814280003, -0.1517413408, -0.1007353961, -0.0120370938, 0.1078648567, 0.1309228092, 0.0293814261, -0.1099780425, 0.0682773143, -0.0987154171, -0.2103302181, -0.0499478020, -0.2984412014, 0.1469674408, 0.0031566254, -0.1555528343, -0.1036576107, -0.0423974395, 0.0830280706, 0.0739621893, 0.0644846335, 0.0007697533, -0.0528470129, 0.0778705627, -0.0960380509, -0.0699731261, 0.0126963314, -0.0019533338, 0.1603405029, 0.0155680245, 0.1136677563, 0.1158220842, -0.0946305245, -0.0509446040, -0.0551235266, -0.0250851754, -0.1045894995, 0.0115441037, -0.0347898602, -0.0291295033, 0.1308897436, 0.0129216434, -0.0569357611, -0.1019375175, -0.0118424715, -0.0536261313, -0.0043495987, 0.0407805778, -0.2215864956, 0.0174718890, -0.0730039775, -0.0374613889, -0.1661646068, 0.0816013366, 0.0359558277, -0.0272346418, 0.1312778443, 0.0479856580, -0.0611442700, -0.1374315172, -0.3041369319, -0.0728138015, -0.0828664675, -0.0872820392};
#endif

#endif
