//Numpy array shape [3, 3, 20, 1]
//Min -0.200363636017
//Max 0.309880822897
//Number of zeros 0

#ifndef W8_H_
#define W8_H_

#ifndef __SYNTHESIS__
model_default_t w8[180];
#else
model_default_t w8[180] = {0.1550831199, 0.0028108843, -0.1202158332, -0.0700321868, 0.1777974069, 0.0378142223, 0.0788322836, -0.0079761483, -0.0712643862, 0.0769346505, 0.0093122358, -0.1832526177, -0.0783619136, -0.0212358385, -0.1463135332, 0.0284827314, 0.1354942322, 0.0829350352, -0.1099759415, 0.1951599866, 0.0105946828, 0.1584108770, -0.0594013408, 0.1360433251, -0.1279793680, -0.0215004571, 0.0600664094, 0.2123865485, -0.1672614664, 0.1921428591, 0.1613634825, -0.0890604481, 0.2112625241, -0.0714470074, -0.1079694405, -0.1374673396, 0.0424516276, -0.1061131209, -0.1364012361, 0.1182516143, 0.0829394534, -0.0795620158, -0.1874848157, 0.2260786891, 0.0200960934, 0.1848608702, -0.0519105606, 0.2474772930, 0.1197288111, -0.0173157305, -0.1920402944, 0.1245850921, 0.0703611523, 0.1318656802, -0.0133186774, 0.0416459180, 0.0835645199, 0.0231980123, -0.0086356616, -0.1293136328, 0.1047398373, -0.0095720328, 0.1555683911, 0.1508727819, -0.1460708976, 0.1357724369, -0.0157727022, -0.0749138370, 0.1576872170, 0.1952082664, -0.0739378259, 0.1577136517, 0.1206524745, -0.1494720429, -0.0002244810, 0.1234529167, -0.1349615604, -0.1363308728, -0.1544560641, -0.0412386246, -0.1346528381, 0.1474871635, 0.2081287354, 0.2011883259, -0.1891791672, 0.0018902102, 0.0059393412, -0.1886667758, -0.1868386865, 0.3098808229, -0.0609786548, 0.1694397628, 0.1307514757, 0.1631053388, 0.0456589721, -0.0092410920, -0.0341122933, -0.0585720427, 0.0022844421, 0.1593328565, 0.0984478369, -0.0500360988, -0.0844487995, -0.0112441266, -0.0619056001, 0.1256843507, -0.1890390068, -0.1158599555, 0.0425530747, 0.0766854957, -0.1022782624, -0.0697686821, 0.2174399644, 0.1170629561, -0.0614886470, -0.0725407377, -0.1426701397, -0.1215729490, -0.0181125421, -0.0526431315, 0.0202875156, -0.0630211681, -0.0668725744, 0.1124474332, 0.1017596498, 0.0567714311, 0.2213976234, -0.1904205531, -0.1825053245, 0.2115184665, -0.1939265877, 0.0880237222, 0.0630605817, -0.0711577237, 0.0108258687, 0.1502642781, 0.0638960972, -0.0188067444, 0.0155145787, -0.0067799096, 0.0873859748, -0.0852942094, 0.1007568762, 0.0320548341, 0.0156546403, 0.1448210180, -0.0854157880, -0.2003636360, 0.0694397911, 0.0891760737, 0.0346756391, -0.1803978980, -0.0571103729, 0.0322290361, -0.0321122333, 0.0302445088, -0.0953308344, -0.1196325123, 0.1542249620, 0.0529039688, -0.0502230488, -0.1191414744, -0.0199406818, -0.0150383459, 0.1202458888, 0.0315618478, -0.1118607745, 0.0776244998, 0.1565958411, 0.1527713239, -0.0779173672, -0.0777649805, 0.0347466655, 0.0996158719, 0.1680518240, -0.1227204651, 0.0035752957, -0.0624300204, -0.1301241219, 0.1425915360};
#endif

#endif
