//Numpy array shape [4000, 5]
//Min -0.367000102997
//Max 0.366957515478
//Number of zeros 0

#ifndef W14_H_
#define W14_H_

#ifndef __SYNTHESIS__
dense_271_weight_t w14[20000];
#else
dense_271_weight_t w14[20000] = {0.0069471388, -0.0362872146, 0.0748614520, 0.0363224000, -0.1082272753, -0.0016419836, -0.0132926209, -0.0911593884, -0.0415999666, -0.0168789923, 0.0202363394, 0.0627416670, -0.0277858265, -0.0148264524, -0.0801909119, 0.0585782975, -0.0206212718, -0.0487100929, 0.0438507348, 0.0002287775, 0.1283572912, 0.1467200816, 0.0422020666, 0.0133687370, -0.0078875516, -0.1040563285, 0.0085892230, -0.0461552665, -0.0575966053, 0.0890198573, 0.0480953753, -0.0680815652, -0.0031626588, -0.0548186004, -0.0578450486, -0.0422474779, -0.0763043016, -0.0641372651, 0.0645461380, 0.0172682647, 0.0815900639, -0.0395130925, 0.0252653826, 0.0158980992, -0.0377379209, -0.0088535352, -0.0052432534, -0.1102678403, -0.0326500498, -0.0379563160, 0.0187509526, 0.0803677365, -0.0811482444, -0.0482744463, -0.0384928621, -0.0578603223, 0.0335609652, -0.0220330358, 0.0685119703, -0.0752111077, 0.1254825592, 0.0504960045, 0.0178761780, 0.0571558923, 0.0618124790, -0.1282239556, 0.0070093330, -0.0226169806, -0.0994168147, 0.1089582816, 0.0952232704, -0.0546905175, 0.0053949747, -0.0448310524, -0.0875493065, 0.0130300391, -0.0128345173, 0.0091603762, 0.0213985108, 0.0089259995, 0.0554875806, 0.0411299914, 0.0015622055, -0.0924874395, 0.0476258285, 0.0353004336, -0.0604911074, -0.0933512449, -0.0304802451, -0.0741874799, -0.0007366232, 0.0230159592, -0.0914229006, -0.0180827379, -0.0170688704, -0.0343173146, -0.0214254335, 0.0398019776, 0.0457716957, -0.0050731902, 0.1335168481, 0.0824545845, -0.0330070704, 0.0806547552, -0.0275304653, -0.0896323249, -0.0109041445, -0.0482053868, -0.1017575487, 0.1451615542, 0.0138249248, -0.0258443877, 0.0208886098, -0.0232696179, -0.0932988748, -0.0326657519, -0.0402130298, -0.0136287464, -0.0249534491, -0.1031478196, 0.0181853585, 0.0293224789, -0.0593318902, 0.0102577293, -0.0169614423, 0.0079139210, 0.0082132071, -0.0370397754, 0.0082263248, -0.0531936772, -0.0139562804, 0.0468505360, -0.0880996436, -0.0370058529, -0.0224765744, -0.0279106405, -0.0000602188, -0.0068698875, 0.0388540514, -0.0379975773, 0.0638201982, 0.0138341747, -0.0286994502, 0.0513161384, 0.0427485034, -0.0368736647, -0.0368699729, 0.0086718062, -0.0422908440, 0.0877285004, 0.0131885884, -0.1147399843, 0.0069794790, -0.0376384966, -0.0010199813, 0.0039350344, 0.0083669005, 0.0047543310, 0.0262519531, -0.0864156410, 0.0117588937, -0.0395639762, -0.0052427519, 0.0091531128, -0.0018114300, -0.0723949447, -0.0359533057, -0.0555921905, -0.0397246480, 0.0282182433, -0.0033277739, 0.0691128820, -0.0482252613, 0.1117387190, -0.0068037468, -0.0913197175, -0.0480911247, 0.0188926980, -0.0290679745, -0.0369278602, 0.1200388521, 0.0778759196, 0.0153706549, 0.1741595566, 0.0956033766, -0.0789423063, 0.0380034298, 0.0218939912, -0.0635975674, 0.1248855963, 0.0542817377, -0.1015146002, 0.0463744253, 0.0414676182, -0.0629996657, -0.0074938377, 0.0110837445, 0.0705583021, -0.0118705239, -0.0490538962, 0.0617506802, -0.0702734664, -0.0250795390, 0.0012970706, -0.0255970713, 0.0618272461, -0.0458575338, -0.0859278142, -0.0941457972, -0.0678975508, -0.0788434669, 0.0488051735, -0.0831751898, -0.0462373197, 0.0490283333, -0.0358994417, -0.0377284661, 0.0072332672, -0.0157709420, -0.0825710744, 0.0057023237, -0.0287205763, 0.0573017150, 0.0780860335, 0.0411674120, -0.0301080290, -0.0921813175, 0.0506713428, -0.0267926231, 0.0531024933, -0.0058449130, -0.0647445098, 0.0017385826, 0.0304538179, -0.1813606918, -0.0250533186, 0.0276974272, 0.0686874017, 0.0254953671, -0.0635242984, -0.0165874138, 0.0105430838, -0.0581872351, -0.0829708949, 0.0643456355, 0.0256996509, -0.0366380252, -0.0890765786, -0.0905889124, -0.0462083071, -0.0306478534, 0.1376171708, -0.0893934667, -0.0106280316, 0.0341004692, -0.0411962532, -0.0034203567, -0.0597222075, -0.0501277596, -0.0043235430, 0.0490275770, -0.0152957095, 0.0232404061, 0.0973937288, 0.0458158776, -0.0516948923, -0.0442775004, -0.0104920818, 0.0368547402, 0.1434811503, 0.0323024690, -0.0842131227, 0.0088493694, -0.0416722037, -0.1107260883, -0.0484226979, -0.0207351502, 0.1074674055, -0.0662173405, -0.0524749681, -0.0060241460, -0.0857596919, 0.0323820077, -0.1640168726, 0.0102018612, 0.0344533622, -0.0437512212, -0.0889923796, -0.0958885327, 0.0202890653, -0.0454204939, 0.0650307536, -0.0537885316, -0.0000001204, -0.0680146143, -0.0308242720, 0.0017523785, -0.0165804755, 0.0306289699, -0.0123588312, 0.1909639835, 0.0453830101, 0.0442660563, 0.0455745459, -0.0343763903, -0.0867695659, -0.0115267755, 0.0385970585, -0.0207001902, 0.1903129071, 0.1419257671, -0.0102297664, -0.0334382579, -0.0222585779, -0.1518178880, -0.0530223474, -0.0390853696, 0.0239199866, -0.0046178508, 0.0515679568, 0.0378405526, 0.0114580020, 0.0309521146, -0.0404276848, -0.0316071659, -0.0536895469, -0.0078984089, -0.0682493299, -0.0489194281, -0.0503537171, -0.0082245497, -0.0142256645, -0.0257373285, -0.0338667408, -0.0164875630, 0.0567208417, -0.1335391402, -0.0312306080, -0.0114726853, 0.0332145728, 0.0337741822, -0.0020080404, -0.0655821115, 0.0583573319, -0.0142896520, -0.0981252566, -0.0412358083, -0.1149719208, -0.0507342033, 0.2202744633, 0.0110475980, -0.0643135756, 0.0221935380, -0.0369344279, -0.1658061743, 0.0009530215, -0.0234107766, 0.0576197580, -0.0133997174, -0.0276211742, -0.0174961146, -0.0181334335, 0.0075628194, -0.0817802176, -0.1033482179, 0.0054245703, 0.0177299716, 0.0049201590, 0.0287748408, 0.0101504400, -0.0115242489, 0.0169587210, 0.0071803601, 0.0071659996, -0.0567012802, 0.0472097956, -0.0442854501, -0.0148114795, 0.0977648124, 0.0263516773, 0.2123854905, 0.0670382157, -0.0307464581, 0.0269527826, 0.0558313206, -0.0435277857, -0.0053031496, 0.0039020202, -0.0788783059, 0.1325248033, 0.0975297317, -0.0422187597, 0.0676349103, 0.0073447772, -0.0268833730, -0.0023723207, 0.0246047489, -0.0581229702, 0.0242361762, 0.0188248511, -0.0014536986, -0.0732855201, -0.0539443791, 0.0011087604, -0.1218510419, 0.0367256030, -0.1364278197, -0.1314321458, -0.0920948088, -0.0046865460, -0.0078561911, -0.0610197820, -0.0339940749, -0.0856010243, -0.0523849949, 0.0668514222, 0.0114320032, -0.0302053150, 0.1045762226, 0.0100560430, 0.1500983089, 0.0974945575, 0.0091119939, -0.0270006247, 0.0909400657, -0.0581660233, 0.0499007739, -0.0457309149, 0.0077876789, 0.1352882683, -0.0042803693, -0.0379150845, 0.0073750275, 0.0186708290, -0.0941012725, 0.0398701467, -0.0761775896, -0.0691043809, 0.0263885595, 0.0135981152, 0.0904489383, -0.0346607417, -0.1102056131, 0.0036848204, 0.0105413171, 0.0816313401, -0.0119642699, -0.0458132364, 0.0659981295, -0.0406287014, -0.0414886065, 0.0309385229, -0.0507837720, -0.1259056628, -0.0177605879, 0.0689612627, 0.0021923669, -0.0002952312, 0.0416345224, -0.0454477295, 0.0982385203, -0.0153179746, 0.0227782652, -0.0029674845, 0.0009197874, -0.0986183882, -0.0723903850, 0.0274442304, -0.0732134879, 0.1516431570, 0.0371198915, -0.0520620532, -0.0092821335, -0.0090867104, -0.0062069269, 0.0310335029, -0.0057578282, -0.0550123081, 0.0140456716, 0.0102787456, 0.0898739398, 0.0648808032, -0.0006041893, -0.0451069102, -0.0111375675, -0.0255086571, -0.0476433672, -0.2315799445, 0.0423893370, -0.0579337589, 0.0288354177, 0.0185194761, -0.0860457271, -0.1855172813, -0.0949282050, 0.0583424941, -0.0383263417, -0.0260300543, 0.0147751393, -0.0667945221, 0.1096253693, -0.0164457373, 0.0223535988, 0.0411007963, 0.0740889758, -0.0335037597, 0.0452302694, -0.0132706426, -0.1582478583, 0.1720508486, 0.0316479504, -0.0762652159, 0.0221155714, 0.0029948249, -0.1154280752, 0.0243553836, 0.0557979420, 0.0955164954, -0.0118827941, -0.0091113662, 0.0127992993, 0.0064018550, -0.0511266477, 0.0812163949, -0.0066188606, 0.0187545940, 0.0057360814, -0.1380245984, 0.0617405027, -0.0214617532, -0.0245339423, -0.0471679941, 0.0012212838, -0.0004841345, -0.0151290437, 0.0377005376, -0.0115764095, 0.1072181463, -0.0037885618, 0.0051753577, 0.1321662068, -0.0410991237, -0.0390402265, 0.0474401824, 0.0376447327, -0.0158076938, -0.0781424344, -0.0224254262, -0.0138931246, 0.0754760131, -0.0665972009, -0.0859616399, 0.0165168494, 0.0059243408, -0.0312714502, -0.0084666423, -0.0037759878, 0.0270754993, -0.0282141995, -0.0670688078, 0.0390467495, -0.0553569682, 0.0651412383, 0.0035102773, -0.0078979088, -0.0188046433, -0.0337756835, -0.0710722953, -0.0445426702, -0.0664806738, -0.0300542936, 0.0225467011, -0.0663142800, -0.0184652284, -0.0025639532, -0.0304990970, 0.0001171240, -0.0330589414, 0.0819598138, -0.0296939351, 0.1268063635, 0.0622072890, -0.0290528182, 0.0409127176, 0.0353660174, -0.0363256894, 0.0134073626, 0.0857675895, -0.1039475277, 0.1420157999, 0.0009187008, -0.0712871104, 0.0360956974, -0.0010889568, -0.1162321419, -0.0603705756, 0.0189248808, 0.0208824296, -0.0402338952, -0.0775508881, -0.0229518246, -0.0483483560, 0.0053865574, -0.0054073716, 0.0309104323, -0.0357991382, -0.0270973463, -0.1052965373, -0.0386043750, -0.0123829227, 0.0365282446, 0.0801687241, -0.1043655574, -0.0151220653, -0.0297536906, -0.0378190205, 0.0133374315, 0.0018077055, 0.0216749962, -0.0170852225, 0.0251158029, -0.0116195465, 0.0241495222, 0.0015242768, 0.0209381301, -0.0523643717, -0.0966499671, -0.0120810820, -0.0544825010, 0.1152361408, 0.0898770168, -0.0475000963, -0.0756218582, -0.0265575200, -0.0674438924, -0.0777394325, 0.0506966971, 0.0283447504, -0.0153322527, -0.0604005679, -0.0316204652, -0.0291992091, -0.0119713685, -0.0224737134, 0.0062489281, -0.0395225137, -0.0000118848, -0.0479257032, -0.0507728122, -0.0243998654, -0.0611565188, 0.0047867508, -0.0411155224, -0.0273672119, 0.0283880681, 0.0841006935, 0.0183247160, -0.0339711718, 0.0587375611, -0.0289353896, 0.0801704228, 0.0211262349, 0.0369790420, -0.0065334034, -0.0061687543, -0.0180943161, -0.0103430860, 0.0134318126, 0.0346854441, 0.1194093078, 0.0486400984, -0.0266176052, 0.0595411845, 0.0321775936, -0.0604807213, -0.0273791254, -0.0104061477, 0.0916000307, 0.0130961584, -0.0752615035, 0.0055943769, -0.0372655839, -0.0189525988, -0.0734179914, -0.0121114412, 0.0447561033, 0.0396155082, -0.1512409002, -0.0477694459, -0.0572922193, -0.0369826406, 0.0554892011, -0.0089338655, -0.0724498555, -0.0041297516, 0.1253819764, -0.0011506841, -0.0733121634, 0.0058715325, 0.0366075635, 0.1424020976, 0.0736926347, 0.0018205724, -0.0058057848, 0.0677300468, -0.0575485229, -0.0459313281, 0.0394515693, -0.0524416491, 0.1449094713, 0.0654002056, -0.0594344959, -0.0392037630, -0.0222155061, -0.0904027224, 0.0551702827, -0.0611963980, -0.0134698609, 0.0144370776, -0.0958736539, -0.0039655557, 0.0030142795, 0.0230775829, -0.0977306738, -0.0667557195, 0.0337257832, -0.0104739163, -0.0547260307, -0.0118195992, 0.0165970102, -0.0057244487, 0.0522891507, -0.0668389350, 0.0377768129, -0.0564429127, 0.0368343368, -0.0275589470, 0.0215901285, -0.0156122716, -0.0523454808, 0.1877236068, -0.0392991453, -0.0616862290, 0.0829652622, 0.0115288440, -0.1721366942, 0.1049583927, -0.0578879490, -0.0011678791, 0.0486247167, 0.0780311078, -0.1110211983, -0.0460865311, -0.0464192182, 0.0201709699, 0.0655878857, -0.0061992649, -0.0621335991, 0.0354120582, 0.0803844035, 0.0286832042, -0.0948954374, -0.0221579876, -0.0663200617, 0.0176613089, -0.0032862562, -0.0333638564, -0.0618737824, 0.0333289020, 0.0560977682, -0.0787597373, 0.1051812693, -0.0660542548, -0.0736971796, 0.0282992795, 0.0586610995, -0.0278609451, 0.0170399696, 0.0524045341, -0.0312319826, 0.1495247632, 0.0688355640, -0.0138977496, 0.0936332121, -0.0145596918, -0.0535004735, 0.0141323749, -0.0365422815, -0.0518353395, 0.1657332331, 0.0173935927, -0.0251565911, -0.0306867380, 0.0527297482, -0.0770219639, -0.0513241962, -0.0988965183, 0.0115490276, 0.0018259560, 0.0014722659, 0.0370204002, -0.0303085987, -0.0608095080, 0.0523113087, -0.0622500405, 0.0997205079, 0.0408146381, -0.0871258602, -0.0118668806, -0.0441637225, -0.0464718603, 0.0398974121, -0.0668262243, -0.1190979853, -0.0835345164, 0.0716701150, -0.1035159081, -0.0202109832, 0.0185994990, -0.0272972938, 0.1546338201, 0.0815153569, -0.0755959377, -0.0531122610, 0.0701092109, 0.0433466993, -0.0083826948, -0.0548066795, -0.1295642108, 0.0887001529, 0.1491397470, -0.1090074703, -0.0577501431, 0.0473494790, -0.0178983081, -0.0330949686, 0.0148961218, -0.0271757916, 0.0715039894, -0.0547127947, 0.0336242877, -0.0942092985, -0.1030507982, -0.0466819257, -0.0696530864, 0.0589572676, -0.0611472540, -0.0907409117, -0.0502346605, -0.0458361953, 0.0332178585, 0.1019188762, -0.0800321624, -0.1118080616, -0.0218790285, 0.0714262128, -0.1094711721, -0.0394161418, 0.0665743053, -0.0583581254, 0.0359684825, 0.0343248881, 0.0263706036, 0.0443269834, 0.0486008935, -0.0814748257, -0.0426498353, -0.0577552430, -0.0484576002, 0.1360694915, 0.0767944679, -0.0426119491, 0.0027744279, 0.0192072205, -0.0737764686, 0.0130541166, -0.0140146781, -0.0693414211, 0.0266228840, 0.1086833552, 0.1108974814, -0.0096438164, -0.1533611119, -0.0515117534, -0.0153810652, 0.0330740251, 0.0794722736, -0.0391987264, 0.0756654441, -0.1331935972, -0.0498885512, 0.0375757813, -0.0905130953, -0.1320950538, -0.0211869441, -0.0352380909, -0.0202618279, -0.0476774015, 0.0669012368, -0.0580365397, 0.0832741931, 0.0456986055, -0.0735403001, -0.0623061731, 0.0460518561, 0.0302054007, -0.0936564431, 0.0242074691, -0.1885083169, 0.1915435791, 0.1399866194, -0.0691599399, -0.0002043000, -0.0134529779, -0.0981003195, 0.0095897783, -0.0396350697, -0.0156318322, -0.0027066786, -0.1313926280, 0.0755394623, -0.0704347640, -0.1281421930, -0.0693488196, -0.0682291016, 0.0793670863, 0.0146578345, -0.0564879514, -0.0251260493, -0.0574485622, -0.0382371880, -0.0558803789, -0.0998303220, -0.1723096222, 0.0037648713, 0.0871046484, -0.0138212591, 0.0222609714, 0.0531646125, -0.0828732848, -0.0388259478, 0.0593437701, 0.0007131152, -0.0373215489, -0.0440056287, 0.0667590871, -0.0722505078, -0.0468926281, -0.0427930281, 0.1494229287, 0.0608245172, -0.0696161538, 0.0480226465, 0.0228870530, -0.0469220504, -0.0382061042, 0.0573831126, -0.0012610735, 0.1000554711, -0.0574429147, 0.0235773474, -0.0105975429, -0.0707167834, -0.0863221362, -0.0762882307, 0.1008817330, 0.1237075776, -0.1322828084, 0.0814646184, -0.0385459773, -0.0098039629, -0.0374712087, -0.0890999362, -0.1552034467, 0.0046066418, 0.0409894511, -0.0007680711, 0.0026720390, 0.0644619465, -0.0222807545, 0.1416479051, 0.0011763425, -0.0576468855, -0.0046070376, -0.0572886653, 0.0528426059, -0.1080632508, 0.0053878832, -0.0106429942, 0.0824735165, 0.0855667144, -0.0264011547, -0.0192302261, 0.0359130129, -0.0627983212, -0.0061482647, -0.0069650114, -0.0408707596, 0.0206351653, -0.0715855137, 0.0237409119, -0.0358819440, -0.1361811310, -0.0481630675, -0.0588010065, 0.0191349015, 0.0961440727, -0.0181552265, 0.0017269535, -0.0466194823, 0.0159949046, 0.0374782272, -0.0207537357, -0.0950784683, -0.0304900073, 0.0953211486, -0.0501547977, 0.0169886481, 0.0676409528, -0.0443120040, 0.1092872843, 0.0223960690, -0.0562734976, 0.0350977965, -0.0275390074, 0.0167943500, -0.0539734028, -0.0304789413, -0.1070076451, 0.0299746562, 0.0939246863, -0.0207739379, -0.0219980478, 0.0312886946, 0.0622278973, 0.0221285559, 0.0810129717, -0.0043460731, -0.0210266877, -0.0297758467, 0.0980860218, -0.0543776304, -0.0534772389, -0.0538325384, -0.0455475636, 0.0820244849, 0.0298718419, -0.1244421750, -0.0695320144, -0.0259073172, -0.1047827899, 0.0110520814, -0.0851291344, -0.0755945072, -0.0277350470, 0.0662745982, -0.0028008048, -0.0702983439, 0.0679124370, -0.0661002919, 0.1270581931, -0.0599288866, -0.0309004374, 0.0658296123, 0.0097047547, 0.0108172921, -0.1014000401, -0.0636573806, -0.1179096624, 0.0730991140, 0.1071985438, -0.0818189979, -0.0235834811, 0.0045116032, 0.0482907929, -0.0625559911, 0.0242118966, -0.0300778002, 0.0578734912, -0.0121710151, 0.0757803693, -0.0165704675, -0.0990531519, 0.0016914783, -0.0600352027, -0.0134553825, 0.0208649747, -0.0457286164, 0.0223165173, -0.0213857684, 0.0434501506, 0.0271405298, -0.1077538133, -0.1441093385, -0.0727317482, 0.0838920102, -0.0504509658, -0.0014107443, 0.0409285873, -0.0081568342, 0.0303714424, 0.0117027713, -0.0423363075, -0.0243102405, -0.0488886498, 0.0192714892, -0.0315862484, -0.0470783673, -0.1203343943, 0.1447128505, 0.1487784684, -0.0278910901, 0.0541526824, -0.0197083838, -0.1010203958, -0.0016378114, 0.0866081566, -0.0880460367, 0.0628434196, 0.0366947725, 0.0273457710, 0.0577538796, -0.0858936384, 0.0924085751, -0.0828420520, 0.0858642086, -0.0644838959, -0.0491937511, -0.0029610966, 0.0139247645, -0.0805104896, 0.0134416958, -0.0779338852, -0.1077848971, 0.0016988211, 0.0573858060, -0.0973012745, -0.0089330534, 0.0721175149, -0.1323889345, 0.1529535204, 0.0118375802, -0.0475636199, 0.0260620881, 0.0479407944, 0.0082089119, -0.1092279330, -0.0569982566, -0.1015606299, -0.0209106989, 0.1661266088, -0.0272240695, 0.0375568755, -0.0155022759, 0.0503752790, -0.0273353923, 0.0201673377, -0.0668915063, 0.0567887910, -0.0202973355, 0.0079858815, -0.0651129261, -0.0238524452, 0.0685036927, -0.0917839184, 0.0741582662, 0.0876348466, -0.1373541802, 0.0076470138, -0.0182669498, 0.0078565767, -0.0044149752, -0.1137541458, -0.2380349636, -0.0211869404, 0.0675619543, -0.0905361101, -0.0207280871, 0.0590360165, -0.0478085726, 0.1444328576, 0.1110033095, -0.0721797347, -0.0250839647, 0.0564524084, -0.0486348271, -0.0429548025, -0.0577934794, -0.1342175007, 0.0565807447, 0.1782817394, -0.0902203694, 0.0051033748, 0.0260799229, 0.0493438095, 0.0211005863, 0.0811676309, -0.0800744519, 0.0843806863, -0.0074325125, 0.1333814859, 0.0083343610, -0.0911260098, 0.0259613805, -0.0865222663, 0.0782611743, 0.0560357571, -0.1498602927, 0.0233399365, -0.0157891382, -0.0479517318, -0.0189338233, -0.0794302821, -0.1538083404, 0.0262739528, 0.1765216589, -0.0386313647, 0.0468178019, 0.0809741691, -0.1027154103, 0.1285132170, -0.0044446178, -0.1505766064, 0.0679038689, 0.0103933467, -0.0474510454, -0.0935336575, -0.0763858184, -0.0887024403, 0.1137841195, 0.1433101445, -0.1458081901, 0.0586112104, 0.0544180423, -0.0185301434, 0.0509609953, 0.0674706846, -0.0967960656, 0.0803174227, -0.0874761268, 0.1296249628, -0.0676450506, -0.0882770419, -0.0365699567, -0.1809930056, 0.1020853147, 0.0182667859, -0.1962110102, 0.0030776747, -0.0987119079, -0.0511762574, 0.0122003984, -0.0740676820, -0.1649102122, -0.0269557443, 0.1291677654, -0.0642715022, -0.0263775904, 0.1264216751, 0.0006570147, 0.0984284431, 0.0819786713, -0.0996290147, -0.0212425366, -0.0268828776, -0.0179837700, -0.0191733707, -0.0831418186, -0.1453621387, 0.1102272943, 0.0999248847, -0.1353572756, -0.0618886575, -0.0090131517, -0.0326796770, 0.0201888457, -0.0238827337, -0.0429659300, 0.0622657239, -0.0242360644, 0.0961449519, -0.0414608344, -0.1296730340, -0.0364252515, -0.0669257343, -0.0001759903, 0.0544970334, 0.0048045442, -0.0303716976, -0.0578154325, -0.0081192944, -0.0510641485, -0.1144827679, -0.1185354218, -0.0084075471, 0.0690380335, -0.0013787095, 0.0388725102, 0.0810572729, -0.0342104360, 0.1184963807, 0.0989472568, -0.0916109234, -0.0754272491, -0.0423434973, -0.0714005008, -0.1029978245, -0.0593118705, -0.2093799859, 0.1175334528, 0.0893165991, -0.1685684770, -0.0433745459, 0.0178128406, 0.0857506096, 0.0360539071, 0.0037040748, -0.0017353072, 0.0155125391, -0.0247501787, 0.0880669504, -0.0178649239, -0.1082285047, -0.0385116823, -0.1320431828, 0.0668217540, 0.0215956066, -0.0541499108, 0.0443945006, -0.0341214463, -0.0085912095, -0.0249913707, -0.1149683669, -0.1187597662, 0.0056284815, 0.1235784069, -0.0635662824, -0.0246600881, 0.0178959686, -0.0360619612, 0.0936143547, 0.0570719354, -0.0825793520, 0.0204790737, 0.0067416467, -0.0341371298, -0.0823019519, -0.0867489651, -0.0888033137, 0.1124750376, 0.0893591642, -0.1415208131, -0.0241257399, 0.0877226889, -0.1340677887, -0.0315526426, 0.0067849811, -0.0321172141, 0.0706442893, 0.0478990152, 0.1322256178, -0.0908366069, -0.1399251074, 0.0593245961, -0.0500347577, 0.0843669251, 0.1255035102, -0.0783587620, 0.0410867333, -0.0996884108, -0.0065782163, 0.0533954091, -0.0840007067, -0.1703349203, -0.0204523541, 0.2049578279, 0.0217290800, 0.0803665444, 0.0072310679, -0.0715504289, 0.0739482492, 0.0163197890, -0.0858270600, -0.0066672196, 0.0616535209, 0.0275764484, -0.1592098325, -0.0842525735, -0.0774595961, 0.1593264788, 0.0648925900, -0.1811251193, 0.0424249768, 0.0048664259, 0.0036517293, 0.0334153138, 0.0059900056, 0.0812134892, 0.0895761549, -0.0628480837, 0.0679229051, 0.0376622751, -0.1353878975, 0.0425153971, -0.1004197747, 0.0683826879, 0.0853352919, -0.0798639506, 0.0016757323, -0.0450366884, -0.0313583314, -0.0747868121, -0.1029201001, -0.0711408034, 0.0370142274, 0.1161620915, -0.0666494593, -0.0274173785, 0.0151306512, -0.0697675869, 0.1046804190, 0.0165840089, -0.1084705666, -0.0002255801, 0.1216715351, -0.0179790948, -0.1376421750, -0.1084906608, -0.0354207642, 0.2081147432, 0.0439627245, -0.1635386646, 0.0227553174, 0.0166768339, 0.0107977511, 0.0289742127, 0.1128614768, -0.0420316495, 0.0257849004, -0.1054000333, 0.0826146752, 0.0090457918, -0.1355636716, -0.0456656963, -0.0439055525, 0.0992996991, 0.0815195218, -0.1505462229, 0.0502855144, -0.0616253875, 0.0119310375, -0.0310906284, -0.1052798554, -0.0655828938, -0.0182147622, 0.1027989164, -0.0784446001, 0.0130938804, 0.0612387396, -0.0076987832, 0.1588685960, 0.0872696564, -0.0563439317, 0.0191068761, 0.0085898517, -0.0408710092, -0.0586352311, -0.0540702529, -0.1030123606, 0.1185169667, 0.1078507081, -0.1186862066, -0.0096133556, -0.0556722023, -0.1005999371, 0.0214475002, 0.0416972637, -0.0267192554, -0.0000213813, -0.0203720964, 0.0421029441, 0.0305236578, -0.0639940575, -0.1263571978, -0.1895637214, 0.0821055025, 0.0713109747, -0.2096434236, 0.0603130646, -0.0756430551, 0.0002050818, -0.0078949165, -0.0649299324, -0.1497140378, -0.0457157120, 0.1084688827, -0.0294157974, -0.0054935343, 0.0313161537, -0.0998551324, 0.0545559227, 0.0469641685, -0.0665619522, -0.0585980117, 0.0211235471, 0.0533616953, -0.0275308937, -0.0169955324, -0.0861160457, 0.0357370824, 0.1843582243, -0.2504887581, 0.0001307663, 0.0446566902, -0.0116060339, -0.0086509250, -0.0284770429, -0.0588316917, 0.0573390499, -0.0149931982, 0.0482835695, 0.0207353942, -0.0426378660, 0.0136491423, -0.0900829285, 0.0768885761, 0.0374381021, -0.1075914055, 0.0902382657, -0.1301220953, -0.0043103565, -0.0180637352, -0.0736006647, -0.1509864181, -0.0426549688, 0.0890156999, -0.0257149991, 0.0568190925, -0.0244485177, -0.0332328863, 0.0030514414, 0.0800948292, -0.0766153038, 0.0105898725, 0.0404025093, -0.0392939113, -0.0985299200, -0.0132324696, -0.0578896441, 0.0967350975, 0.1178958938, -0.1391638070, -0.0265288502, 0.0435077213, 0.0151323676, 0.0199960321, 0.1018515602, 0.0373559557, 0.1045472175, -0.0079232063, 0.1144685969, -0.0195639990, -0.0743537173, 0.0276793037, -0.0601151176, 0.1010255367, 0.0621211380, -0.1550784260, 0.0323444977, 0.0377435721, -0.0961487070, 0.0591224954, -0.0924466401, -0.0446806028, 0.0059479764, 0.1026964858, -0.0595968999, 0.1067782491, 0.1666417569, -0.0052821767, 0.2165087610, 0.0304050464, -0.0948086902, 0.0153584853, 0.0889007449, -0.0045103030, -0.0182511806, -0.0167895947, -0.2189403772, 0.0813331679, 0.0651452020, -0.0274762306, 0.0322475433, -0.0108147198, -0.0432800688, 0.0133324508, 0.0802244991, -0.1032091975, 0.0336403921, 0.0356890820, 0.0641002208, -0.0437513590, -0.1653220952, 0.1102723926, -0.1616117805, 0.1059375331, 0.1173318401, -0.1214853525, 0.0102732107, -0.0394248180, -0.0278703757, 0.0255030096, 0.0080408361, -0.2646372020, -0.0503450818, 0.1460296065, -0.0947052762, 0.0072414232, 0.1064770147, -0.1068638191, 0.1586773694, 0.0997418612, -0.0799348205, 0.0540669113, 0.0815914124, -0.0085256137, -0.0901163444, -0.0782921836, -0.1338676512, 0.1457162052, 0.1377896965, -0.1173860207, 0.0198487621, 0.0252831690, -0.0230683405, 0.0735948235, 0.0957169309, -0.0805416033, 0.1140023097, -0.0757134259, 0.0442808643, 0.0294024497, -0.1600679606, -0.0012812277, -0.1427308321, 0.1435036063, 0.0642848164, -0.0711036399, 0.0652329475, -0.0752391443, 0.0151612228, -0.0123452274, -0.1054471582, -0.2321879715, 0.0449237302, 0.1020188704, -0.0776670054, 0.0365659520, 0.0089618368, -0.0290851463, 0.1653050631, -0.0082058897, -0.0785728991, -0.0399163552, 0.0171610210, -0.1010830328, -0.0496022664, -0.0773142353, -0.0483206809, 0.1648443490, 0.1088185534, -0.1875522584, 0.0342697650, -0.0272832774, 0.0756180957, 0.0236608721, 0.0145268738, -0.1221492961, 0.1090894192, 0.0660610273, 0.0276108515, 0.0407231860, -0.0928349048, 0.0328419246, -0.1361106783, 0.1209711656, 0.0620308705, -0.2159775645, 0.0383878723, -0.0853070021, -0.1608597785, -0.0037525683, -0.0959010273, -0.2288883030, 0.0798796564, 0.1351146549, -0.1223430187, 0.0215796959, 0.0558403917, -0.0574088022, 0.0368291996, 0.0590262674, -0.1634096950, -0.0174506754, 0.0199553780, 0.0619947277, -0.0778177679, -0.0537025556, -0.2277172059, 0.1229866892, 0.0920525938, -0.0817922652, -0.0594490990, 0.0036940160, 0.0269486569, 0.0348887183, 0.0223199651, -0.1215930432, 0.1151097417, -0.0992204100, 0.0952949598, -0.0565516986, -0.1220550388, -0.0279063135, -0.1230313629, 0.1213450730, 0.0872513205, -0.0696503147, 0.0206507891, -0.1211608872, -0.0664005801, -0.0227132626, -0.0852439702, -0.1459689140, -0.0334673934, 0.1116570160, -0.0037349737, -0.0356055759, 0.0583845861, -0.0999652520, 0.0941806287, 0.1701199710, -0.0529118031, 0.0112720253, -0.0256767832, 0.0657614470, -0.1599803865, -0.0495588928, -0.1658094227, 0.2099945396, 0.1012716740, -0.1567900926, 0.0185551196, 0.0578873307, 0.0305765774, -0.0292713400, 0.1053095087, -0.0559875108, 0.0245527532, -0.0078934506, 0.0921698287, -0.0405348018, -0.0761041194, 0.1748861223, -0.1079344973, 0.1717334390, 0.0985963270, -0.1404432803, -0.0199335832, -0.1094247103, -0.0628090575, -0.0389380455, -0.0565657951, -0.1701548547, -0.0002833442, 0.1331762522, 0.0587316006, 0.0319177695, 0.0603667907, -0.0443381183, 0.1846105605, 0.0526119508, -0.1230629757, -0.0282362755, 0.0465559065, 0.0592992380, -0.0782856271, -0.0186959896, -0.1306239367, 0.1355871707, 0.0627393797, -0.1628224105, -0.0414999127, 0.0019860968, -0.0426011197, 0.0613110028, 0.0890732408, 0.0021463488, 0.0221467838, -0.1110759452, 0.1079176813, -0.0184368175, -0.2185096890, 0.0910970494, -0.0782648176, 0.0570340864, 0.1036801711, -0.1044220924, 0.0953233987, -0.0854412317, -0.0404483862, 0.0162430294, -0.0930431262, -0.1278200895, -0.0061263610, 0.1296466440, 0.0204480048, -0.0013808541, 0.0548286848, -0.0978370011, 0.0962772965, 0.0404211059, -0.0936596543, -0.0671897233, 0.0205540434, 0.0884950534, -0.1157316491, -0.0900175348, -0.1244168207, 0.0759409592, 0.0719595253, -0.2510720789, 0.0027717315, 0.0108796339, 0.0530984849, 0.0672676414, 0.1250866205, -0.0652782992, -0.0044965954, -0.0064400872, 0.1384009719, -0.0065243877, -0.1805906296, 0.0298902448, -0.1078550816, 0.1133903116, 0.1042413712, -0.0271680951, 0.0528799742, -0.0825702697, -0.0196571127, -0.0408873521, -0.1091328263, -0.2724757195, 0.0001188950, 0.1273849308, -0.0657935366, 0.0567905828, 0.0584372245, -0.0748804137, 0.0978321806, 0.0668892786, -0.1255325079, -0.0300725382, -0.0185100473, 0.1201443970, -0.1760174781, -0.1016597226, -0.0433810428, 0.0645603836, 0.0868516639, -0.0798134804, -0.0123588741, 0.0081949504, 0.0128468359, 0.0479266420, 0.0801117271, -0.0767185166, 0.0963762179, -0.1155887842, 0.1439593285, -0.0144244339, -0.2236512154, 0.0049279789, -0.1118828654, 0.0915259048, 0.1226486862, -0.0662942454, 0.0053435750, -0.1056907848, -0.0714082047, 0.0314241759, -0.0335203484, -0.2227247953, -0.0112108607, 0.1275089532, -0.0707989782, -0.0285732429, 0.0817531198, -0.0707561895, 0.1024943665, 0.0872852728, -0.1133422107, -0.0489674546, -0.0115337120, 0.0676966384, -0.1516744345, -0.0504958257, -0.1155066118, 0.1245554760, 0.0642625391, -0.1993893385, 0.0385364294, 0.0706200227, 0.0438256487, -0.0203682072, 0.0956083462, 0.0061469031, 0.0630416349, -0.0076638488, 0.0241304655, -0.0389808603, -0.1147349700, 0.0936350599, -0.0471035801, 0.0894590765, 0.0745048374, -0.1940337420, 0.0003993624, -0.1570169181, -0.0160083231, -0.0508266874, -0.0268772878, -0.1717482954, -0.0771827921, 0.1125941947, -0.0550851151, 0.0522183664, 0.0380624719, -0.1300308257, 0.1110130623, 0.1036480740, -0.0650702864, 0.0167726260, 0.0266407598, 0.0175036397, -0.0557617508, -0.0558112264, -0.1111157835, 0.1006472632, 0.0586149879, -0.1239243150, 0.0472669341, 0.0046164040, -0.0368517935, 0.0259994268, 0.0025070219, -0.0988645032, 0.0134653766, -0.0222342685, 0.1210301742, -0.0531659536, -0.0864453539, 0.0805355087, -0.1216811612, 0.1215390787, 0.0181096476, -0.1865960509, 0.1002628580, -0.0902156532, -0.1044965312, -0.0613177195, -0.0726185217, -0.2096565515, 0.0326494090, 0.1139442474, -0.0956777111, 0.0524092093, 0.0524807796, -0.0951354057, 0.1887533218, 0.0592124611, -0.0922757387, 0.0757385790, -0.0196763258, -0.0854239389, -0.1048791260, -0.0060704798, -0.1258371621, 0.1023296565, 0.0681901127, -0.1764763892, 0.0400954485, 0.0611399189, -0.0907318294, 0.0026279269, 0.0841015652, -0.0534212068, 0.0480080917, -0.0470739193, 0.0944562331, -0.0098489830, -0.1316192001, 0.1296330690, -0.1899127364, 0.1216023192, -0.0020012411, -0.1571602672, 0.0808317661, -0.0957964361, -0.1149777323, 0.0019267867, -0.0888932645, -0.1296318918, 0.0253297091, 0.1033237725, -0.0483807959, -0.0430247448, 0.0831928551, -0.0952097699, 0.1663483083, 0.1121594012, -0.0517976284, -0.0824270397, 0.0418363400, -0.0957132801, -0.1030393764, -0.0846268609, -0.2387194932, 0.0612560734, 0.1104709581, -0.0779307187, 0.0861099586, 0.0257131495, 0.0397035666, 0.0495112501, 0.1118529812, -0.0317874439, 0.0511229783, -0.0019548130, 0.1561346501, -0.0290413890, -0.0573098771, 0.0542530864, -0.1511908025, 0.1788281202, 0.0928341970, -0.0808250904, 0.0431254283, -0.0337166078, -0.1069273651, -0.0300157331, -0.0649141148, -0.2374507934, 0.0379363112, 0.1188200042, -0.0674045905, 0.0553705133, 0.0747865289, -0.0742376745, 0.0640105456, 0.0796429664, -0.0235951748, -0.0523269884, 0.0650473684, -0.0153366188, -0.0297036134, -0.1119316891, -0.1642508954, 0.1095128655, 0.1072999090, -0.1572348177, 0.0411046594, 0.0206172708, 0.0446838886, 0.0530474819, 0.0845880955, -0.0182977431, 0.0391171202, -0.0175230261, 0.1208488718, -0.0037180560, -0.1602142602, 0.1217505410, -0.1266023666, 0.1574255675, 0.1346930712, -0.1484920382, 0.0070566097, -0.1434883922, -0.0724535808, -0.0066017769, -0.0508210957, -0.2497624010, 0.0151294926, 0.2037158608, -0.0225593187, -0.0483321883, 0.0658964142, -0.0804958791, 0.0638910383, 0.1533246487, -0.1561135203, -0.0440683663, -0.0237300433, 0.1142346561, -0.1348490417, -0.0495930724, -0.1630894393, 0.1754556894, 0.1040326431, -0.2022051364, 0.0343915410, 0.0330971479, -0.0280203838, 0.0138680479, -0.0248198826, -0.1217189133, 0.0448377132, -0.0934295058, 0.1354491413, -0.0443158560, -0.1993677914, 0.1119918972, -0.1135656014, 0.1885336339, 0.1805806160, -0.1087707654, 0.0592074357, -0.1767126173, -0.0632742196, -0.0638340637, -0.0737440363, -0.1660000831, 0.0618139170, 0.1670401245, -0.0954054743, -0.0124650253, 0.0363374911, -0.1321952343, 0.0624144599, 0.1023828089, -0.0600571521, -0.1105447859, 0.0047996361, 0.0479883775, -0.1126211509, -0.1035680473, -0.1641339362, 0.2474451363, 0.1606058925, -0.2374870628, 0.1122324318, 0.0092088180, -0.0474716090, 0.0157791637, 0.1331217140, -0.0295470450, 0.0234535094, -0.0934762731, 0.1468874514, -0.0220694747, -0.1939312220, 0.0151692443, -0.2198428363, 0.2213341892, 0.1324714273, -0.1790776700, 0.0813645050, -0.1316562742, -0.0556188673, 0.0202941336, -0.0770511031, -0.2025993168, -0.0347931422, 0.0860380977, -0.1327350438, -0.0053236363, 0.1482926309, -0.1020938009, 0.2003820390, 0.1301278770, -0.1307905614, -0.0204376634, 0.1279532015, -0.0556296520, -0.1164475977, -0.0532803014, -0.1558063179, 0.2125004828, 0.1596803069, -0.1675116271, 0.0269327890, 0.0147295287, 0.0570659116, 0.0726980492, 0.0777677819, -0.0597306862, 0.0894375592, -0.0725415349, 0.0989429280, -0.1018704921, -0.2152493149, 0.1107394323, -0.0565395392, 0.1758038253, 0.1997887939, -0.1535867900, -0.0557544567, -0.0832127184, -0.0715999156, -0.1567590088, -0.0723886862, -0.1853599846, 0.0203991625, 0.1779440045, -0.0341769345, 0.0286104027, 0.0518902913, -0.0104382150, 0.0569223426, 0.1354383975, -0.0753116235, 0.0221135709, 0.0650269836, 0.0384213589, -0.0689981058, -0.0613798499, -0.0397354104, 0.1639345288, 0.1083307043, -0.1279370040, -0.0012972339, 0.0135494722, -0.0388957821, 0.0173966438, -0.0054839058, -0.0399813168, 0.0415130705, -0.0975051895, 0.1524879336, -0.0067736767, -0.1316516995, 0.0607555285, -0.0736375749, 0.1306755990, 0.1602819562, -0.0825636238, 0.0348527692, -0.0849415287, -0.0614555888, 0.0027095268, -0.0746535212, -0.2241345346, -0.0306465272, 0.1397138983, -0.0514642633, 0.0098982602, 0.1006401554, -0.1420269608, 0.0674959943, 0.0299515966, -0.0756119415, 0.0060720360, -0.0019673675, -0.0240704473, -0.0711026341, -0.0734816194, -0.0925827175, 0.1259501278, 0.1485993713, -0.1218947843, 0.0867887288, 0.0180300809, 0.0062139593, -0.0126951989, 0.1102307364, -0.0016254485, 0.0272195637, -0.0241170023, 0.1177958921, -0.0226755999, -0.2134958208, 0.0006387729, -0.0683924034, 0.1762510091, 0.0935298353, -0.0586122051, -0.0213348288, -0.0436716899, -0.1011900753, -0.0143986745, -0.0625740886, -0.2347198278, 0.0592707582, 0.0931052044, -0.1135637984, -0.0200876649, 0.0250222739, -0.0598303117, 0.1831504703, 0.1033693403, -0.1448214799, 0.0364938192, 0.0202582963, -0.0208379272, -0.0234005004, 0.0090895332, -0.1105086952, 0.1208181530, 0.1103500053, -0.1848706305, -0.0908137187, -0.0004188398, 0.0626828372, 0.0676828623, 0.0672400817, -0.1202735677, 0.0488888733, -0.0444490649, 0.1053969637, 0.0084069315, -0.1308523118, 0.1588187963, -0.1180822849, 0.1063219681, 0.0356683210, -0.0087645492, 0.0976792946, -0.1786977351, -0.0148540130, -0.0780123398, -0.0523884706, -0.1597009599, 0.0727494434, 0.1738974303, 0.0112227621, -0.0314103141, 0.1091453582, -0.1017928571, 0.1735401005, 0.0988240167, -0.1073935106, 0.0226386767, 0.0204515345, 0.0877863020, -0.1263424754, -0.0961004347, -0.1362842172, 0.1103422791, 0.1215289235, -0.2058176696, 0.0937023312, 0.0699668154, 0.0186407939, -0.0426893756, 0.0103279855, -0.0502122082, 0.0615043640, -0.0634965077, 0.0600012206, -0.0420430489, -0.1259235889, 0.0578094684, -0.1158500016, 0.1888706684, 0.0499050394, -0.2739222646, 0.0627679229, -0.0172064397, -0.0570250750, -0.0154591026, -0.1024639457, -0.2284596115, -0.0202742517, 0.1327809095, -0.0504427180, 0.0390453748, 0.1531261802, -0.0810164735, 0.2172874957, 0.1932688802, -0.0504524186, -0.0284971297, 0.1125944555, -0.0204838924, -0.0915601477, -0.1005959138, -0.1964263618, 0.1229326427, 0.1288809776, -0.2254530936, 0.0303690191, 0.0155504951, 0.0858785808, 0.0891370773, 0.0655816942, -0.0635583848, 0.0463889353, -0.0219948981, 0.1351222545, -0.0246925112, -0.1123815104, 0.0647175089, -0.1675687879, 0.1746689826, 0.0431763344, -0.0881910920, 0.0970431492, -0.0033640808, -0.0759402961, -0.0344235152, -0.0902055725, -0.1736669391, -0.0299838018, 0.1278060824, -0.0605325252, 0.0297945999, 0.1245191470, -0.1148209795, 0.1914424747, 0.0385711938, -0.1300558597, -0.0238063503, 0.0486629754, 0.0079313684, -0.1338070631, -0.0770355165, -0.0733904541, 0.1496199816, 0.1621047407, -0.2414059341, -0.0571345538, 0.0268521216, -0.0322225317, 0.0309691895, 0.0406066105, 0.0088952938, 0.0230516624, -0.0571464747, 0.1319193244, -0.0693029687, -0.2087210268, 0.0281963907, -0.1689636707, 0.1819062829, 0.0789661407, -0.1504817307, 0.0800602362, -0.1407763958, 0.0067890347, -0.0175739340, -0.1179964766, -0.1287831813, 0.0343055502, 0.1342942268, -0.0645530373, -0.0038569388, 0.0614436492, -0.1306563765, 0.1733468026, 0.0666694939, -0.0914493948, -0.0705945641, -0.0363949910, 0.0654880032, -0.1269269735, -0.0734927803, -0.2187363058, 0.1134976149, 0.0514080152, -0.1775574237, 0.0587690584, -0.0074302061, 0.1085179150, 0.0496028922, 0.1464874893, -0.0048142928, 0.0567069165, -0.0473623313, 0.1302779764, -0.0682941079, -0.1279135048, 0.0840680748, -0.1573000550, 0.0957386494, 0.0911865383, -0.0094397375, 0.0729612932, -0.1574981064, -0.0673577860, 0.0701507851, -0.1258479357, -0.1170946360, -0.0324832425, 0.0095822979, -0.0826354474, -0.0548018292, 0.0816879570, -0.0735319927, 0.0535029769, 0.0858477578, -0.1460737884, -0.0241697691, 0.0915583223, 0.0073852520, -0.0842596292, -0.0781906471, -0.1310010850, 0.0761104152, 0.1659571528, -0.1655033976, -0.0070194220, 0.0242524557, 0.0835313946, 0.0139455702, 0.0709858835, -0.0791783705, 0.0878982767, -0.1133673415, 0.1014160514, 0.0278366022, -0.1021512449, -0.0236277711, -0.1166635305, 0.1311798394, 0.1084832326, -0.0481603518, 0.1607947648, -0.1039967984, -0.1369509399, -0.0064468053, -0.0868033171, -0.2105693668, -0.0377021320, 0.1184511855, -0.0688914582, -0.0089830384, 0.0550135486, -0.1347079873, 0.0891201347, 0.1496103406, -0.1230093017, -0.0441003069, 0.0060460968, -0.0652419105, -0.0821446553, -0.0718427524, -0.1748074293, 0.1125936583, 0.0779937282, -0.2191818506, -0.0662997738, 0.0526746623, 0.0063336287, -0.0016975679, 0.0257908721, -0.0569550022, 0.1002979353, -0.0859574601, 0.1139182970, -0.0923598036, -0.2192040980, -0.0005300414, -0.1018946618, 0.1436837018, 0.1262208819, -0.1070897877, 0.0593532659, -0.1179992408, -0.0977998152, 0.0201489776, -0.1527098119, -0.1798674613, -0.0427584425, 0.1537231207, -0.0623980686, -0.0010069606, 0.0835913643, -0.1033917814, 0.1500832587, 0.1194360331, -0.1228443459, 0.0067354115, 0.0821708068, -0.0189884063, -0.1693739146, 0.0320651345, -0.2268003672, 0.1413561702, 0.1861760914, -0.2939911187, 0.0018678993, -0.0415552035, -0.0126881478, 0.0269963667, 0.1061649323, -0.1043854505, 0.0714320168, -0.0756021887, 0.1606213152, -0.0067861509, -0.1258816570, 0.0792497396, -0.1104536355, 0.0900783464, 0.0571675040, -0.0444873758, -0.0621187054, -0.0665442124, -0.1061088219, -0.0184393413, 0.0010865632, -0.1917252094, 0.0714959949, 0.0568996780, -0.0491480939, 0.0089799073, 0.0082075419, -0.0735684186, 0.0922768861, 0.1053506881, -0.0519926175, -0.0026762232, 0.0167905260, 0.0480746813, -0.0907637328, 0.0409682617, -0.1253229231, 0.2150850147, 0.0179534610, -0.1627320349, -0.0057121082, -0.0219307207, -0.0821736157, -0.0007367937, 0.0780217201, -0.0351336747, 0.0635007322, -0.1125149354, 0.1017237231, -0.0392139517, -0.2318945378, 0.0137589741, -0.0660561770, 0.0591595359, 0.1271829605, -0.1089557484, 0.0471256487, -0.0485918224, -0.0774405599, 0.0001887247, -0.0604494363, -0.1479485631, -0.0365747437, 0.1310656518, -0.1127289608, -0.0368796922, 0.0529941283, -0.0600498691, 0.0952924937, 0.0867826566, -0.0251976140, -0.0000331152, 0.0570866540, -0.0262186136, -0.1067536026, -0.0516474023, -0.0930547044, 0.0592644513, 0.0733878538, -0.1920911968, -0.0291534718, 0.0697464794, -0.0367407463, 0.0240438730, 0.0835459530, -0.0497118756, 0.0669930726, -0.0505581982, 0.0470401235, -0.0203356165, -0.1505372673, 0.0164220501, -0.0955385119, 0.1162729785, 0.1331097484, -0.1562525481, 0.1329018921, -0.1745332032, -0.1000946090, 0.0374613814, -0.0859423727, -0.2751957774, -0.0176596995, 0.1012485847, -0.0095545473, 0.0029183109, 0.0224071927, -0.0442810319, 0.1326513886, 0.1257370561, -0.1321530640, -0.0689043626, -0.0882902667, 0.0492731519, -0.1226634234, -0.1065819710, -0.1931608468, 0.0875507370, 0.0188338961, -0.1662991047, 0.0064984034, 0.0578956343, 0.0237176958, 0.0613671951, 0.0895847529, -0.0563228764, 0.0060364390, -0.0436021313, 0.1533385664, -0.0080827260, -0.1696119159, 0.0351593010, -0.1060064360, 0.0572687350, 0.1017117575, -0.1349678338, 0.0118376426, -0.1014754474, -0.1132135987, -0.0090997107, -0.0828903466, -0.0996309295, 0.0267265663, 0.0873038992, -0.0503038801, -0.0671716332, 0.0241707023, -0.0674365684, 0.1432598680, 0.0331571102, -0.1007846445, 0.0110111469, 0.2276483178, 0.0328416824, -0.1092799082, 0.0044724606, -0.1784232259, 0.1253336668, 0.0927496031, -0.1341441870, 0.0211685933, -0.0258045029, -0.0525228493, -0.0067758658, 0.0918365493, 0.1028279662, 0.0517089777, -0.0417143442, 0.0871116295, -0.0468457527, -0.1137973070, 0.0190375224, -0.1704273373, 0.1329251975, 0.0118307285, -0.1745541245, 0.0551985353, -0.0465549715, -0.0355102308, -0.0236350838, -0.1211428419, -0.1143181100, -0.0617064871, 0.1177715734, -0.0097881723, -0.0116284201, 0.0545140989, -0.0465936884, 0.2682123780, 0.1960291117, -0.0291863959, -0.0393752679, 0.0628766939, -0.0444585383, -0.1367798895, -0.1138178483, -0.2506999075, 0.2255986780, 0.1114635468, -0.1386681199, 0.0489149727, 0.0050751371, -0.0465911217, -0.0535372607, 0.0334861912, -0.0951553881, 0.0764182359, -0.0083609810, 0.0424849801, -0.0847139060, -0.1109678447, -0.0072087627, -0.0892118514, 0.0984879360, 0.1311679780, -0.0367215239, 0.0968111604, -0.0678095818, -0.0429222509, -0.0315462872, -0.0849515274, -0.1628363729, 0.0111319255, 0.1105548069, -0.0419172421, 0.0326800682, 0.0936556384, -0.0649370253, 0.0689752102, 0.1464107186, -0.1594473720, -0.0689133555, 0.0006465724, 0.0425262041, -0.0466965325, -0.0437360555, -0.0987424850, 0.0704961568, 0.1570943445, -0.0826743469, -0.0869577676, 0.0302080568, -0.1246704012, 0.0326789282, 0.0798570886, -0.1029411629, 0.0503245629, -0.1129477695, 0.0447286367, -0.0382905006, -0.0842688531, 0.0244772043, -0.0313238949, 0.0074858395, 0.0864081383, -0.0669500977, 0.0246050507, -0.0548130013, -0.0451206230, 0.0413945019, -0.0517216809, -0.1066326573, -0.0836077929, 0.0836757794, -0.0247221757, 0.0042397436, 0.1035549790, -0.0664266646, 0.1485342830, 0.0793311223, -0.0657859966, -0.0279191229, 0.0078331474, 0.0132891946, -0.0881758183, 0.0148092108, -0.1135587096, 0.0730309784, 0.0533424020, -0.1156661138, -0.0153748132, -0.0170700569, 0.0205030311, 0.0397074744, 0.0037682459, -0.0574721918, 0.0576921478, -0.0857322067, 0.0468849875, 0.0090970071, -0.1385241449, -0.0591006316, -0.0807574689, 0.1553865820, 0.0355847143, -0.1231220588, 0.0289591085, -0.0903437808, -0.0695407987, 0.0571510755, -0.1268963516, -0.1317985207, -0.0165894628, 0.0898304060, -0.0317316540, -0.0048589874, 0.1610058546, -0.0876705125, 0.0494964942, 0.0571750961, -0.0151189342, -0.0062843752, 0.0983806476, 0.0111216130, -0.1615675092, 0.0093612745, -0.1711401641, 0.1538501829, 0.1218713373, -0.1202041358, 0.0013617657, 0.0310958121, -0.1058867574, -0.0148954708, 0.0196132194, -0.0505349338, 0.0312468298, -0.0549166463, 0.1620998234, -0.0408432223, -0.1615302563, -0.0023202312, -0.1104752645, 0.0604026578, 0.1117076650, -0.0879009068, 0.0339363851, -0.0431829318, -0.0260443203, 0.1219251454, -0.0956113562, -0.0440656357, 0.0110583352, 0.0526124947, -0.0478490107, 0.0342340246, 0.0631799847, -0.0254680496, 0.0382227153, 0.1303040087, -0.0733293146, 0.0246354863, 0.0511424616, 0.0191263594, -0.1114150286, -0.0766673014, -0.1411273628, 0.1471500397, 0.0523093753, -0.1785745323, -0.0316225030, 0.0140963718, -0.0894569978, 0.0003707373, 0.0407952853, 0.0021809826, 0.0395653471, -0.0910883248, 0.0555340983, -0.0338081606, -0.0931623876, -0.0149801597, -0.1116348505, 0.1176054180, 0.0953926370, -0.0719562545, -0.0336086936, 0.0190846957, -0.0697749257, 0.1163009703, -0.1505521983, 0.0198489930, -0.0237720814, 0.1041596010, -0.0732552037, -0.0503690615, 0.0067557208, -0.0546212047, 0.1003858894, 0.0414369851, -0.0019895760, 0.0379706994, 0.0151443584, -0.0504346527, -0.1608251035, -0.0790874735, -0.1841374487, 0.1873870045, 0.0996906832, -0.1651592106, 0.0106852502, -0.0266948510, -0.1474172175, -0.0582701005, 0.0879629925, -0.0614763387, -0.0441161394, -0.0607099794, 0.0863454714, -0.0750468001, -0.1370830983, -0.0320490599, -0.0376202613, 0.0117666125, 0.1582930833, -0.1668685973, 0.0429855362, -0.0937723815, -0.0730213225, 0.0459415615, -0.0718318149, -0.1582567394, -0.0087754000, 0.0631109327, -0.0367823355, -0.0167478751, 0.0093768612, -0.0673633665, 0.0832113251, 0.0360551663, -0.1111105904, 0.0068954835, 0.0468790606, -0.0665778816, -0.1067280844, -0.0557532422, -0.1979333162, 0.1091222838, 0.1640982330, -0.1383638531, -0.0327137671, 0.0965022370, -0.0769608691, 0.0199207272, 0.0723306313, -0.0738105699, 0.0312645473, -0.0456066616, 0.0819687247, -0.1034400687, -0.0354952663, -0.0158693399, -0.0797006711, 0.1115166396, 0.0821683481, -0.0389910899, -0.0540484637, -0.0456015207, 0.0290996116, 0.0144849047, -0.1374213547, -0.0518874079, -0.0482423864, 0.0826066956, -0.0223465692, 0.0160398334, 0.0616509430, -0.0359602161, 0.0972658023, 0.0451916680, -0.0739251450, -0.0072341594, 0.0569426455, -0.0054297242, 0.0040666806, 0.0077886549, -0.1087146178, 0.1320248544, 0.1285050660, -0.1360062212, 0.0339019857, 0.0131239006, 0.0237532593, 0.0185852405, 0.1602636278, -0.0150451148, 0.0560092591, 0.0210876763, 0.1009583920, -0.1259215772, -0.0826820135, -0.0806719735, -0.0981457233, 0.1634824872, 0.0751235113, -0.0193964969, 0.0656102225, 0.0155364526, 0.0143261850, 0.0991713703, -0.0413080230, -0.0546661690, -0.0188591611, 0.1563234478, -0.1153316870, 0.0383559391, 0.0448657311, -0.1050368175, 0.0597846396, 0.1685800552, -0.0695675835, -0.0704116970, 0.0479356684, -0.0184596553, -0.0934215263, -0.0369963199, -0.1602120250, 0.1604645848, 0.0911280736, -0.1501471847, 0.0064079496, 0.0200310498, -0.0396029651, -0.0469767526, 0.1459441036, 0.0084794387, 0.0927599221, -0.0885833874, 0.0173535347, -0.0354726203, -0.1649365723, 0.0002114056, -0.0655900538, 0.0565687232, 0.0958020762, -0.0181240812, 0.0910716653, -0.0461849906, -0.0534423515, 0.0842471048, -0.1111363098, -0.1056042388, -0.0631005690, 0.0448971242, -0.0374619886, 0.0186020434, 0.0268759802, -0.0945198834, 0.1381179392, 0.0348128937, -0.0180809945, 0.0367944427, 0.0546181500, 0.0483140871, -0.1348408461, 0.0211468171, -0.1808647662, 0.0554350577, 0.1107660905, -0.0777477100, 0.0794884562, 0.0388476104, -0.0154688898, 0.0312624425, 0.0271489080, -0.0665193945, 0.0559079535, -0.1051153839, 0.0993885323, -0.1021162197, -0.0291321576, -0.0420570672, -0.1596664488, 0.0514434762, 0.0639565885, -0.1332872212, -0.0467872620, -0.1153158396, -0.1307472289, 0.0835947767, -0.1123576090, -0.2518033087, -0.0528094620, 0.1237785444, -0.0540401042, 0.0042660697, 0.0369283482, -0.0288097486, -0.0048166141, 0.1085607857, -0.0372044332, -0.0087411823, -0.0180396009, 0.0633909255, -0.1205788776, -0.0875838920, -0.1381883174, 0.1753792912, 0.1123703718, -0.0212896001, -0.0212714095, 0.0410578474, -0.1234442219, -0.0289889220, 0.0423053466, -0.0586626120, 0.1060612500, -0.0387310907, 0.0226392504, -0.0209262930, -0.0968837142, -0.0092993630, -0.0287824832, 0.0488244593, -0.0457941443, -0.1066900492, 0.0139903072, 0.0387577452, -0.0228693560, -0.0245813075, -0.1093401313, -0.1334540248, -0.0735160932, 0.0537986234, -0.0064848671, -0.0045072846, 0.0310915932, -0.0277243219, 0.0549124703, 0.0818871632, -0.0247033406, 0.0151160723, -0.0530838072, 0.0248015989, -0.0994521752, -0.0845750943, 0.0571774207, 0.1177702844, 0.0313534774, -0.0285832696, -0.0694464520, -0.0276499577, -0.0361906104, -0.0487159826, 0.0748801082, 0.0418894701, 0.0653270558, -0.0603495389, 0.0265660211, -0.0695074797, -0.0600682572, -0.0265337173, -0.0339401811, 0.0736915395, -0.0292875357, -0.0220381077, 0.0084509803, 0.0136051038, -0.0027502645, 0.0866585001, -0.1766107231, -0.0363276042, -0.0351872370, 0.0110516120, 0.0186462309, 0.0330753550, 0.0263512470, 0.0020340791, 0.1677822918, 0.0695465803, -0.0294697005, 0.0635670125, -0.0528756119, -0.0177371278, -0.1189092472, -0.0831919834, -0.0799178779, 0.0874374434, 0.0277115609, -0.0737846494, 0.0140592167, 0.0075847022, -0.0589948632, -0.0660057217, -0.0126795592, -0.0354445092, 0.0128815621, -0.0417299196, 0.1550198644, -0.1054544151, -0.0680652931, -0.0384033993, -0.0595478974, 0.0638590381, 0.0451358035, 0.0247120857, -0.0181954615, -0.0835213736, -0.0205277335, 0.0708457828, -0.1046167016, -0.0884512588, -0.0032001659, 0.0119757093, -0.0100058112, -0.0231135059, 0.0031846974, 0.0069697415, 0.0403674543, 0.0844904110, -0.0130323246, 0.0370072164, 0.0460162200, 0.0339918397, -0.0765355006, -0.1467882097, -0.1070512459, 0.1561340988, 0.0657351762, -0.0355295017, -0.0216698386, 0.1115488261, -0.0582758449, -0.0257431399, 0.0427155644, -0.0018450073, 0.0444154926, -0.0887652338, -0.0245812666, -0.0110371569, 0.0054256739, -0.0964573622, -0.0064611682, 0.1213965490, 0.0115273651, -0.0257725604, -0.0942739621, -0.0360405110, -0.0972452238, 0.0487438627, 0.0216338057, -0.0922584161, -0.0692846850, 0.0128220515, -0.0761071369, -0.0099338228, -0.0420205258, -0.0665365458, 0.0690510571, -0.0181617532, -0.0247259121, 0.0291133616, -0.0106332684, 0.0314725973, -0.1428141296, 0.0250625517, 0.0035289538, 0.1493806839, 0.0027157273, -0.0762614906, -0.0368545242, 0.0113769239, -0.1549616009, -0.0241108909, 0.0669237226, -0.0853938013, 0.0530887768, -0.1042216122, 0.0142853307, 0.0120723480, -0.0167541075, -0.0108375968, -0.0055402946, 0.0464498848, 0.0551463626, -0.1506460309, -0.0159392282, 0.0260998141, -0.1189102456, 0.0106647816, -0.0252072234, -0.0618502572, 0.0120997168, -0.0240454618, -0.0427639037, 0.0002628975, 0.0501992255, 0.0396860167, 0.0699672997, 0.0602943487, -0.0033669146, 0.0758176222, -0.1232365742, -0.0466371179, -0.0822347254, -0.0703967139, -0.0622764714, 0.1943701059, 0.0069135535, 0.0102589205, 0.0185285117, 0.0485590622, -0.2072436959, -0.0469237044, -0.0136180371, 0.0224743802, -0.0095991818, -0.0915695578, 0.1004468203, -0.0417606644, -0.0221652035, -0.0061575659, 0.0057810834, 0.0760034695, -0.0811262801, -0.0980153158, 0.0324489661, -0.0481567793, 0.0042192852, 0.0711063072, -0.0659345984, 0.0581509657, -0.0877921656, 0.0522205010, -0.0211884268, -0.0099861259, 0.0427201204, -0.0765196234, 0.0947564319, 0.0460549034, -0.0196797140, -0.0313287862, -0.1213849857, 0.0033505219, -0.1396163553, -0.0124930581, -0.0621519089, 0.1918504983, -0.0021813626, -0.0598914064, -0.0791369975, 0.0606964268, -0.1499979347, 0.0456600785, -0.0171608683, 0.0200305879, 0.0126675302, -0.0878416151, 0.0875196233, 0.0015577760, -0.0406618491, -0.0396565236, -0.0752796009, 0.0741935670, -0.0409186222, -0.1324496418, 0.0362178236, -0.0192876887, -0.0580900908, 0.0989956409, -0.0609472133, -0.0809445828, -0.0789932385, 0.0600330010, -0.0630518645, -0.0348617360, 0.0035880175, -0.0301440116, 0.1243131459, 0.0540785491, -0.0253230613, 0.0434473194, -0.0411181338, 0.0534782447, -0.0357933156, -0.0157636218, -0.0455868728, 0.1034383252, -0.0651223212, -0.0421930589, 0.0521605350, 0.0213279799, -0.0390427224, -0.0559844486, 0.0061057745, 0.0760978609, 0.0643044710, -0.0619029030, 0.0463804640, -0.0690956265, -0.0894070342, -0.0447035171, -0.0904474407, 0.1446398795, 0.0318433158, -0.1306424439, 0.0097325668, -0.0494090095, -0.0427688286, 0.1005514935, -0.0464005210, -0.0789344162, -0.0080471803, 0.0167082176, -0.0469906256, -0.0438612364, 0.0254136231, -0.0269620102, 0.1616414338, 0.0747529268, -0.0399223194, 0.0490350053, 0.0109459432, -0.0412791371, -0.1157722995, -0.1101533175, -0.0286602452, 0.1269705147, 0.0791107044, -0.1337047666, 0.0085956762, -0.0032375667, -0.0863608494, -0.0747913793, 0.0773295909, 0.0201102346, 0.0667097270, -0.0233508982, 0.1376393139, 0.0031730426, -0.0758955106, -0.0531940125, -0.0528129674, 0.0403280482, 0.0077636428, -0.0472549237, 0.0062600751, -0.0290369838, -0.0511748046, -0.0271936413, -0.1215066314, -0.1634350419, 0.0120874569, -0.0472765230, -0.0382902026, 0.0300469138, -0.0119999815, -0.0401168279, 0.1421868801, 0.1161108166, -0.0210859627, -0.0318194851, -0.0045007248, -0.0442754701, -0.0947085321, -0.0801816061, -0.1076839790, 0.1039534435, 0.0677383766, -0.0981841534, -0.0198109001, 0.0174520854, -0.1225599647, -0.0345687158, 0.0163428988, -0.0006098791, 0.0050904257, -0.0851287320, 0.0208333917, -0.0531821176, -0.0707859546, -0.0331610925, -0.1025418118, 0.0891415849, 0.0366357081, -0.0567992143, -0.1019510254, 0.0371445790, -0.0370797999, 0.0121274451, -0.0859471485, -0.0588206723, -0.0646137372, 0.0876877010, -0.0844823867, -0.0344718061, 0.0369500928, -0.0423245169, 0.1301823109, 0.0441676714, -0.0364137441, 0.0449065343, 0.0151789747, -0.0245546903, -0.0602649562, -0.0325197875, -0.0772849768, 0.0967911035, 0.0509043634, -0.0122406660, -0.0157985464, -0.0067487271, -0.1328032911, 0.0196289364, 0.0161267072, -0.1062478647, 0.0829505771, 0.0412445702, 0.0447921269, -0.0696943030, 0.0045958105, -0.0404540189, -0.1513580978, 0.0636224821, -0.0354350656, -0.1421391964, -0.0363495089, -0.0173175633, -0.0791824460, 0.0124106808, -0.0481353924, -0.1264697015, -0.0662744939, 0.0869547948, -0.0661529377, -0.0491298102, 0.0513322987, -0.0733551830, 0.0596153289, 0.0415756404, 0.0069197430, 0.0050681084, 0.0269619897, -0.1035248041, -0.0252701733, -0.0685035810, -0.0004877863, 0.0923785195, 0.0320861302, 0.0288239159, -0.0532043166, -0.0201686174, -0.0321739018, -0.0581130758, 0.0044247769, 0.0231051557, 0.0421537757, -0.0317623019, 0.0722257420, -0.0056398194, 0.0357755274, -0.0562527291, -0.0576528870, 0.0688664839, -0.0689015836, -0.0232655630, -0.0219162218, -0.0147493044, -0.0025242148, 0.0654381365, -0.1322703511, 0.0456445403, -0.0434387140, 0.0190679077, -0.0781989992, -0.0385852717, 0.0460227504, -0.0394331962, 0.1462465823, 0.0339148603, -0.0059335725, 0.0784671009, -0.0364450105, -0.1089555845, -0.0176834315, -0.0810637698, 0.0124471476, 0.0406488292, 0.0486209206, 0.0178394448, -0.0989689976, -0.0053494386, -0.0713637024, -0.0525003672, -0.0238924250, -0.0227289889, 0.0376041383, 0.0127136763, 0.0565554090, -0.0021247494, 0.0806064829, 0.0223770458, -0.1154504642, 0.0079880822, 0.0365159325, -0.0836270601, -0.0613110960, 0.0038835662, 0.0646240786, 0.0775301605, -0.1854640841, 0.0559006147, 0.0374310911, 0.0629215017, -0.0814508945, -0.0137678869, -0.0054722163, 0.0104734292, 0.1259717047, 0.0303257145, -0.0122966869, 0.0315727144, 0.0019380054, -0.0591047145, -0.0481684878, -0.0804070011, -0.0592204593, 0.2496487498, 0.0829902142, -0.0283943005, 0.0067986595, -0.0092411013, -0.0818088949, 0.0131655429, -0.0116736237, -0.0546930097, 0.0111834398, -0.0047051990, 0.0343355685, -0.0266755261, 0.0339229181, -0.0272944216, 0.0164310690, 0.0149855288, -0.0289522652, -0.0534246266, 0.0468295552, -0.0143990600, 0.0038394157, 0.0831758678, -0.0448986925, 0.0215347968, -0.0810771435, 0.0059189526, -0.0419090688, -0.0068342560, 0.0178852882, -0.0313644968, 0.0563621260, 0.0130202956, -0.0453008376, 0.0566958040, -0.0227678325, -0.1134500802, -0.0674889684, -0.1045615897, -0.0896409452, 0.1511467248, 0.1026581824, -0.1237839982, -0.0201996081, 0.0291685797, -0.1323128194, 0.0324702896, -0.0326839164, -0.0059184199, -0.0471346788, -0.0355788954, 0.0506856404, -0.0444598123, 0.1199254692, -0.0918573812, 0.0213271286, 0.0344239660, -0.0502383560, -0.0570399016, -0.1179783791, 0.0469321907, -0.1060538143, 0.0636143237, -0.0544915237, 0.1064356044, -0.0618302859, -0.0022171917, -0.0495321229, -0.0121911587, 0.0021356477, -0.0881826207, 0.1372286379, 0.0751620755, 0.0548204444, 0.0636259541, -0.0201321281, -0.0751018077, -0.0118276067, 0.0927548930, -0.0470909774, 0.1470078081, -0.0433454029, -0.0401490107, 0.0684557855, 0.0691653490, -0.1435468644, 0.0533212237, -0.0082559129, -0.0056893360, -0.0254413374, -0.0954166129, 0.0315422788, -0.0108012753, -0.0675914288, 0.0551793911, -0.0160417557, 0.0126156723, 0.0452171899, -0.0274541676, -0.0864236578, 0.0033158252, -0.0301626287, -0.0003578698, -0.0747481361, 0.0207822863, -0.0560896285, -0.0375457779, 0.0256933048, 0.0001096445, 0.0119818905, -0.0159564521, 0.0633460805, -0.0262828674, -0.0518542938, -0.0076501337, 0.0802050754, 0.0340398066, -0.0407303125, 0.0238525867, -0.0776870400, 0.1682341397, 0.0602417774, -0.0204865504, 0.0158669129, 0.0379540250, -0.0661817715, -0.0111208633, 0.0077470206, -0.0447360799, -0.0102101564, -0.0976355448, 0.0288868826, -0.0162539557, 0.1710924655, -0.0205231868, -0.0923477039, 0.0421008430, -0.0441598631, 0.0009673838, 0.0145101370, -0.0031564361, 0.0044569499, 0.0447483771, -0.0705740079, 0.0801237002, -0.0190439187, -0.0820948929, 0.0354743712, 0.0071855830, 0.0628764257, 0.0896319821, 0.0864964351, -0.0005185797, 0.0977660194, 0.0900948867, 0.0074727805, -0.1227511615, -0.0400541089, 0.0370626114, -0.0714162067, 0.0917535871, 0.0302106030, -0.0534335002, 0.0405660346, 0.0278640557, -0.1124996468, 0.0419474021, -0.0282170959, 0.0274770353, -0.0094193211, -0.0442611091, -0.0670288727, -0.0052787671, 0.0601713732, -0.0184324328, -0.0277892593, 0.0311184023, 0.0083356043, -0.0807840675, -0.0304385927, 0.0150218569, -0.0034985349, 0.0259802938, -0.1021166369, -0.0589585789, -0.0598645657, 0.0023370711, 0.0291878469, -0.0144684883, 0.0937076211, -0.0163855795, 0.1320193410, 0.0043683336, 0.0378582552, 0.0196124054, 0.0017024036, 0.0142645715, -0.0219927765, -0.0034866068, -0.0562034696, 0.0471341163, 0.0457664952, -0.0485344529, 0.0156953558, -0.0079145040, -0.0493066907, 0.0076052127, 0.0301745422, 0.0868622586, -0.0235287473, -0.0225719661, 0.0861045793, -0.0801193640, 0.0328511931, -0.0048595411, -0.0521612726, 0.0287720561, 0.0103131020, -0.0920576602, -0.0152524300, -0.0554745831, -0.0177830495, 0.0804303810, -0.1295435131, -0.0385465957, -0.0386000313, -0.0364211686, -0.0524542071, -0.0240781214, 0.0523885526, 0.0010666284, 0.1130903587, -0.0011936420, -0.0031685131, 0.0461153612, 0.0433023609, 0.0001598658, -0.0972158909, -0.0403756760, -0.1117395684, 0.1057096645, 0.1289274395, -0.0023587786, -0.0345185660, 0.0210005902, -0.0853490308, -0.0113953669, 0.0491669513, -0.0397056341, 0.0025403092, -0.1068172678, 0.0268513653, -0.0490705892, -0.0317320265, -0.0533655994, -0.1177836806, -0.0527683981, 0.0689485669, -0.1294286847, -0.0304104071, -0.0284760799, -0.0244989730, 0.0453655533, -0.0500946045, -0.1072327122, -0.0351542085, 0.0958535150, -0.0297459699, 0.0100591946, 0.1675736606, -0.0603699051, 0.1347411871, 0.1006112248, -0.0069419504, -0.0374484546, 0.0632804632, -0.0551090278, -0.0269002672, -0.1236778870, -0.0876053348, 0.0511064902, 0.0691458955, -0.0896375254, -0.0251009166, -0.0249536503, -0.0675394535, 0.0033661723, -0.0054708496, -0.0754305199, -0.0207174998, -0.0040712836, 0.0607099645, 0.0277599860, -0.1127853096, 0.1256700605, 0.0551768988, 0.1297591478, 0.0636902303, 0.0415357240, 0.1360683888, -0.0528545454, 0.0045078448, -0.0276430640, 0.0277791172, 0.0250846669, 0.1448202878, -0.0277138762, 0.0222113989, 0.0207461845, 0.0226579588, 0.0332303643, -0.1168531254, -0.0431389958, -0.1123604476, -0.0621431246, 0.0042868569, 0.1366260350, -0.1031128988, 0.0417966358, -0.0388576724, -0.0413266718, -0.0310389213, 0.0067053209, 0.1081261039, 0.1119135842, 0.0856785551, 0.0294505786, 0.0419923253, 0.0846147910, -0.0145843402, -0.0430579558, 0.0393889807, 0.0554454513, -0.1014144272, 0.1571466774, 0.0044545508, 0.0339091085, 0.0818647370, 0.0702595040, -0.0025835414, 0.0036832616, 0.0008500009, 0.0624021627, -0.0125963138, 0.0692509562, 0.0456933193, -0.0293334387, 0.0646355674, -0.0222412832, -0.0609919317, -0.0784986764, -0.0687831268, -0.0386039317, -0.0606988072, 0.0356534943, -0.0313105732, 0.1282341629, -0.0508817807, 0.0293280426, -0.0230655856, -0.0584498718, -0.0778216049, -0.1761650890, 0.0270392746, 0.1151036546, 0.0431013554, 0.0005788290, 0.0446305424, 0.0007224238, 0.0092026023, -0.1391630322, 0.1084005982, 0.0492506735, -0.1497073770, 0.2011329234, 0.0415692553, 0.0711896718, 0.0587968268, 0.0955807716, 0.1067385897, -0.0708352849, -0.0276970007, 0.0053579467, 0.0440690331, -0.0826679319, 0.0837076232, -0.0354900658, -0.0086729713, 0.0657180697, -0.0392389633, 0.0314627625, -0.2124372125, -0.1064179093, -0.0622047596, 0.0529726595, 0.0140875382, 0.1724006236, -0.2221550047, 0.1017799377, 0.0651558489, -0.0175260622, -0.0297057014, -0.0823310763, 0.0210882146, 0.0742114559, 0.1108668521, -0.0312308241, 0.1093943790, 0.0876669958, -0.0644279048, -0.1725414544, 0.0697033182, 0.0166418180, -0.1221205071, 0.1147039905, 0.0605596565, 0.0853218362, 0.1011613756, 0.0649594441, 0.1005869359, -0.0263375510, -0.0137412418, 0.0241751391, -0.0465985835, 0.0531300493, 0.1379574239, -0.0032174538, 0.0416618884, 0.0382228233, -0.0238522347, -0.0263611134, -0.1187723130, -0.0405767485, -0.0273735467, -0.0184774157, -0.0082383910, 0.1543481350, -0.1945629865, 0.1003593281, -0.0616540052, 0.0720841736, 0.0266778041, -0.0994859114, -0.0176361930, 0.0568849519, -0.0406853035, -0.0087476652, 0.0689471141, 0.0164113641, -0.0124269910, -0.0976864696, 0.0865848586, 0.0909991115, -0.1863775700, 0.1114119738, 0.0134392707, 0.1225142851, 0.1562415659, 0.1531184167, 0.0725052133, -0.0700529367, -0.0197216496, 0.0537250899, -0.0122580314, -0.0397259258, 0.1636687070, -0.0570797026, 0.0423974693, 0.0486968569, -0.0291989110, -0.0340017453, -0.1530762166, -0.1548103392, -0.0623046458, 0.0356260575, 0.0329353586, 0.2122127116, -0.1781519800, 0.0700328574, 0.0337886140, 0.0529178791, -0.0541973896, -0.2380066961, 0.0360564068, 0.0706141889, 0.0142179755, 0.0022068056, 0.0552639663, 0.0241394322, -0.0060106884, -0.1313542724, 0.0573326312, 0.0790437162, -0.0854246616, 0.1501052827, 0.0611360855, 0.0700823218, 0.1687516719, 0.0565573387, 0.0615432486, -0.0316415653, -0.0504045710, -0.0044906731, 0.0022848109, 0.0930993035, 0.1180519760, 0.0058528902, 0.0281681567, 0.0620056689, -0.0369026735, -0.0741135255, -0.0138801988, 0.0142212640, -0.0956018269, -0.0420240313, -0.0256021470, 0.1245472804, -0.1589882076, 0.0026807648, -0.0091755623, -0.0103207342, -0.0302142072, -0.1316975355, -0.0248613879, 0.0858404338, -0.0005432972, 0.0354746021, 0.0235938542, 0.0546445139, -0.0386929885, -0.1453271061, 0.1322994232, -0.0045813238, -0.1247346252, 0.0891679227, 0.0216446240, 0.0620079897, 0.0781219751, -0.0218026973, 0.1270119399, -0.0917145610, -0.0364382900, 0.0272107162, 0.0298602022, 0.1087483689, 0.0731209442, 0.0775326341, 0.0144010559, 0.0479083732, -0.0391690806, -0.0977690294, -0.0481608026, -0.0257471316, -0.1429050714, -0.0450170189, -0.0475439690, 0.1732939929, -0.1807769835, 0.0477043353, -0.0225352254, -0.0277504455, -0.0400707871, -0.1671161056, 0.0226583891, 0.1154456213, 0.0152357575, -0.0101445997, -0.0217209980, 0.0154905645, -0.0017588700, -0.1729602516, -0.0229585338, 0.0091038272, -0.0853234679, 0.1985203624, 0.0344869755, 0.0139217013, 0.0507253073, 0.0153976651, 0.0731033832, -0.0945524648, 0.0044434462, 0.0056279046, -0.0110139837, 0.0007612049, 0.1295923442, -0.0552225970, 0.0545359924, 0.0051323618, -0.0467041619, 0.0423337147, -0.1081242636, -0.0006292564, -0.0560825057, -0.0366076007, 0.0524292216, 0.1321726739, -0.0796449706, 0.0407365113, 0.0281768702, -0.0494912080, 0.0020195371, -0.0420114510, 0.0033787536, 0.1155390069, 0.0298489798, 0.0168572292, 0.0351541564, 0.1004560366, -0.0197832733, -0.0752863511, 0.0289198533, -0.0156275183, -0.1397619247, 0.1818877012, -0.0139298299, 0.1034563482, 0.0843186602, 0.0235557314, 0.0450383089, -0.0935720727, -0.0408926383, -0.0190358926, 0.0367080867, 0.0825109482, 0.0660137385, -0.0529472753, 0.0695908591, 0.0328674838, -0.1081496328, -0.1097753495, -0.0837149918, -0.0290636513, -0.0566841513, -0.0359193720, -0.0418941937, 0.1231438369, -0.1247215346, 0.0342968665, 0.0491749123, -0.0389126576, -0.0549721308, -0.1064218804, -0.0226902757, 0.0120902238, 0.0488620698, 0.0249248371, 0.0670630038, -0.0023094655, 0.0308090355, -0.1029629409, 0.0559291616, 0.0131820878, -0.1399430484, 0.1250854433, 0.0530505590, 0.0399945192, 0.1220997274, 0.0409667827, 0.0932795405, -0.1052455530, 0.0341238976, -0.0296137724, 0.0396320075, -0.0393230878, 0.1196237653, -0.0185523834, 0.0190948099, 0.0348941721, -0.0423986875, -0.0743856132, -0.1471772790, -0.0571069717, -0.0180964116, -0.0066863080, 0.0151331909, 0.1432134211, -0.1138647348, 0.0132062379, 0.0252139214, -0.0107761603, -0.0006263604, -0.0245594252, 0.0670282170, 0.1024584174, 0.0336615518, -0.0602341704, 0.0383783802, 0.0647388622, -0.0285177417, -0.0908645466, 0.0413880348, 0.0589899793, -0.0810343102, 0.1187588349, 0.0115725202, 0.0530785993, 0.1100213975, 0.1218205318, 0.0732165128, -0.0727281943, -0.0395359285, 0.0429270640, -0.0171318036, -0.0099966470, 0.1097346991, -0.0635230839, 0.0345974676, 0.0066007329, 0.0144557580, 0.0127949230, -0.0823185146, -0.0189214237, -0.0732776225, -0.0979370251, -0.0909064338, 0.0995001569, 0.0145722181, 0.0114835370, 0.0686866939, -0.1385264099, -0.0145800402, -0.0967235267, 0.0485131517, 0.0512313917, 0.0069904854, -0.0052951197, 0.0237297025, 0.0307889525, 0.0171420779, -0.1207439899, 0.0421909094, -0.0052347416, -0.0611941591, 0.1382939965, 0.0548791438, 0.0048848824, 0.0170121919, 0.0165676456, 0.0595726408, 0.0768489465, 0.0736179128, 0.0566059686, 0.0447683036, 0.1164333969, 0.0418106839, -0.1278146356, -0.0425563864, -0.0264675338, -0.0780160725, -0.0300690588, -0.1266608685, -0.0736267269, -0.0744164661, 0.0278719105, 0.0312746055, 0.0240440704, -0.0957091898, 0.1205031797, 0.0147267124, -0.0832440630, 0.0231979135, -0.0250204690, -0.0418563783, 0.0509569012, 0.0392026044, 0.0489911810, 0.0487211160, 0.0863272771, 0.0305069014, -0.0493543372, 0.1166092828, 0.0196385588, -0.0569247603, 0.0623254813, 0.0289123673, 0.0721195042, 0.1297014058, 0.0634389967, 0.0370206870, -0.1220600531, 0.0007459454, 0.0813923627, -0.0122689111, 0.0140875364, 0.0613532513, -0.0149841281, -0.0332522877, -0.0827828199, -0.0545914210, 0.0202255677, -0.0279737134, -0.0341921784, -0.1517686248, -0.0279349051, 0.0355370492, 0.1279085875, -0.0903155580, 0.0212406237, -0.0014109045, 0.0068151043, -0.0000071889, -0.0872939900, 0.0103645567, 0.0493427143, 0.0490046218, -0.0446863174, -0.0422082879, 0.0519090444, -0.0259688646, -0.1449043900, 0.0595457815, 0.0201361626, -0.0228795446, 0.0889278054, 0.0636607781, 0.0760590732, 0.0708280280, 0.0433404818, 0.0750686303, -0.0427090973, -0.0335658602, 0.0906842425, -0.0062674540, 0.0404955782, 0.0812031031, -0.1608796567, 0.0315345638, -0.0129275294, -0.0787116736, 0.0017870588, -0.0776306912, 0.0824175477, -0.0410769656, 0.0245453678, -0.0072017713, 0.0759494454, -0.1336340308, 0.0362741202, -0.0165193100, -0.0300031137, 0.0034419047, -0.1274936050, -0.0271635670, 0.0808067247, -0.0305098053, 0.0160459261, -0.0488661937, 0.0255257953, -0.0029776283, -0.1290746778, 0.0145024704, 0.1214556471, -0.1442095190, 0.0714043900, 0.0446940288, 0.2006311119, 0.1110444814, 0.1469745189, 0.1258028448, -0.1162722334, -0.0270433873, 0.0035591964, 0.0365505964, 0.1076679230, 0.0687474012, -0.1100030169, 0.0239553526, -0.0343373418, -0.1255768687, -0.1046057940, -0.1547013074, -0.1494232416, -0.0881679580, -0.0249992721, -0.0211907942, 0.1380806714, -0.1885598749, 0.0889038071, 0.0572264865, 0.0632670820, -0.0710128546, -0.1415545046, 0.0692039654, 0.0176764186, -0.0667365715, 0.0175848454, 0.1041120961, 0.0498366877, -0.0159665607, -0.1377045363, 0.0514999740, 0.0379123650, -0.0753772035, 0.0590151586, -0.0207442939, 0.1392724365, 0.1448809654, 0.0087910816, 0.0026871571, -0.0211443566, -0.0535008460, 0.0656441003, 0.0447279103, 0.1232787892, 0.0793211535, 0.0195704252, 0.0025230872, 0.0121847093, -0.1046672910, -0.0769510046, -0.0994544774, -0.0192065071, -0.0989977941, 0.0691225454, 0.0042404071, 0.2088360488, -0.1239952892, 0.0789871812, -0.0130519876, -0.0653650686, 0.0262815300, -0.1545839608, -0.0079462100, 0.0788241178, 0.0012872067, -0.0458187833, 0.0646651089, 0.0581701808, -0.0260711368, -0.1041112542, 0.0948551819, 0.0305617880, -0.1184382439, 0.1036998704, 0.0485308133, 0.0518229194, 0.1238808632, 0.1068800539, 0.1092287675, -0.0556402989, -0.0849754661, -0.0266154576, 0.0369878747, -0.0397450328, 0.1052429527, -0.0737180561, 0.0072524031, 0.0130897537, -0.0521638207, -0.0804965869, 0.0245964602, -0.0088630244, -0.0757678896, -0.0026578063, -0.0200964175, 0.1309724301, -0.1471342742, 0.1347658634, 0.0060911756, -0.1443966031, -0.0722521842, -0.1160580441, -0.0748955905, 0.0512135476, 0.1090897471, -0.0621169619, 0.0670237467, 0.0320676789, 0.0391765498, -0.0860058218, 0.1028504968, 0.0135494322, -0.1326839179, 0.1436732858, -0.0021609645, 0.1037182584, 0.0486843325, 0.0026296147, 0.1059906557, -0.0450314991, 0.0456957594, -0.0087245880, 0.0237454381, 0.0683398768, 0.0590999462, -0.0407122970, -0.0042077405, 0.0642186105, -0.0197397247, -0.0912965015, -0.0580006652, -0.0254611392, -0.0813442543, -0.0282248594, -0.0372651964, 0.1213715300, -0.0712671652, 0.0592137091, 0.0492862724, -0.0522478484, 0.0145380553, -0.1672756672, 0.0213351436, 0.0843598992, 0.1172659844, -0.0464424118, 0.0980929881, 0.0813497975, 0.0067324382, -0.0695744455, 0.0733325630, -0.0048574856, -0.1469799280, 0.1128183380, 0.0392551683, 0.0305548273, 0.1304236054, 0.0673263520, 0.0343817212, -0.1013439074, -0.0126949241, -0.0871781483, 0.0152380951, 0.0356336422, 0.0943619832, -0.1070144102, 0.0450154357, -0.0238698963, -0.0013716301, -0.0753552467, -0.1228737980, -0.0724356472, -0.0493388884, 0.0294423997, -0.0185419694, 0.1745134443, -0.1387841403, 0.1001488268, 0.0487806760, 0.0044021620, -0.0348492414, -0.0779760256, 0.0577617399, 0.0998910442, 0.0063537518, -0.0072598029, 0.0568350814, 0.1019278020, 0.0083493777, -0.1367032230, 0.0889292285, 0.0520205759, -0.2056140155, 0.1974090040, 0.0499629416, 0.1322491169, 0.0931219831, -0.0857937410, 0.0804102272, -0.0805014819, -0.0311462674, 0.0087783225, 0.0360141210, -0.0707516745, 0.0662907287, 0.0878441706, 0.0228608921, -0.0935737416, 0.0207554884, -0.0463222787, 0.0185381100, -0.0313615687, -0.0981180072, 0.0160896983, -0.0027375750, 0.0331046544, -0.0491516292, 0.1624010056, -0.0109933326, 0.0042827860, 0.1326733232, -0.1673604697, 0.1106656864, 0.0614049062, -0.0080911545, 0.0209017321, 0.0901687443, 0.0847562924, -0.0039767367, -0.0476658754, 0.0183202736, 0.0311722383, -0.0326647311, 0.0633648857, 0.0663534999, 0.0176550243, 0.0018319522, 0.0900216177, 0.0885802284, -0.1147739142, -0.0238236189, 0.0221984815, 0.0766803250, 0.0406086147, 0.0919379815, 0.0001620992, 0.0606889464, -0.0169539470, -0.1104097888, 0.0268565882, -0.0879608914, -0.1105198935, -0.0483001880, 0.0516509973, -0.0417060815, 0.0512448810, -0.0482375622, 0.0331499316, 0.0313937925, 0.0065158312, 0.0294975359, -0.0327978656, -0.0390619226, 0.0679002628, 0.0524744764, -0.0687992945, -0.0220384039, 0.0461341925, -0.0043627950, -0.0732280836, -0.0322629400, 0.0366446413, -0.0045330706, 0.0505963676, 0.0473647602, 0.0192353632, 0.1586807370, 0.1070785671, 0.0663668439, 0.0054195183, 0.0548087098, 0.0466770791, 0.0203025248, 0.0499235764, 0.0240564868, -0.0210836995, 0.0444238447, -0.0401970409, -0.0966150314, -0.0240970664, -0.1180252731, -0.1176724583, -0.0362706780, -0.0503176264, -0.0872352570, 0.1841821223, -0.0410649665, 0.0320746675, 0.0307737626, -0.0840082318, -0.0388346650, 0.0049314396, -0.0456846058, 0.0694973692, 0.0627786741, -0.0386169627, 0.0460006148, 0.1407876760, -0.0842109099, -0.0815985724, 0.0532061346, 0.0552922376, -0.0953490064, 0.1444166750, 0.0904327258, 0.0686343610, 0.0438174717, 0.0973352790, 0.0767955706, -0.0577071942, -0.0046635340, 0.0444600806, 0.0529684611, 0.0663933158, 0.0586596839, 0.0111220283, -0.0097597865, 0.0735964626, -0.1227939352, -0.0101434337, -0.1510887295, -0.0449855961, 0.0028282246, 0.0373940580, -0.0322735719, 0.1546652317, -0.1359206438, 0.0293610618, 0.1084673777, -0.1053921431, -0.1107280701, -0.1168704033, -0.0554462634, 0.0863541514, 0.0325490348, -0.0361409597, 0.0546985902, 0.1080349386, -0.0431768112, -0.0917209536, 0.0326956436, -0.0037717379, -0.0294179246, 0.0733821765, 0.0915190205, 0.0644358769, 0.1105634347, 0.1828191578, 0.0671866909, -0.0499137193, -0.0236423723, 0.0713533387, 0.0389182307, 0.1755532622, 0.0929961726, -0.0761296153, 0.0163963921, 0.0141735831, -0.1737029403, -0.0279565379, -0.0337588489, -0.0698349103, -0.1411752999, 0.0843477026, -0.0279203802, 0.2205692083, -0.1599340439, 0.0662970021, 0.1306416690, -0.0337169766, -0.1087176129, -0.1021596566, -0.0449560955, 0.0953357592, 0.0495186597, -0.0116469581, -0.0137437489, 0.0528588779, -0.0019089072, -0.1466492414, 0.1227506623, -0.0363806821, -0.0952913016, 0.0957648382, 0.0487028584, 0.1228480265, 0.0731229857, 0.1374716908, 0.0281761140, -0.0843792856, 0.0052637816, 0.0937661305, 0.0256135818, 0.1107508019, 0.0798635185, -0.0749659613, -0.0295359064, 0.0072044502, -0.0602312945, -0.0216303188, -0.1294614226, -0.0256794803, -0.0713837072, -0.0049489699, 0.0207834356, 0.0937140360, -0.1541654170, 0.0405266769, 0.0882180855, -0.0366795287, -0.0226481929, -0.1843885034, 0.0054915426, 0.0687481239, 0.0184437782, -0.0419924408, 0.0388225727, 0.0389702134, 0.0106513575, -0.1571194828, 0.0925325602, 0.0204207040, -0.0968687311, 0.1952965409, 0.0451886393, 0.0656769499, 0.0604298599, 0.1078356877, 0.0530004390, -0.0630497411, 0.0033016377, 0.0055852947, 0.0254453514, 0.0469490699, 0.1648142934, -0.0418402255, 0.0838770866, 0.0390458405, -0.0979384333, -0.0527217574, -0.1504137516, -0.0776980594, -0.1080778688, 0.0326519050, 0.0163232461, 0.1713549197, -0.1280782670, 0.0386349931, 0.0293905511, 0.0213759728, -0.0520196334, -0.2179561108, -0.0116075417, 0.0361121967, -0.0360091925, -0.0618616194, 0.0148531264, 0.0403242968, -0.0024925137, -0.1900269985, 0.0588556938, -0.0160965100, -0.1128900945, 0.1283170134, 0.0656543225, 0.1119520664, 0.1031097844, 0.1790729314, 0.0038942199, -0.1424659193, -0.0107375393, 0.1184812561, 0.0249609314, 0.0387220457, 0.1302688122, -0.1044939756, 0.0205527712, -0.0077417786, -0.0715761706, -0.0087581221, -0.1316647679, -0.0454987139, -0.1260543019, -0.0083299521, -0.0580396429, 0.1951133162, -0.1692354083, 0.0950524956, 0.0416303240, -0.0183719080, -0.0517609827, -0.1044080853, -0.0249998774, 0.0654722303, 0.0331821740, 0.0103309294, 0.0676113144, 0.1356893927, 0.0490005799, -0.1917893589, 0.0452479720, 0.0653317049, -0.1392031461, 0.0209932867, 0.1176910847, 0.1216803342, 0.1301625073, 0.1468186826, 0.0842907950, -0.0399608389, -0.0319863111, -0.0037524845, 0.0348746106, 0.0240862519, 0.0815427899, -0.0114991842, -0.0166932177, -0.0281534996, -0.0827416778, -0.0679609179, -0.1474321336, -0.0682468638, -0.1143540367, 0.0455648899, -0.0684239492, 0.1891627759, -0.0993137807, 0.0026954024, 0.0689027682, -0.0738945827, -0.0577477738, -0.1671244204, -0.0464622416, 0.0613633804, 0.1514769346, -0.0902818590, -0.0416804180, 0.0700498894, 0.0133556863, -0.1431097686, 0.0355829336, -0.0113470070, -0.1137235239, 0.1373143494, 0.0955274776, 0.0337708071, 0.1085659713, 0.0993667766, 0.0893045738, -0.1249379069, 0.0208277907, -0.0042245318, 0.0279673673, -0.0760164335, 0.0803423449, -0.0106431488, 0.0627098233, 0.0417311974, -0.0895990357, 0.0091732107, -0.1437658966, -0.0821158215, -0.1136608198, -0.0467581972, -0.1046751142, 0.1282272935, -0.1239484549, 0.0099325348, 0.1293526143, 0.0048517706, -0.0681542531, -0.0717612505, -0.0437438227, 0.0914934576, 0.0955272987, -0.0100958152, 0.0118679460, 0.0482423156, -0.0236810725, -0.1481631994, 0.0416091494, 0.0793102458, -0.0375071242, 0.1742538959, 0.1622841060, 0.1020942777, 0.0026481934, 0.1284395009, 0.1091933399, -0.0808444470, 0.0220805611, -0.0947373360, 0.0785180405, -0.0274302009, 0.1125048250, -0.0043427427, 0.0244517606, 0.0020496394, -0.0925275758, -0.0600042380, -0.0997856930, -0.0664342791, -0.0648901239, -0.0078020105, -0.0383402370, 0.1220980287, -0.0630003363, 0.1505929828, 0.0604871213, -0.0471663587, -0.0991041735, -0.0596582666, -0.0120546231, 0.0967419595, -0.0210380200, 0.0262816250, -0.0069310525, 0.1278381646, -0.0075658462, -0.0711767226, -0.0385712571, 0.0591725521, -0.0589204989, 0.1416400820, 0.1225758418, -0.0375964530, 0.0466309786, 0.2109089047, 0.1528822035, -0.0171495918, 0.0333682783, 0.0155412043, 0.0867948011, 0.0042303256, 0.1143447310, -0.1162625179, 0.0328488313, 0.0157024004, -0.0392279886, -0.0362229496, -0.1756846756, -0.0661915690, -0.0338864215, 0.0440457836, -0.1168198511, 0.1871988177, -0.0280917045, 0.1256453246, 0.1512285918, -0.1336176991, -0.0731235892, -0.0475042462, -0.0493799746, 0.0323159769, 0.1078071892, -0.0435257740, 0.0204204600, 0.1462030858, -0.0902923793, -0.0188495535, 0.0725669116, 0.0431129597, -0.1096101329, 0.1661128402, 0.1117579564, 0.1086561382, 0.0891432911, 0.1692130864, 0.1883217692, -0.0623966679, 0.0003438649, -0.0748300701, 0.0945007503, 0.1286992431, 0.1551299393, -0.0623957627, 0.1037328467, -0.0340584964, -0.1172528341, -0.1116911098, -0.1573705971, -0.1349211484, -0.0592791922, -0.0455144942, -0.1024712324, 0.2347749770, -0.1700376719, 0.0748488307, 0.1061808765, -0.1883559227, -0.0886400044, -0.0428001545, 0.0301254001, 0.0375786200, 0.1260968596, 0.0176468641, -0.0056547332, 0.0824706256, -0.0136098890, -0.0763925612, -0.0222615581, -0.0447137095, -0.0740148798, 0.0922181234, 0.1814633459, 0.0112883989, 0.0481235757, 0.1823807210, 0.1664886177, -0.0751120746, 0.0450553931, 0.0550641567, 0.0237455349, 0.1445918977, 0.1263901442, -0.0249735117, -0.0092739714, 0.0018624251, -0.0807194635, -0.0143350717, -0.2509327233, -0.1470344812, -0.0216989405, 0.0959720314, -0.1054770648, 0.2420973331, -0.1445346326, 0.1267074794, 0.0987538025, -0.0292530656, -0.0783281326, -0.0668641478, 0.0552386567, 0.0043809996, 0.0068935184, -0.0002701851, -0.0211379491, 0.0857250243, 0.0088881552, -0.1203505620, 0.0155489286, -0.0229751207, -0.1342785805, 0.1614080369, 0.1235484257, 0.1412367523, 0.1370376498, 0.1711205691, 0.0631637499, -0.1088271812, -0.0518856384, 0.0512004979, 0.0273928382, -0.0088975355, 0.1011806428, -0.0740129575, 0.0247796029, -0.0073000737, -0.0996091440, -0.0399520136, -0.1270717680, -0.0774822235, -0.1037265211, 0.0576200038, 0.0190420542, 0.1597928852, -0.1715283990, 0.1056657061, 0.0553097092, -0.0371442474, -0.1256081313, -0.1504267901, -0.0362862907, 0.1112150773, 0.1438324898, -0.0124490326, 0.0532444194, 0.1227489486, -0.0094420444, -0.1556861997, 0.0910358354, -0.0263830815, -0.1141734719, 0.1471177489, 0.0824537724, 0.1514338106, 0.1347317398, 0.1435589045, 0.0830215290, -0.0821765214, -0.0591410547, 0.0865950659, 0.0620532632, 0.0008407794, 0.1794119328, -0.0762252659, -0.0125281485, 0.0288496446, -0.0995389670, -0.0123069566, -0.1481449008, -0.0209438838, -0.0996981412, 0.0481758937, -0.0647993982, 0.2011670619, -0.2041847706, 0.0702467188, 0.0445302986, -0.0508729406, -0.1137317419, -0.2335466594, -0.0088223005, 0.1203819290, 0.0560326986, -0.0591100045, 0.0643956587, 0.0594090335, -0.0870230645, -0.2658900321, 0.0353920572, -0.0164141785, -0.1501054466, 0.0925326869, 0.1034936979, 0.1307470053, 0.1043154970, 0.1587174237, 0.0937618315, -0.0539791621, -0.0159789547, 0.0398758724, 0.0516119339, -0.0284925569, 0.0992339849, -0.0212107804, 0.0031445192, -0.0035108034, -0.1397638172, -0.0508506373, -0.2091203779, -0.0853256881, -0.1429013163, -0.0327763893, -0.0719783530, 0.1427884996, -0.2041591704, 0.0766587928, 0.0423954539, 0.0128246229, -0.0040112771, -0.1135243550, -0.0461640209, 0.0918966755, -0.0036605266, -0.0265747234, 0.0646035597, 0.0693756118, -0.0399655774, -0.2713543177, 0.0358802117, -0.0483072326, -0.1306314170, 0.1029870138, 0.1125111207, 0.0872269347, 0.1634672582, 0.2091415673, 0.0392234251, -0.0755978227, -0.0036166329, 0.0300533790, -0.0169258695, 0.0470373519, 0.1493003815, -0.0819802210, 0.0414105579, -0.0259697530, -0.1798433512, -0.0837668628, -0.1080107391, -0.0766115636, -0.1361428201, -0.0279671364, -0.0616155565, 0.1762737036, -0.2246783376, 0.1354321837, 0.0286432449, -0.0158198401, -0.0479332246, -0.2081069052, -0.0371715724, 0.0987925306, 0.0359916128, -0.0016802335, 0.0579798035, 0.1050418243, -0.0314005986, -0.2232144177, 0.0721452162, -0.0059589259, -0.0707284063, 0.1949237436, 0.1499960423, 0.0873033628, 0.1349031329, 0.1318708658, 0.0756581128, -0.1221650988, 0.0042592860, 0.0421279818, 0.1021660492, 0.0517535210, 0.0805426687, -0.0309100132, -0.0267226417, 0.0090397624, -0.0984141007, -0.0060456595, -0.2013346553, -0.1064707264, -0.0505990982, -0.0068595177, 0.0517891161, 0.0872683600, -0.1130744889, 0.0436029322, 0.0470057726, -0.0264550913, -0.1018734053, -0.0231728144, -0.0061469497, 0.0420914330, -0.0095476238, -0.0281440355, 0.0421377756, 0.1035481766, 0.0216953252, -0.1205277964, 0.0053958800, -0.0045291088, -0.0426747240, 0.0969422013, 0.0232878774, 0.0793884099, 0.0890179351, 0.1545193195, 0.0574455038, 0.0208874233, -0.0037351302, 0.0063112457, 0.0352647714, 0.0191098470, 0.0383150168, -0.0852438286, 0.0372089334, -0.0500924662, -0.0551064909, -0.0087538697, -0.1134066805, -0.1157524586, -0.0767967254, -0.0208360478, -0.0543617867, 0.2218142450, -0.0916736349, -0.0316749625, 0.0602940843, -0.1420045048, -0.0546811894, -0.0772867352, -0.0167953093, 0.0449420847, 0.0584666766, 0.0340587273, 0.0606324896, -0.0259924419, -0.0625605211, -0.0851447135, 0.0140506672, 0.0330496728, -0.0162545647, 0.1341160238, 0.0675124601, -0.0227030106, 0.0295774080, 0.1907490641, 0.1261584312, -0.0602443814, 0.0519567430, -0.0717680082, 0.1319693327, 0.0460266620, 0.1270606667, -0.0741165057, 0.0871776491, -0.0411963314, -0.0707411095, -0.0358847044, -0.2339388430, -0.1447162926, -0.0161710642, -0.0427220166, -0.0345046818, 0.1730646044, -0.0550072454, 0.0295692943, 0.1457647830, -0.1461444646, -0.1032029614, -0.1092975065, 0.0562304854, 0.0428743586, 0.0672262609, -0.0119625637, 0.0090066912, 0.0925489664, -0.0237599909, -0.1802409589, 0.0130117200, 0.0270346943, -0.0223427601, 0.0745297447, 0.0966263041, 0.0578216538, 0.0825641751, 0.1106674224, 0.1763972938, -0.0644040704, -0.0225133803, -0.0042261151, -0.0119478088, 0.0387026034, 0.1223315150, -0.0337315537, 0.0102723204, 0.0564277768, -0.0703828633, 0.0199424718, -0.2157465667, -0.0843624398, -0.0505068563, -0.0148204109, -0.0671321601, 0.1735160500, -0.0954820663, 0.0352648012, 0.0621944144, -0.0839970037, -0.0841422901, -0.0349998213, -0.1135426089, 0.0305297598, 0.1610755026, -0.0494720265, -0.0106839193, 0.0567750260, -0.0600475892, 0.0076636267, 0.0076003480, 0.0571216680, 0.0108997775, 0.0990136564, 0.1253670901, 0.0406431817, 0.1043964997, 0.1480553150, 0.1905999929, -0.0337334238, 0.0634651706, -0.0016367622, 0.0697674528, 0.0052209413, 0.0612975694, -0.0132538928, 0.0873477384, -0.0230659880, -0.0356685519, -0.0529893711, -0.1244415194, -0.1380290836, -0.1444466114, 0.0117761418, -0.0646549389, 0.2420987934, -0.1414674520, 0.0030721072, 0.1079878211, -0.0590660311, -0.0817226768, -0.0973465219, -0.0609282814, 0.0846900046, 0.1310850084, -0.0193430446, 0.0819832310, 0.0794979259, -0.0169054680, -0.0814530253, 0.0310098361, -0.0217622090, -0.0111229997, 0.0715106949, 0.1142578274, 0.0514820889, 0.0811788812, 0.2228793502, 0.1315147877, -0.0428510420, 0.0146604106, -0.0248937588, 0.0398240350, 0.0723219290, 0.1260664165, -0.1329520196, -0.0133736655, 0.0183639973, -0.1389568746, -0.0174709763, -0.1592187285, -0.0616243407, -0.0560533404, 0.0837368891, 0.0101222824, 0.1558878273, -0.1936867535, 0.0946648121, 0.0785044804, -0.1840633154, -0.1194164529, -0.0334847197, -0.0232622717, 0.0847833976, 0.0271642655, -0.0952341408, -0.0186450277, 0.0560433380, -0.0470041074, -0.1422919184, 0.0729027763, -0.0023873129, -0.0451813303, 0.2006787062, 0.0337613523, 0.1488261521, 0.1098004729, 0.2456144840, 0.0570943020, -0.1274586469, 0.0109255379, 0.1006532386, -0.0054661436, 0.0382856354, 0.1769106686, -0.0626811609, 0.0140751889, 0.0537738428, -0.1076137424, -0.0258627646, -0.0881319195, -0.1160259768, -0.1087554842, 0.0109159630, -0.0534031428, 0.2429378182, -0.2215379626, 0.0751200765, 0.0654726177, -0.0630039722, -0.1014829278, -0.2005789429, 0.0019525593, 0.1082112417, 0.0408264436, -0.0153252305, 0.1029524133, 0.0811672360, -0.0543302000, -0.1810614318, 0.0491954200, -0.0452368669, -0.0439158827, 0.1153865308, 0.0534390323, 0.1633996665, 0.1820366979, 0.1480173022, 0.1413343102, -0.1302924305, -0.0505078547, 0.1466649324, 0.0053378227, 0.1071010903, 0.1950044781, -0.1330965608, 0.0173379648, -0.0353172794, -0.1606985033, -0.0091267731, -0.2443635613, -0.1084454581, -0.1433113813, 0.0593488701, -0.0803680494, 0.1911201775, -0.2940037549, 0.1068402678, 0.0981004909, -0.0939455256, -0.1445981860, -0.1911977679, -0.0881869495, 0.1006132737, 0.0327694789, -0.0335781574, 0.0849452317, 0.1068738699, -0.0831094682, -0.1901490092, 0.1094017476, 0.0076044267, -0.1124941707, 0.0581755452, 0.1176634580, 0.1458814293, 0.1361712813, 0.1282477826, 0.0721921772, -0.1779094338, 0.0000368098, 0.1216727272, -0.0159115326, -0.0303708147, 0.1883938313, -0.1334503740, -0.0276309233, 0.0417187363, -0.1012274921, -0.0354222395, -0.1799067855, -0.1198577061, -0.1035141349, 0.0852590352, -0.0837991759, 0.2028859407, -0.2121325880, 0.0327068269, 0.0787368938, -0.0404434092, -0.0314209275, -0.1874420643, -0.0740633234, 0.0894348845, 0.0759067461, -0.0288056992, 0.0718848333, 0.0657119155, 0.0280471630, -0.1946776658, 0.0645114779, -0.0471571647, -0.1598274112, 0.1317452192, 0.0258223824, 0.1490403116, 0.1088045761, 0.1052601039, 0.0663435981, -0.0698780119, -0.0396854021, -0.0256261192, 0.0358208306, 0.0775935426, 0.0876741260, -0.0184966065, 0.0429246724, -0.0092541939, -0.0830970630, -0.0037737181, -0.1300868690, -0.1105484068, -0.1233527362, 0.0318777002, -0.0516020730, 0.1143504009, -0.2446292341, 0.0362507403, -0.0040568258, 0.0502552502, -0.0689682439, -0.1392485350, -0.0284420121, 0.0628313944, 0.1198722795, -0.0155833187, 0.0309051666, 0.0053553153, 0.0173610393, -0.1284333318, 0.0265736282, 0.0337551981, -0.0329459794, 0.1281809658, 0.1452397704, 0.1259456724, 0.0994929522, 0.1963102072, 0.1563647389, -0.0257472750, -0.0077050338, -0.0454939120, 0.0115419123, 0.0425409153, 0.1303254664, -0.0775114074, 0.0705428869, 0.0149465986, -0.1210445017, -0.0157262329, -0.2032289654, -0.0751334578, -0.0358571894, -0.0177948829, -0.0777254775, 0.1782404184, -0.1405424178, 0.1078797132, 0.1159992069, -0.0381229408, -0.0715605244, -0.0275186263, -0.0450748093, 0.0882880464, 0.1247460544, -0.0259886198, 0.0652094483, 0.0828831345, -0.0111110490, -0.1713499874, 0.0520131849, 0.0443419181, -0.0377482735, 0.1810285747, 0.0509111620, 0.1251902729, 0.1004321501, 0.1837258488, 0.1685908586, -0.0548767261, -0.0311491247, -0.0534058996, 0.0818974674, -0.0382261723, 0.0944282934, -0.0462221317, 0.1011125669, -0.0668859482, -0.1706714183, 0.0489448532, -0.2465058565, -0.1089529023, -0.0877730325, -0.0361915529, -0.1154344827, 0.1658722162, -0.1738336980, -0.0718629360, 0.1250467598, -0.0488978252, -0.1289658844, -0.0758285746, -0.0571772344, 0.0436832346, 0.1507463157, -0.0307797752, 0.0919313356, 0.0428316966, -0.0191308595, -0.0734311938, 0.0527122281, 0.0553511605, -0.0877678990, 0.1298659593, 0.0703241900, 0.0866236240, 0.1396236718, 0.2504834235, 0.2021111101, -0.1068217307, 0.0179006401, -0.0364839062, 0.0377329439, -0.0847295746, 0.1122692972, 0.0067374660, 0.0820724219, -0.0508660078, -0.0630207583, -0.0090322141, -0.1877830327, -0.0949781612, -0.1140807420, -0.0565429442, -0.0925459266, 0.1407734454, -0.0476551875, 0.0095872171, 0.1439436227, -0.1436511129, -0.0684322268, -0.0317648277, -0.0428251959, 0.0388253033, 0.0499568842, 0.0245103352, 0.0260882545, 0.0614914969, -0.0016339314, -0.0100440606, 0.0537251830, 0.1032523066, -0.0711698607, 0.0487314165, 0.1286112070, 0.0067484598, 0.1243112609, 0.2462291569, 0.1000184789, -0.0657815710, 0.0232354626, -0.0051065306, 0.0815181732, -0.0310374256, 0.1452142894, -0.0797169209, 0.0103319138, 0.0038254256, -0.0522917211, -0.0277748853, -0.1921125948, 0.0069162352, -0.0975613296, -0.0280581787, -0.1310666353, 0.1945576221, -0.1049874723, 0.0457909703, 0.1230210587, -0.0857070461, -0.0491445661, -0.1703733653, -0.0601301976, 0.0205446817, 0.0832247958, -0.0151186334, 0.0317128375, 0.0567037426, -0.0153162926, 0.0247133709, -0.0244055316, 0.0281653237, -0.1770110428, 0.2026303262, 0.0920273289, 0.1445089728, 0.1458114684, 0.1103607267, 0.1013078019, -0.1367687285, 0.0164227840, -0.0938353613, 0.0828238875, -0.0406365208, 0.1221147031, -0.0177926812, 0.0175560601, -0.0412272513, -0.0646188632, -0.0477608591, -0.1346916854, -0.0722382367, -0.1200089231, 0.0176205747, -0.0099395290, 0.2161397487, -0.1549682915, 0.0433879383, 0.0892927200, -0.0589061789, -0.1176856682, -0.0868749917, -0.0162856821, -0.0235780720, 0.1017659903, -0.0181319471, 0.0015827366, 0.0800291002, -0.0137370843, -0.0916298181, -0.0045994390, 0.0188770518, -0.0775547028, 0.0546558946, 0.0571286976, 0.1275806874, 0.1229856163, 0.1403007656, 0.1542018503, -0.0628482923, 0.0267422926, 0.0809456930, 0.0746751502, 0.1191693768, 0.1150444597, -0.1498287320, 0.0455715023, -0.0335712880, -0.1226219535, 0.0179433525, -0.1160046160, -0.0721343905, -0.0272417143, 0.0503027737, -0.0418835096, 0.1880571693, -0.1111501157, 0.0421495512, 0.1197585985, -0.0728792697, -0.0438093767, -0.1176462471, -0.0215196460, 0.0882364362, 0.0793979317, -0.0235949364, 0.0613011457, 0.0665969253, -0.0101667931, -0.1271447241, 0.0480626076, 0.0519480668, -0.0772740319, 0.1194034815, 0.0655807704, 0.0623773895, 0.1304166168, 0.0830021501, 0.0689650774, -0.1058512256, -0.0442066267, 0.0837678015, 0.0837341920, 0.0050514229, 0.1554019004, -0.1019361690, 0.0250820741, -0.0184377059, -0.1577471048, 0.0289413240, -0.1553919315, -0.0379636809, -0.2241851538, 0.0349896885, -0.1178553030, 0.1950423270, -0.1376610249, 0.1242108569, 0.0222639404, -0.0299609061, -0.1088503525, -0.2004023492, -0.1000377461, 0.1033036560, 0.0261156391, -0.0102864048, 0.0183387753, 0.0478240959, 0.0372535326, -0.1673617512, 0.0156179257, -0.0254211053, -0.1659404188, 0.2112578899, 0.1023424044, 0.0945949554, 0.1580862254, 0.3060461879, 0.1589941382, -0.1246766895, -0.0129032256, 0.1116002351, 0.0540348105, 0.1435132474, 0.1552102566, -0.0686201155, 0.0713773966, 0.0357238613, -0.1942212880, -0.0505431443, -0.2147000581, -0.0852241516, -0.1362997741, 0.0855766982, -0.1315188706, 0.2684941292, -0.2998647988, 0.0992199555, 0.0508609414, -0.0632480904, -0.1604894847, -0.2178381830, -0.0150498673, 0.0899835080, 0.1026647538, -0.0620538667, 0.0709070116, 0.1137058884, -0.0649656206, -0.2116373479, 0.0177840423, -0.0422608592, -0.1011428386, -0.0144780884, 0.1351514012, 0.0704620704, 0.1233111769, 0.1418387592, 0.1774929166, -0.0653061941, -0.0105971564, 0.1213539839, 0.0430923775, 0.1361978501, 0.1046237051, -0.0781944320, 0.0223205034, 0.0466953404, -0.1921037883, -0.0438475832, -0.1646813005, -0.0682431757, -0.0983950719, 0.0295530166, -0.0515382066, 0.2375676930, -0.2309848070, 0.1461153179, 0.0375539027, -0.0069486839, -0.0859688073, -0.1825619340, -0.0224321466, 0.1209122762, 0.0200542621, -0.0942127854, 0.0658848584, 0.0070358226, -0.0121349609, -0.1635542512, 0.0811518505, -0.0298306476, -0.1063752621, 0.1522741765, 0.1280657649, 0.1438053399, 0.0928841606, 0.1244541779, 0.0531601496, -0.0382016860, -0.0330696851, 0.0656668469, -0.0079277577, 0.0931584984, 0.1185615361, -0.0276782252, -0.0353677161, 0.0286868643, -0.1347044259, 0.0064852126, -0.1342672110, -0.0676792935, -0.0896260664, 0.0718511194, 0.0472022109, 0.1870568097, -0.1772252023, 0.1136879697, 0.0078733293, 0.0248679239, -0.0135118030, -0.1529408544, -0.0790772736, 0.1257174015, -0.0689045489, -0.0481548458, 0.0576152839, 0.0440463386, -0.0354955532, -0.2130576074, 0.0274016708, 0.0142744882, -0.1113269553, 0.0671092719, 0.1523115486, 0.0933397412, 0.0891529769, 0.2192481160, 0.0805474073, -0.0642606467, -0.0099463323, 0.0464725792, 0.0576676838, 0.0046142866, 0.0643564910, -0.0257080141, 0.0137245785, 0.0191756710, -0.1176653206, -0.0284949411, -0.2212062776, -0.1245195121, -0.0938781798, 0.0728494078, -0.0014584407, 0.2068594992, -0.0927649587, 0.0423704498, 0.1493745446, -0.1472120136, -0.1671916693, -0.1147249937, -0.0267347377, 0.1081614122, 0.0285301618, -0.0437404215, 0.0074692531, 0.1449936926, 0.0133083155, -0.1278254837, -0.0163866412, 0.0222820714, -0.0669993833, 0.1468294114, 0.0764800087, 0.0245534535, 0.1154207215, 0.1523520947, 0.2048567086, -0.0044670417, 0.0080355378, -0.0426328108, 0.0584618933, -0.0457726046, 0.0613676272, -0.0169287398, 0.0152861914, 0.0305128600, -0.0834107175, 0.0148420213, -0.1536023021, -0.0659626946, 0.0499567240, -0.0200681426, -0.0735575780, 0.1635816246, -0.1820010394, 0.0346893519, 0.0880549848, -0.0639620423, -0.1333483011, -0.0210287608, -0.0332810655, 0.0470772013, 0.0258730836, 0.0222958308, 0.0784545541, 0.1220543534, -0.0203802846, -0.1153046638, 0.0012595232, -0.0561424904, 0.0197768826, 0.1315675825, 0.0521896891, 0.0330021642, 0.0134602655, 0.2033423036, 0.1436963677, -0.0125780255, -0.0220720135, 0.0275278352, 0.0590778776, -0.0246392228, 0.0807376951, -0.0415881276, 0.0662877113, 0.0465729237, -0.1368977427, 0.0198053420, -0.1586462259, -0.0780229792, -0.0603911504, -0.0424075946, -0.1024789587, 0.1386459470, -0.0906509236, 0.0009646770, 0.0486877710, -0.0571616925, -0.0580402054, 0.0066880160, -0.0693611428, -0.0069131781, 0.0615308248, -0.0304447729, 0.0232524183, 0.0132599277, -0.0126740150, -0.0614723526, 0.0384952202, 0.0084132124, -0.1126452833, 0.1201103181, 0.0588394664, 0.0342596881, 0.0401824825, 0.1335017830, 0.1009450778, -0.0670275763, -0.0350359343, 0.0035187223, 0.0571327843, 0.0134291407, 0.1219024882, -0.0237497352, 0.0914413258, 0.0411895849, -0.0176325254, 0.0387016386, -0.1974683106, -0.0289012138, -0.1171394885, 0.0304138549, -0.0592410825, 0.2259159684, -0.0354695767, -0.0221290793, 0.0112210661, -0.1045368388, -0.0494352020, -0.0465426743, -0.0350157842, 0.0675382614, 0.1472113729, -0.0203048978, 0.0232139975, -0.0391232409, -0.0236130804, -0.1321279705, 0.0534155630, 0.0193550196, -0.1171459928, 0.0823729113, 0.0524903238, 0.0465759076, 0.1032315493, 0.2214264572, 0.0974661484, -0.0422910377, -0.0104540633, -0.0204297658, 0.0610450953, -0.0560870916, 0.1058649272, -0.0684994459, 0.0537798814, -0.0234364178, -0.0948616341, -0.0139458813, -0.1802615523, -0.0568985268, -0.0774713978, 0.0879582241, -0.0258229766, 0.1222222671, -0.1885901988, -0.0293818675, 0.1356128156, -0.0904411823, 0.0109289028, -0.0925340131, -0.0660673380, 0.0232469086, 0.1135577038, -0.0381892025, 0.0289837867, 0.0332287438, 0.0211546011, -0.1935167611, 0.0040943869, 0.0018805614, -0.0513616912, 0.0999339744, 0.0899891034, 0.0405611582, 0.0984343067, 0.1040223986, 0.0331748575, -0.0504091606, 0.0472995341, -0.0452721715, 0.0768629834, 0.1046388447, 0.1629977524, -0.0303645339, 0.0252157412, 0.0114242118, -0.0993483588, -0.0204748809, -0.1617404819, -0.2068991065, -0.0522919670, 0.0448429324, -0.0385872684, 0.1614722908, -0.2436659187, 0.0743032917, 0.0438190401, -0.0804372430, -0.0452623814, -0.0331021659, -0.0367986113, 0.0855268165, 0.0465868078, 0.0065832003, -0.0166523680, 0.0415244102, -0.0418740734, -0.0989737958, 0.0185933020, -0.0546282455, -0.1252799928, 0.0599617064, 0.0229130220, 0.1130539551, 0.0621520802, 0.1238123178, 0.0420987941, -0.0868324339, -0.0125204735, 0.0161417052, 0.0133531298, 0.1140403897, 0.1224887148, -0.1203002036, 0.0156007558, 0.0155507643, -0.0780766979, -0.0638122484, -0.1400438845, -0.0887367129, -0.0364691615, 0.0540151373, -0.0009603352, 0.2345248014, -0.1619978994, 0.0484513231, 0.0641367957, -0.1198241189, -0.1327232122, -0.1143903732, -0.0599575602, 0.0993306637, 0.0750963464, -0.0466314591, 0.0530833453, 0.0803474933, -0.0425854325, -0.1340863854, 0.0750742704, 0.0362518094, -0.0354253054, 0.1339034885, 0.0784800127, 0.0231020916, 0.1386132687, 0.2059674859, 0.0630437955, -0.0912280604, -0.0487835631, 0.1275257319, 0.0662055984, 0.1050926521, 0.1693658978, -0.1347869933, 0.0141561124, 0.0138444407, -0.0988388062, -0.0577252991, -0.1735207438, -0.0579573140, -0.1283224076, 0.0248327572, -0.1261596233, 0.2338166684, -0.1891589314, 0.1254721731, 0.0867155120, -0.0101572489, -0.1078330278, -0.1611768752, -0.0538986027, 0.1202192456, 0.0681264773, -0.0276194979, 0.0479388162, 0.0994113907, -0.0123279812, -0.2117056996, 0.0605740510, -0.0705869123, -0.1238613576, 0.1039007157, 0.1052515283, 0.1100901142, 0.1400403380, 0.1525462717, 0.1455970407, -0.1357021183, -0.0140416855, 0.0389924087, -0.0122267352, 0.0885425434, 0.1657110453, -0.1840343177, 0.0151717197, 0.0713264421, -0.0989001542, -0.0718405545, -0.1927918494, -0.0395530201, -0.1510585397, -0.0180352237, -0.0486165844, 0.1977748871, -0.2951415777, 0.0589308254, 0.0023139981, -0.1002884433, -0.0469634943, -0.1797011197, -0.0067740884, 0.0818705410, 0.0673048869, -0.0288974028, 0.0291717276, 0.0816565454, 0.0057446216, -0.2292375565, 0.0730005875, -0.0558040030, -0.1235975549, 0.0929424688, 0.0208020788, 0.0739310682, 0.0763467252, 0.1167427525, 0.0453469008, -0.0554219894, -0.0351555459, 0.0631266609, -0.0003195762, 0.0517625697, 0.1600868404, -0.1851412952, 0.0576330908, 0.0104302373, -0.1891182810, -0.0237105284, -0.2626233399, -0.1295334548, -0.0754362196, 0.0234120227, -0.0719440132, 0.1510574520, -0.2756957412, 0.1093515605, 0.0800708085, -0.0115200011, 0.0396446325, -0.2066880763, 0.0500259176, 0.1162375286, 0.1135965660, -0.0284055527, 0.0280615110, 0.0555311516, -0.0205696318, -0.1880099475, 0.0951611102, -0.0054848352, -0.1391980946, 0.0903586447, 0.0590169840, 0.0482077338, 0.0565995537, 0.2964602113, 0.1087813005, -0.0707688108, 0.0097750779, 0.0361779295, 0.0598061755, 0.0225763638, 0.1236300766, -0.0894330218, 0.0441376679, 0.0072146663, -0.0478080027, -0.0062875398, -0.2982750833, -0.1062410250, -0.1079808623, -0.0498461202, -0.0318828523, 0.1282861680, -0.1394994557, 0.0651085898, 0.1001521870, -0.0579809397, -0.0548486747, -0.0549901091, -0.0071111820, 0.1273898780, 0.0572163165, -0.0389467143, 0.0475491695, 0.0662366748, -0.0331352763, -0.1794850230, 0.0426449403, 0.0349130221, -0.1094708070, 0.0911829323, 0.0429931022, 0.0507166348, 0.0611363687, 0.2174534500, 0.1194644347, -0.0610096231, 0.0600891598, -0.0021595417, 0.0339771695, -0.1111664474, 0.0786479712, -0.0425324179, 0.0840571821, -0.0098191556, -0.1266091913, -0.0480368510, -0.1519242078, -0.0807019845, -0.0579104647, -0.0114954552, -0.1485083699, 0.1014122069, -0.1186225265, 0.0540391877, 0.0038642038, -0.1346398443, -0.0830459595, -0.0409121327, -0.0694605261, 0.0717065036, 0.0961280763, 0.0545607433, 0.0466153845, 0.0522187352, -0.0218710434, -0.1226157025, -0.0047807591, -0.0389776751, -0.1398569196, 0.1440595239, 0.1083837152, -0.0002777466, 0.0538881347, 0.2928460538, 0.1139065698, -0.0140489452, 0.0697541088, -0.0582209453, 0.0826432034, 0.0199288595, 0.0539110899, -0.0433443189, 0.0281107444, 0.0107404888, 0.0020850659, 0.0525607988, -0.2105038315, -0.0711482912, -0.0163074825, 0.0248307213, -0.0658287928, 0.1285309941, -0.0988050848, 0.0557787120, 0.0868622288, -0.1164300591, -0.1088860184, -0.0254921149, -0.0324351825, -0.0161828045, 0.1152544692, 0.0065551926, 0.0930677131, 0.1239080429, -0.0173042156, -0.0263346434, 0.0631453320, 0.0820999518, -0.1605290920, 0.1010846645, 0.0787949264, 0.0656662434, 0.0844520330, 0.0653335452, 0.0668960288, -0.0291564800, -0.0250978731, -0.0020829351, 0.0710317641, -0.0207604282, 0.0523854308, -0.0174913332, 0.0402764529, -0.0243629646, -0.0050769933, -0.0494282059, -0.1406239420, -0.0199830085, -0.0983589441, 0.0114395460, -0.0345874093, 0.0844439939, -0.0837954655, 0.0038226324, 0.0131286969, -0.0712913871, 0.0556095615, -0.0835405663, -0.0331644043, 0.0397142433, 0.0837771893, -0.0474166051, 0.0504881032, 0.0148598598, -0.0129155181, -0.0193174854, 0.0875809193, -0.0123659186, -0.0309671741, 0.0861750171, 0.0275555477, 0.1218789816, 0.0667422265, 0.1011785567, 0.0150179090, -0.0226875525, -0.0790650472, 0.0122305769, 0.0107424287, 0.0806253478, 0.0880737901, 0.0578271374, -0.0167744923, -0.0458741151, -0.0787395090, -0.0870290771, -0.1881341338, -0.0037492495, -0.0059235604, -0.0017175754, -0.0802315474, 0.1406793892, -0.1130378768, 0.0549710393, -0.0585780889, -0.1168285385, -0.0160997622, -0.0740215257, -0.0368243232, 0.0213166252, 