//Numpy array shape [1, 1, 24, 40]
//Min -0.993107855320
//Max 0.994024395943
//Number of zeros 0

#ifndef W16_H_
#define W16_H_

#ifndef __SYNTHESIS__
conv2d_811_weight_t w16[960];
#else
conv2d_811_weight_t w16[960] = {0.3227920234, -0.0234037638, -0.2512012720, -0.6166760921, -0.1576425880, -0.0450935774, -0.2735898197, 0.0763871521, 0.3494239151, 0.4456316233, -0.2394898385, 0.2722488046, -0.1260857582, -0.0037258270, 0.1045133770, -0.6641739607, 0.2748723924, -0.2011891603, 0.1869148761, 0.1596906930, -0.1362838745, 0.0195713434, -0.5625411868, 0.2887538970, -0.0997333303, -0.0308069773, 0.2426178306, -0.1706664413, 0.4237331450, 0.2149901092, -0.2509321570, -0.0928336531, 0.2310105264, 0.0412796773, 0.2523753643, 0.2818188369, 0.1140898317, 0.0876535103, -0.0837670714, 0.4167822301, -0.0681329742, -0.0542165823, 0.2096442431, -0.1366128623, 0.1797481179, 0.3317008317, 0.0848291144, -0.2297535390, -0.0312758498, 0.0784595236, 0.2295249104, 0.7530915737, 0.1093870848, -0.0595573969, 0.2404509038, -0.0703127459, -0.5663561225, -0.0994788408, -0.2094369531, -0.4251980186, 0.4896087050, 0.0202600565, -0.1680475771, 0.1872744262, -0.2866192460, -0.1904660016, -0.2126213312, -0.2554233074, -0.2727908790, -0.1188446358, 0.1799421012, 0.2371065170, -0.1713717431, 0.0560643189, 0.3215978146, -0.1061282754, 0.6433408260, -0.2073970288, -0.2341243923, 0.0789238214, 0.9940243959, -0.2880641818, 0.1336280704, 0.3288226128, 0.1238876507, -0.1633944362, -0.0528689548, 0.0512481108, 0.1739395410, 0.1981447190, 0.0081742853, 0.2969516218, -0.0268675815, 0.2225801051, -0.3220838308, 0.0209459011, -0.3086199462, -0.0281872936, 0.0926510021, 0.1449802220, 0.3339908719, 0.0794174224, -0.1129526794, 0.1039516181, 0.8606119156, 0.0874284431, 0.0391275920, -0.3982626200, 0.0805290043, -0.1377251148, -0.1723540872, -0.3187841773, -0.2097515166, -0.1109633520, -0.3221930265, 0.3940578401, 0.0036285876, 0.2665371001, 0.0999213383, -0.1924456954, -0.0577377118, 0.2681560814, -0.1041007861, -0.3319360912, 0.3721746206, -0.4246925414, -0.1851955950, -0.0967292562, 0.5023607612, -0.1922383606, -0.2720713615, 0.2928862274, -0.3845003545, 0.1790580601, 0.2429229617, -0.5489916801, 0.3237272799, 0.0749670565, -0.2894387543, 0.2155513018, -0.0606904216, 0.2290727794, -0.3888214827, -0.1152387634, 0.1030273587, -0.1870142519, 0.1513652056, -0.4261934757, 0.4781244993, -0.3267675042, -0.2661944032, -0.2519225180, 0.6813308001, -0.3306947351, -0.0636428371, 0.0893667191, -0.3194868267, 0.1866130978, 0.1257795095, -0.3755323589, 0.3299904466, 0.1138856634, -0.1349461675, 0.2311412245, 0.0653001964, 0.3727982342, -0.2511394024, 0.2282985747, -0.0893499777, 0.2812461853, -0.3116299510, -0.1135289297, 0.6081131697, 0.0382048227, 0.1418019831, -0.2431779504, 0.7817186713, -0.0177661162, -0.0362479836, -0.3812801540, 0.1169932485, -0.1386369914, 0.0788415223, -0.2173945755, -0.0940002725, 0.0138705606, 0.1911059618, 0.1669895351, -0.0285628997, 0.4965271652, 0.0501262024, -0.1491991431, 0.0189208109, 0.2284187675, 0.0791403204, -0.2870969474, 0.5017962456, 0.1590457708, 0.0752083212, -0.0289156642, 0.9206757545, -0.2640849352, -0.0371761061, 0.2861322463, -0.3651640415, -0.1106422469, -0.2035660595, -0.3262624145, 0.2047230601, 0.0626524016, 0.1506932229, 0.1803536266, 0.0970565900, 0.1378418952, -0.2738569677, -0.2298117280, 0.0090136984, -0.2613277137, -0.0851487368, 0.5348954201, -0.2735421956, 0.1479969025, 0.1914631128, 0.2140943110, -0.3849582970, -0.1447079331, 0.0851695761, -0.2119647413, 0.4764949977, -0.0563744418, 0.0230512805, 0.4202877879, -0.1585894823, -0.0730269104, 0.0224842690, 0.0168577395, -0.0338363275, 0.0220608618, 0.0235767998, -0.2216037214, -0.2320557982, 0.1910083443, 0.2534601688, 0.0000145025, 0.3988533616, 0.3006504178, 0.0895378739, -0.0190684870, 0.1030039564, -0.0884084627, -0.2407352775, -0.0284552258, -0.1313043684, -0.0969202891, -0.0505678616, 0.1117408052, -0.2196373492, 0.1975951493, -0.1494597942, -0.1976367086, -0.3424235880, -0.0533305593, 0.2809905410, 0.2357202172, 0.1972614080, -0.1821911186, 0.1488659084, 0.2958673537, -0.1971756518, -0.3502093256, 0.0036222620, -0.0000584864, -0.6375998259, -0.0475686714, 0.2915211916, -0.3403001130, 0.2899088860, 0.0098384218, 0.0019655759, -0.5095572472, -0.3012486696, 0.1212112606, 0.0725151151, 0.1085233837, -0.2943817675, 0.0314092375, -0.2495659739, 0.1075658649, -0.1931659430, -0.0428679287, -0.0439970046, 0.1114266887, 0.7522143126, 0.0337314233, 0.2185499668, -0.2778193653, 0.6877461076, -0.5666319728, 0.0764392018, -0.0937974676, -0.2527161539, -0.1925286353, -0.0784954503, 0.4747017622, -0.1416712105, -0.0740583837, 0.2524152696, -0.0200480223, -0.2208589613, 0.4333229661, 0.3030351400, 0.2142446488, 0.0090209926, 0.0717592314, -0.2724339664, 0.5656809211, 0.1410485655, -0.3076674640, -0.1188024729, 0.0074698054, -0.2847850621, -0.0412935838, -0.1496215016, -0.5271135569, 0.2164441347, 0.1503951699, -0.0073351231, 0.2870516777, -0.4951125085, -0.0070617623, 0.3336565793, 0.1716785431, 0.2416940629, 0.3807690740, 0.2314125597, -0.0158092864, 0.0920301154, -0.0247921497, -0.2257248759, -0.2086303383, 0.7147594094, -0.3095055223, -0.2195475698, -0.0911683291, 0.8847065568, 0.0721668079, -0.1266746670, -0.2363148630, -0.2476182133, 0.1198971346, -0.2068765759, -0.2679186165, 0.1953352988, -0.0123317912, 0.1517900825, 0.4453162849, 0.2747063637, -0.1059278101, -0.2729347944, 0.1295767426, -0.2649464011, -0.3273560703, 0.2554388642, -0.4987448454, -0.0115489140, 0.3682316840, -0.0850537643, 0.0345382206, 0.0954182744, -0.1266885251, -0.0394733809, 0.5574382544, -0.2239628434, 0.2583787739, 0.1340396106, -0.3055121005, 0.3780376613, 0.0175407901, -0.2423775792, 0.0258040130, -0.0133772297, -0.0419819653, -0.0758332685, -0.3044275641, -0.1549413949, -0.0372252725, 0.0685755536, -0.0905310884, 0.6102706790, 0.3045853376, 0.0374172926, -0.0663568377, 0.6021811962, -0.3457190692, 0.0266199782, 0.1167653874, -0.2143676132, -0.2520093918, -0.1764966398, 0.1518874466, -0.1787886918, 0.1825977862, -0.1012790427, 0.2187876403, -0.2821190655, -0.0159223154, 0.2010329962, 0.2452521920, -0.1069342494, 0.1709473431, 0.0417949893, 0.2442476004, 0.2867437899, -0.1913336068, -0.0277023576, -0.2467698753, 0.3615638018, -0.0782291889, -0.2366599739, -0.1107601598, 0.2982750237, 0.2107229233, 0.1905792207, -0.2861435413, 0.0414258093, 0.2484997213, -0.0168650132, 0.3017491400, -0.3041520417, 0.2819242477, -0.1903678328, -0.0005685926, 0.2908481061, 0.0504160263, -0.2785201073, -0.0488264933, -0.3564053476, 0.2102638185, -0.0543611273, -0.0971284732, -0.5364875197, -0.1258994192, 0.2054276913, 0.3303546011, 0.0974562690, -0.2479853332, -0.0335009433, 0.0541769676, 0.2506340444, 0.0820245296, 0.3653775156, -0.3464022279, -0.0746851414, -0.4238825738, 0.3020338416, 0.1731698513, -0.0331517756, 0.1346708387, -0.2704231739, 0.2041708231, -0.1383652389, 0.1550453603, 0.2881492376, -0.2558239698, -0.4488129914, 0.0104118064, 0.2519993484, -0.1663987339, 0.1060610041, -0.1572475731, 0.0150487302, 0.4095750749, -0.2847360373, 0.2244090736, 0.2697556019, -0.1487499326, -0.1275485605, -0.1716751903, 0.1785491854, 0.2571512461, 0.2106918395, 0.0959901288, 0.2131426930, 0.3511149287, -0.9931078553, -0.2053441256, 0.1630538106, 0.0556627549, -0.8892217875, 0.0464308523, 0.2957881987, 0.2985086739, 0.0099636270, 0.1690465957, -0.2967256308, 0.0995457619, 0.2579810619, 0.1218421310, 0.0716402009, -0.2378506362, -0.2869295776, -0.4660637677, -0.0456376225, 0.1881920695, 0.0502709560, 0.2766685784, -0.0655329451, -0.0920155421, -0.4038431644, -0.1284744143, 0.2206716239, -0.2210530490, -0.6847739220, -0.1115529463, -0.0109906951, 0.3832133412, -0.2011442482, -0.2393573523, 0.2024898678, 0.2125890255, 0.1094427258, 0.0016937447, -0.1503853202, 0.0047272160, 0.2354238778, -0.1625942141, 0.2660807371, -0.1100132689, 0.2512573898, -0.0141764637, -0.2359025925, 0.6757437587, -0.6867485642, 0.3361208439, 0.1675721705, 0.1500370800, -0.4732420146, 0.1286570430, 0.3135068715, -0.2738767564, 0.5819212794, 0.2737837136, -0.1090491861, 0.4461561739, -0.2892231643, -0.0277662054, 0.3077550828, -0.2627064288, 0.2696228325, -0.1023829803, 0.0759452060, -0.1116282493, -0.2774470448, 0.2702228427, -0.1435962915, 0.3102425635, -0.0473175086, -0.3031925261, -0.1435571611, 0.1063140109, -0.0487140380, -0.0465293787, 0.0039089224, -0.2593953609, 0.1529852301, 0.2227504253, -0.1265443116, -0.3410413861, -0.0191922337, -0.1047197804, -0.2964925170, 0.1494889110, 0.2921436727, 0.2031946629, 0.1013281643, 0.3385075629, 0.0694024786, -0.2704195380, -0.0130206719, 0.2917985022, -0.5210871696, -0.0334596932, -0.3255297840, 0.1771284938, -0.4642136693, 0.2563478053, 0.2105328292, -0.2024665475, 0.0908902586, 0.0654622689, 0.2361703068, 0.1532181352, 0.2492510080, -0.3079784811, 0.0381147899, -0.3637718260, -0.0048890654, -0.1102910340, -0.1661929935, -0.1149894744, -0.0135463746, -0.0854965299, -0.1489991397, -0.5413218737, 0.9035699964, -0.0579747148, 0.0809350237, -0.2630422711, 0.8662634492, -0.4639884233, -0.0039784019, 0.1285801530, -0.0826645344, -0.1760823131, 0.0605822429, -0.2871998250, -0.1063944846, -0.1116845161, -0.2186666876, 0.3364033103, 0.1540050507, 0.3795981407, -0.1899098754, -0.1763741970, -0.2155524194, -0.2697332203, 0.1166327968, 0.3973164260, -0.4125633538, 0.3699337840, 0.1149298176, -0.2411655486, -0.3337037563, -0.0834462345, -0.2894902527, -0.0791110620, 0.0707429796, -0.1612923592, 0.0642042309, 0.7825198770, -0.0084162597, 0.0695138723, 0.1574143469, 0.0681059510, -0.1039174125, 0.1617634296, 0.6149499416, 0.0231288057, -0.0316061415, -0.0012967684, -0.1371878088, 0.4987612963, 0.1679215431, -0.3295309246, -0.2363190055, -0.2633859813, 0.4415760636, 0.2726765573, -0.1523863524, -0.4212096632, 0.2727478743, 0.0977992117, 0.1667737812, 0.0766941160, -0.2006383389, 0.1752452254, -0.3950483799, -0.0139190583, 0.0779863298, 0.1731469482, 0.0727258399, 0.0791413486, -0.3354693651, 0.2545026541, -0.1672043949, 0.2604659796, 0.2373153418, 0.1221325621, 0.1455003321, 0.3145407736, 0.7196599245, -0.1748372912, -0.2538932860, -0.4174560905, 0.4022764564, 0.1677868068, -0.2083271593, -0.2823295295, -0.0301393121, -0.0065195248, -0.1218189076, 0.2966851890, 0.1242415681, 0.0897204727, 0.2379281819, -0.1692665070, -0.1717889607, -0.1464149952, -0.0926705599, -0.0925053358, -0.6943876147, -0.2163536251, -0.2810529768, 0.1254323423, -0.5565458536, 0.4722847939, -0.2123977393, 0.3046057820, 0.2148597538, -0.2002221197, 0.1034739166, -0.5628436804, 0.0583154075, 0.0311504006, 0.0048449636, -0.3492678702, 0.0180154685, -0.4087485969, -0.2863157094, 0.2190304697, 0.1929044425, -0.1425182521, 0.2023859322, -0.3986798227, -0.2865786254, 0.1754163951, -0.3493769765, 0.1538176388, -0.4897686243, 0.3911262155, -0.1301077902, 0.2206791490, -0.1173475310, 0.2123433352, 0.1536784470, 0.0430723652, 0.3802901804, -0.1421755701, -0.2052787989, -0.3119749427, -0.1295213252, -0.4230289757, 0.2300732285, -0.3688895106, 0.1607090682, 0.1825296730, 0.0270567406, 0.4813734889, -0.2245621681, 0.4071614146, 0.2447472513, -0.0855108798, -0.0710209012, 0.0099501740, -0.2358161807, -0.3854662776, 0.5231720209, -0.0187293645, -0.1808807999, 0.5965699553, -0.0095427735, 0.0540879741, 0.1342795938, -0.0945064500, 0.1369039416, -0.1385646164, 0.5761141777, -0.0190948807, -0.2580133379, -0.1894802153, -0.2492495626, -0.0160109438, -0.2822262049, 0.0479950532, -0.3102491796, 0.2020980120, 0.1486736983, 0.1373295635, -0.1459796429, 0.3094698787, 0.1686415225, -0.2046631426, 0.2823244333, 0.0132177379, 0.0474248864, 0.0100461403, 0.3199664652, 0.0447705686, -0.2752153873, -0.2911129296, 0.0307476688, -0.2215332985, 0.2769418359, 0.1413586289, 0.2784745097, -0.5043811798, 0.4775384665, -0.3567075431, -0.2887733877, 0.2340704948, 0.4389372766, -0.0236876570, -0.1215749308, -0.0377182662, -0.0814306960, -0.2333653122, 0.2073104233, -0.3227272332, -0.1704715490, -0.0889617056, -0.2641725838, 0.3280999362, 0.2757390738, 0.2902069986, -0.1996398121, -0.1769990623, -0.0558470674, 0.2721571326, 0.2078899890, -0.2906811535, 0.9491369128, 0.0849783272, 0.1167527437, -0.2944551408, 0.6679245830, -0.3585461676, 0.3031625152, 0.0231432542, -0.2600621283, -0.0549678095, -0.0104235047, 0.2851819098, 0.2070322782, 0.0287891757, 0.0677032322, 0.4703881741, 0.0295737144, -0.0040226472, 0.1080716774, 0.3148888052, -0.1764671952, -0.1842562407, 0.3330847323, -0.0093260268, 0.1049425602, -0.1505273581, 0.2953496873, 0.0921181887, 0.1465130001, 0.0749536753, 0.1117324531, 0.3305948675, 0.0854007080, 0.0004013251, -0.2293373495, 0.4347658157, 0.2841571271, 0.0334700420, 0.1969029307, -0.0918107331, 0.1796835065, 0.1429211497, -0.1100700796, 0.2008407414, -0.0315705799, 0.2062492073, -0.3183932900, 0.0660490096, 0.1008316502, -0.3524551690, 0.0196281858, -0.2284114808, 0.3859229386, -0.1402964443, 0.0517188385, -0.0284986850, 0.0796320587, -0.0653218254, 0.1494156420, -0.3552296758, 0.2850974500, -0.1663595736, -0.0958505422, 0.3604440689, -0.0377586894, 0.0970626399, -0.2557421625, 0.2804598510, -0.1032843813, -0.1300275028, -0.2148518711, 0.0465090759, 0.2940635383, 0.1178300902, -0.2297916412, -0.1116392016, 0.5829276443, 0.1188103110, 0.2783947587, -0.1746559739, -0.0234680269, 0.1771696955, -0.1721491218, -0.2825192511, -0.2217982709, -0.0646336153, -0.4000683725, 0.0756312013, -0.1545986235, 0.4007344246, -0.0654677004, 0.2999574542, 0.2363632470, 0.1816396117, -0.1960025728, -0.0722573176, -0.2839887142, 0.0276773125, 0.1377008855, 0.1487131417, -0.4141270518, 0.1482880861, 0.0667390600, 0.0890941098, -0.3734766841, 0.0860281885, 0.1227942407, 0.0157401338, 0.2799659967, 0.1984163970, 0.0019887050, -0.0407662392, 0.0858451501, -0.1033446863, -0.3341331184, 0.2728918493, -0.1282376945, -0.2639900744, 0.2263254672, 0.4942661822, -0.5282651186, 0.2415601313, 0.2333297431, -0.2522503734, -0.3889733255, -0.0375276878, -0.2728512287, -0.1042458788, 0.2157260776, -0.2469674647, 0.3052850664, 0.3991921842, 0.1735180765, -0.0888974965, 0.3976230919, -0.2799860537, 0.1670062244, 0.0790093318, 0.2554670572, -0.1929868460};
#endif

#endif
