//Numpy array shape [5, 5, 3, 24]
//Min -0.568065941334
//Max 0.590530991554
//Number of zeros 0

#ifndef W5_H_
#define W5_H_

#ifndef __SYNTHESIS__
conv2d_810_weight_t w5[1800];
#else
conv2d_810_weight_t w5[1800] = {-0.0024297189, 0.0290446505, 0.0019699666, 0.1074988693, 0.0082919504, 0.1012016535, 0.0982195586, 0.0085313655, 0.0178743415, 0.0179120209, 0.0198583417, 0.0611726977, 0.1025374681, -0.0694102794, 0.0183425266, 0.1111070067, -0.1062293723, 0.0108574079, -0.0184289217, 0.0046589682, 0.0783332288, 0.1389580071, -0.0515140519, -0.0049125655, 0.0262431484, -0.0881788358, -0.0544422902, 0.1280991286, -0.1054824218, 0.1059154123, 0.0234723892, -0.0895656347, 0.0629820898, 0.0346883871, 0.0126261795, -0.0239081327, -0.0079994295, -0.0360210240, 0.0850534514, 0.0186895970, -0.0588461645, 0.0615773462, -0.0231700521, -0.0881614015, 0.0196366571, 0.0586516410, -0.0846591741, 0.0986389592, 0.0958855227, -0.0728653893, 0.1018047482, 0.1081545055, 0.0717305765, 0.1148436964, 0.0647450835, -0.0666493401, -0.0410582721, 0.0594253317, 0.0245916378, 0.1174345911, 0.0862192959, 0.0117719797, 0.0653834194, 0.0487827286, -0.0106927464, 0.0270432420, 0.1374058723, -0.0472716168, 0.0127147166, 0.1078544259, 0.0287157893, 0.1296358854, 0.1207786947, -0.0669821501, -0.0370919108, -0.0822602883, -0.0058159488, -0.0796430111, -0.0137496693, -0.0152897313, -0.0453139246, 0.0167591646, 0.0167303681, 0.0880585462, -0.0702908859, -0.0194132179, -0.0605219379, 0.0798303559, 0.0153173730, 0.0789071023, -0.0446593873, 0.0828850642, 0.0975561962, 0.0391707383, -0.0392160825, 0.0527596287, 0.0380945690, 0.0829476565, -0.0013732688, -0.0203054827, -0.0788365677, 0.0353146605, 0.0496216789, -0.0817852020, -0.0756458938, -0.0502444580, -0.0713101178, -0.0071015120, -0.0087240934, -0.0725729614, 0.0283109825, -0.0071433429, -0.0417342000, 0.0475091338, 0.0554917455, 0.0685216859, 0.0252511371, 0.0259470940, 0.0319941454, 0.0595769994, 0.0966386348, -0.0901047289, 0.0065816976, -0.0858213082, -0.0891739056, 0.1071435213, -0.0461026840, -0.0955975577, -0.0554762036, -0.0740244985, -0.0930910259, 0.0529519357, 0.0523281172, 0.0212149378, -0.0802597329, -0.0839191452, 0.0515103862, 0.0688843727, -0.0299250875, -0.0495001674, 0.0766980201, 0.0819525868, 0.0072395513, -0.0351134129, 0.0090597859, 0.0716364160, -0.0759386346, -0.0878973231, 0.0470725819, -0.0146347601, 0.0042686472, -0.0206406377, -0.0114635667, -0.0131330146, 0.0066299662, -0.1087426022, -0.0960822478, -0.0216571111, -0.1020966321, -0.0479870029, 0.0470408648, -0.0683240294, -0.0648074672, 0.0590453483, -0.0700638965, 0.0141473841, 0.0126659526, -0.1006674320, -0.0454307906, -0.0567712449, -0.1118806973, -0.0389507934, -0.0444234759, -0.0368889198, -0.0511102453, -0.0372166149, 0.0624483638, -0.0826555192, 0.0581462197, -0.0247932542, -0.0796434432, 0.0259851310, 0.0165265147, -0.1322687864, 0.0071733403, -0.0523236915, -0.0415935442, -0.0177010000, 0.0182679929, -0.0166290216, 0.0519672073, -0.0280580595, 0.0148172462, -0.0632504374, -0.0976554826, 0.0218350682, 0.0510346554, 0.0503919162, -0.0058082463, -0.0482851490, -0.1100956276, -0.0922861323, 0.0089941053, -0.1024738923, -0.0799644515, 0.0680815056, -0.0377548076, -0.0061660600, -0.0649321303, -0.0261458792, -0.0414109565, -0.0063446970, -0.0026720343, -0.0746397004, -0.0284073949, 0.0097850058, 0.0063204928, 0.0012485121, -0.0189404320, 0.0246737674, -0.0099578695, -0.0718807876, -0.1012176871, 0.0260175522, 0.0180827715, -0.1271796674, -0.1373755336, 0.2133946717, -0.1855774820, -0.0532516353, 0.1416992247, -0.0567296036, -0.0972233489, 0.1384089440, 0.0623510480, -0.0356965140, 0.0555225387, 0.0095158909, 0.0377924182, 0.0989758745, -0.2058398426, -0.0322865732, 0.0282207392, -0.0472374968, 0.0640161037, 0.1403867900, -0.0489704423, 0.0155367618, 0.0195925459, 0.0878622979, -0.0084313545, 0.0611326098, 0.1922449470, 0.1668315083, 0.0029697544, -0.0348602198, 0.0204279553, 0.0892989710, 0.0111894878, 0.0544165373, 0.0292268787, -0.0039069345, 0.0833714381, 0.0133428415, 0.1806775779, 0.0631046072, -0.0230329093, 0.2556114495, 0.1812222153, 0.0514439121, -0.0677289367, -0.0175977983, 0.1252412945, 0.1140776053, 0.1000964865, 0.0147533808, 0.1721163094, 0.2233241647, 0.0480205379, 0.1858149916, 0.1444347054, -0.1292515397, 0.2063382417, 0.2381502986, -0.0630952418, -0.1451762021, 0.0042410824, 0.0619944371, 0.0122405309, 0.0175296459, -0.0775335729, 0.1129098758, 0.2329514474, 0.0220162477, 0.1495877057, 0.1994155943, 0.0461426005, 0.2898728549, 0.2820508182, -0.0874274969, -0.1319105774, -0.2514223754, 0.1634673178, 0.0444137231, 0.0984850377, -0.0004900263, 0.1381390244, 0.0495270602, 0.0809634179, -0.2278356999, -0.3666340709, 0.1197276190, 0.1250988692, 0.3179670870, -0.2168654203, 0.1124398261, 0.0215515792, 0.0647829473, -0.0580539480, 0.0243009850, 0.1296028644, 0.1721344888, 0.1970195472, -0.0841805786, 0.1713503003, -0.2573371530, 0.0820500180, -0.0974788144, 0.1639827788, -0.1684285849, 0.1445797682, 0.1361532807, -0.1830651015, -0.1218716279, -0.2998254001, 0.1153135151, 0.0678659678, 0.3675972819, -0.2466556579, 0.1852089167, 0.3408299387, -0.2438737005, -0.0228883252, -0.4076920450, 0.1815428138, -0.0688068420, 0.0270721484, 0.0211819783, 0.0154808462, 0.0145707382, 0.0707450286, -0.1596917957, 0.0036450219, -0.0463455245, -0.1221774668, 0.2070770562, -0.1643638909, -0.0985384062, -0.2455937415, 0.2600764632, 0.0496344417, 0.0283115078, -0.0202698372, 0.1962795705, 0.1734585911, -0.2395779043, -0.0897353590, -0.4504206777, 0.2435781211, -0.0062412205, -0.1725998670, 0.2017920762, -0.0304155033, -0.0727762878, -0.0430802479, -0.1335977167, 0.0202608202, 0.0566236302, 0.0406940095, 0.1192885935, -0.0122832684, 0.0110268686, -0.0266388617, -0.0874382183, -0.1031090021, 0.0702617541, -0.0641774759, -0.0681072846, -0.0555217788, -0.0227616969, -0.0326480567, -0.0276597869, 0.0325812586, 0.0368229710, 0.0771297291, -0.0620971136, -0.0781427994, -0.0503899865, -0.0472613424, -0.1406697035, -0.0356236100, -0.0903203115, 0.0034687871, 0.0242086593, -0.0505808406, -0.0413428135, 0.0315698050, 0.0269485377, -0.0371621586, 0.0682311729, -0.0376049466, -0.0083831958, 0.0152470227, -0.1084660813, -0.1114706248, 0.0877089128, -0.1080347821, -0.1500856727, 0.0917912126, -0.0562739037, -0.0669654980, -0.0473977476, -0.0085361712, -0.0788398832, -0.0177067183, 0.0078769047, -0.0472022630, -0.0029356433, -0.0437962674, -0.1315363944, -0.0133532444, -0.0926612839, -0.0992127061, 0.0894529372, 0.0015950341, -0.1283038408, -0.0550041869, -0.0299787838, -0.0293052904, 0.0350225046, -0.0105131827, -0.1214459315, 0.0986393020, -0.0193723869, -0.1156690046, 0.1252823621, -0.0523587130, 0.0067158090, 0.0038752735, -0.1106841266, -0.1336884499, -0.0662909523, 0.0117349634, 0.0391808040, -0.0871965513, -0.0982432067, -0.1268116236, -0.0222577024, -0.0809904337, 0.0198219512, -0.0591494739, -0.0568501018, -0.0812876374, -0.0557849631, -0.0429651886, -0.0045240554, 0.0659414902, -0.0092982389, -0.0961001664, 0.0483496375, 0.0606011301, -0.1167096198, -0.0391952395, -0.0226458535, -0.1055771336, 0.0012432790, 0.0145107647, -0.0368541032, -0.0162543673, -0.0281669851, 0.0344099700, 0.0604968630, -0.0794316530, -0.0604547635, 0.0246463157, -0.0468371324, -0.0969554260, 0.0342984498, -0.1261011511, -0.1166239455, 0.0159390494, 0.0595264696, -0.0966083035, 0.0689141452, -0.0679343715, -0.0149491718, -0.0099830702, -0.0885711983, -0.1086698100, 0.0465724804, 0.0286774747, -0.0275531933, 0.0556890666, -0.0239667557, 0.0272341203, 0.0608936734, 0.0107326303, 0.0164817348, -0.0229862276, -0.1082534194, -0.0937734544, 0.0700640753, 0.0026737719, -0.0066478690, -0.0365603305, -0.0628788844, -0.1193132028, -0.0220037252, -0.0317451470, 0.0334659033, -0.0791880637, -0.0874962360, -0.1163067296, 0.0047865151, 0.0205252189, 0.0691387579, 0.0803260207, -0.0820651054, 0.0229092147, -0.0252825972, -0.0744630545, -0.0400565080, 0.0719677657, 0.0174209736, 0.1182837710, 0.0536750555, -0.0080899345, 0.0416142605, -0.0763036013, -0.0305743162, 0.0699349046, -0.0881737247, 0.0353537761, 0.0932369158, -0.0868285224, 0.0984636471, 0.0555073656, 0.0434295610, 0.0837907866, 0.0902057141, 0.0416004360, -0.0295606535, 0.0261279810, -0.0561093539, 0.0491032675, -0.0234494619, -0.0529553853, 0.0878947675, 0.0730685964, 0.0708313584, 0.0262552351, -0.0049367165, -0.0315515250, 0.0908327326, -0.0325230509, -0.0798302069, -0.0264568161, -0.0173903611, -0.0085746394, 0.0957601592, 0.1204688996, 0.0859531760, 0.0815725029, -0.0439329036, 0.0819527432, 0.0146018127, 0.0879419595, -0.0629957393, 0.0974844396, 0.0337070562, -0.0298040807, -0.0772109926, 0.0454486310, -0.0024385329, 0.0619528033, -0.0351867042, -0.0810345560, -0.0329827331, -0.0193926040, -0.0067291730, 0.0578674339, 0.0391029641, -0.0395643115, -0.0032313704, 0.0133049469, -0.0826194584, -0.0504671372, 0.0883912444, -0.0555519573, 0.0147240711, -0.1221598238, -0.2337103635, 0.1088653952, 0.2005368322, 0.5117124319, -0.2755865753, -0.1941418201, -0.3015875518, 0.2122807950, -0.2131063044, -0.3236981928, 0.0669928640, 0.2457791567, 0.5148618221, -0.3421964347, 0.0785945430, 0.1024083346, -0.2249416113, -0.2442705780, -0.1362001002, -0.2093094289, 0.1082006395, 0.0428910702, 0.1778693199, -0.1468325853, -0.2628141940, -0.0135401618, 0.0743290335, 0.0250215344, 0.1551075727, -0.2710726261, -0.2892553210, 0.1493554115, -0.2223121524, -0.4636783600, 0.3228777945, 0.1550245732, 0.5905309916, -0.3838842809, 0.0266886503, -0.2725387812, 0.1908549815, 0.1259760708, 0.3849449158, -0.2060206980, -0.0461308733, 0.0370071717, -0.0028913387, -0.1212886870, -0.0587290749, 0.1934941858, -0.1120307297, 0.0387440361, -0.0640484765, 0.3215692341, 0.1855322421, 0.1318825632, -0.1400445402, 0.0533105396, -0.1024623364, 0.1203443259, 0.3858048320, -0.0954649523, 0.1486277878, -0.1913195997, 0.2361617535, 0.1363848299, 0.0081405910, 0.0780252069, 0.2812303305, 0.3989672363, -0.3487562835, -0.3596600592, -0.5680659413, 0.4641064703, 0.0717711970, -0.0822919384, 0.0275510699, 0.0542663857, -0.1958753914, 0.1226629093, 0.0318486132, -0.1643922329, -0.0179149508, 0.1586672664, -0.1903340071, 0.0254299697, -0.0169895161, -0.0653217882, 0.0094698509, 0.0491741151, -0.0560534745, -0.0212604385, 0.1170035973, -0.2418683320, -0.0257501472, -0.0307737496, -0.0937023610, 0.0355252847, -0.0245900098, -0.2533362210, 0.1278655678, -0.0095921736, -0.2205602676, 0.1488294899, -0.0005661713, -0.2067901641, 0.1135967597, -0.0206979346, -0.2893134356, 0.1762316525, 0.0579421930, -0.2564262450, 0.1671726704, 0.1026733294, -0.2042265832, 0.1706043780, 0.0500709377, -0.1966279596, 0.0729949996, 0.0341375358, -0.2693655789, 0.1111224070, 0.0907134712, -0.0804051012, -0.0264853314, 0.0603424087, -0.1630835533, 0.1823086590, 0.0357888192, -0.2401800156, 0.0615179688, 0.0494045094, -0.1479260474, 0.0628002658, -0.0124294981, -0.1799291819, 0.1221341565, 0.0332749113, -0.1763700098, 0.0280658882, 0.0971674621, -0.1904540956, -0.0185372606, -0.0406871215, -0.2301400602, 0.0788252577, -0.0118304472, -0.2101676315, 0.0843646228, 0.0192263350, -0.0775806829, 0.0994874164, 0.0694065541, 0.0739446655, 0.0792392716, 0.0326163992, 0.0188239682, -0.0170525145, 0.0699353069, 0.0620922893, 0.0809122846, -0.0591116920, -0.0835358948, -0.0675739199, 0.0139927072, 0.0468612984, -0.0220571905, -0.0511603802, 0.0012236965, 0.0057743373, 0.0519934148, 0.0475471728, 0.0429418348, -0.0158414841, 0.0673222393, -0.0297674630, -0.0729529187, -0.0742750615, -0.0105264941, -0.0197518859, 0.0055769831, 0.0592855699, 0.0383517072, 0.0453580059, 0.1002837121, 0.0081567243, -0.0848205388, 0.0750337988, 0.0539153330, 0.0052050045, 0.0616710186, -0.0457935110, 0.0552910790, -0.0621658824, -0.0690654740, -0.0755719095, 0.0444618016, 0.0873980299, 0.0837773532, 0.0565527976, -0.0399897806, 0.0318146199, 0.0052547045, 0.0481129773, 0.0637565628, -0.0067425268, 0.0701938048, 0.0476631410, 0.0975592881, 0.0847432762, 0.0036835931, -0.0806244090, 0.0222420059, 0.0065482608, 0.0243473593, 0.0015437475, 0.0192937311, -0.0393780507, -0.0570531189, -0.0536726601, -0.0705188289, 0.0026759058, -0.0453359112, -0.0739810392, -0.1289800256, -0.2293590158, 0.3858098686, -0.1143744588, -0.2988339365, 0.3380390704, -0.1709043235, -0.2369033843, 0.3978270888, -0.2480904758, -0.3059966266, 0.4142773747, -0.0607663468, -0.3776155114, 0.3376967907, 0.2333909422, 0.0756957829, -0.1761674881, 0.2303323895, 0.2123914212, -0.2139701396, 0.1023530066, 0.2772006691, -0.2722201645, 0.1219992116, 0.2318191379, -0.2202164382, 0.2396118194, 0.0667932406, -0.1563077122, 0.1442266405, 0.2805153430, -0.3094458282, 0.0237120204, 0.2262647450, -0.1926594675, 0.1568944454, 0.2020687759, -0.1188223660, 0.0194429904, 0.1852305382, -0.2522155344, 0.0552144721, 0.2899012268, -0.2671048343, -0.0800845623, -0.0801529884, -0.0363475829, -0.0547273532, 0.1114034951, -0.0142481187, -0.0148624405, 0.1039004847, -0.0179202612, -0.0859235525, 0.0777936280, -0.0592246801, -0.1234917864, 0.0572783574, 0.1045191735, -0.0757104978, -0.1683579683, 0.1757818609, 0.0687012970, -0.1388443708, 0.0504515283, -0.0091342181, -0.1640498936, 0.1426998824, 0.0562865809, 0.0243458673, 0.0603879467, -0.0428146422, -0.1394948214, 0.2513881028, -0.0265237968, -0.0214751475, 0.0467283316, -0.0247105118, -0.1059884652, -0.0337925963, -0.0685268119, 0.0557509921, 0.1089360267, 0.0278291833, 0.1138807833, 0.0347341523, 0.2155710012, 0.1747354269, -0.0009517820, -0.0444521308, -0.1436227709, 0.1143226773, 0.0228258483, -0.0961432680, -0.0073281736, -0.0987512693, 0.0950379297, 0.0059826677, 0.2014397383, 0.2821019590, -0.1100881323, 0.2711676657, 0.2428599298, 0.0068380320, -0.1682440490, 0.0298513770, 0.0340194851, -0.1611488909, -0.0869003832, 0.0086737154, -0.0788745880, 0.0372436419, 0.0361562073, 0.1256828755, 0.1525633186, -0.0495422222, 0.2522984445, 0.0912490413, -0.1321541965, -0.1479657292, -0.0001738367, 0.1443733275, -0.1388043165, -0.1477770358, 0.0988524109, -0.0672952086, -0.0345535614, 0.0033436054, -0.0283346772, 0.2442032695, -0.1282593310, 0.2534410357, 0.2555969059, -0.0562140942, -0.0718576610, -0.0674197227, 0.0660622939, -0.1893769205, -0.0994709060, 0.1284985244, -0.0239184517, -0.0190619286, 0.0108632725, -0.0599473044, 0.1047774851, -0.0998701677, 0.2068802416, 0.0634561107, 0.0273275431, 0.0403665230, -0.0618141964, -0.0340813920, -0.0472871214, 0.0829717517, 0.0272719301, 0.1010001302, 0.0630038157, 0.0240168329, -0.0167094506, 0.0181196649, 0.0650634989, 0.1107251868, 0.0466965139, 0.0469329804, 0.1172456071, -0.0281111859, 0.0207306612, 0.0668790862, 0.1101316437, -0.0297099091, 0.0525994711, -0.0597536862, 0.0081356894, 0.0381805599, -0.0023234109, -0.0435665213, 0.0904826596, 0.0248213690, -0.0409469232, 0.0331549868, -0.0358852595, -0.0346694849, -0.0579315349, 0.0015063377, -0.1015436500, -0.0418033563, 0.1057460085, 0.0317896977, 0.0150877684, 0.0923969224, -0.0656815693, -0.0311289728, 0.0039027093, -0.0883395895, -0.0503779314, 0.1012263522, -0.0355863795, -0.0022237243, -0.0272683930, -0.0298458058, 0.0622094274, 0.0910410285, -0.0927730948, -0.0243231747, -0.0312067568, 0.0280397031, 0.0808956772, -0.0005931820, 0.0284055062, 0.0830154419, -0.0544395298, 0.0615624115, 0.0255765282, -0.0584612191, -0.0764685199, -0.0330675095, -0.0063062161, 0.0799749643, 0.0445284806, 0.0371435061, -0.0334841982, 0.0312355757, -0.0124792987, -0.0406033024, 0.0033068589, 0.0034053808, -0.0368540324, -0.0579531007, -0.0466589071, 0.0432029329, 0.0635540262, -0.0366375558, 0.0565819740, 0.1224752739, 0.0447368212, 0.0330280513, -0.0003285634, -0.0135738961, -0.0185948219, 0.0681276247, -0.1120235547, 0.0818965733, 0.0827151462, 0.0535857379, -0.0121426051, 0.0285684746, -0.0354933701, 0.0820981339, 0.0555247106, -0.0791809335, 0.1127061620, -0.0074510346, 0.0300865956, -0.0630285516, -0.0273210928, -0.1003031656, 0.0077588330, -0.0468455479, -0.0403492786, 0.0786876753, 0.0880915448, -0.0999457687, 0.0698582530, -0.0270855930, 0.0179885644, -0.0576323606, 0.0380650572, -0.0873535946, 0.0100254118, 0.0413581543, -0.0536612906, 0.0828534737, 0.0940805674, 0.0153683238, 0.1172240749, 0.0720064491, -0.0970700830, -0.0243610162, 0.0010390641, -0.0054371152, 0.0261429437, -0.0294592418, 0.0005635134, 0.1026775315, -0.0552456304, 0.0552559868, -0.0008876105, 0.0337902009, 0.0098776147, 0.0871786401, 0.0573382974, 0.0316388719, 0.0814073831, 0.0913687646, 0.0128711089, 0.0315701067, -0.0171777923, -0.0688992068, 0.0297359955, -0.1341566741, 0.1709472984, -0.1352629513, -0.2796702981, 0.2305428386, -0.0440577120, -0.1158773899, 0.2053732425, -0.1113256440, -0.0489329621, 0.2553281784, -0.1473555565, -0.2058186531, 0.1341218799, -0.1688213050, -0.2691136003, 0.1895538568, -0.1116763726, -0.1867242754, 0.2190185636, -0.0277105849, -0.2081623673, 0.2487758994, -0.1910009533, -0.1300257444, 0.2713008225, -0.1664389968, -0.1090628132, 0.1058762521, -0.0855003297, -0.1304616779, 0.0960794911, -0.0827551410, -0.1083813533, 0.0977805778, -0.1475923508, -0.1434689313, 0.2788344026, -0.0836933777, -0.1187975258, 0.2217184454, -0.0708431974, -0.1887791008, 0.2108961195, -0.0805913433, -0.1374329627, 0.0790128857, 0.1436260492, -0.0413366444, 0.0910959244, -0.0599764921, -0.1714313775, 0.0919377804, -0.1357291937, -0.0249136090, 0.1178904623, -0.1404774040, -0.0614892393, 0.1563340127, -0.0215655547, -0.0786767974, -0.0880873948, 0.2324768603, -0.0415159538, -0.0177316517, 0.1039074734, 0.0160401352, -0.0110729169, 0.0245575663, -0.0480749048, 0.0122949230, 0.1036728770, 0.0155052710, -0.0170889907, 0.0397462659, 0.2517004609, 0.2423878163, -0.2397248596, 0.2590441406, 0.1835142225, -0.2910434306, 0.2816435397, 0.3597904444, -0.1708290428, 0.2949820459, 0.1496553719, -0.2599782348, 0.0930222869, 0.1658721268, -0.2255107462, 0.1494895518, 0.3301158249, -0.2645346820, 0.0946850702, 0.0835730731, -0.1050532237, 0.0806229338, 0.2357550263, -0.2573888302, 0.0155845080, 0.1882490814, -0.2506015599, 0.1491634399, 0.1603272408, -0.1533367187, 0.0091930581, 0.0435944013, -0.0328817815, -0.0265549701, -0.0410019718, -0.0836407989, -0.0669395179, -0.0665481761, -0.1155881733, -0.0472997501, -0.1260797977, 0.0998627618, -0.1561205089, -0.0586149730, 0.1036546677, -0.2736188173, -0.1655225903, 0.1440743953, -0.1665736884, -0.2570984662, 0.1678423733, -0.0817280188, -0.2324142456, 0.2391852885, -0.2659305632, -0.2619394362, 0.1242157072, -0.1709589809, -0.2866606116, 0.2985709310, -0.1757169813, -0.2761075795, 0.2624714673, -0.0811554566, -0.0625118390, 0.2295284271, -0.1806621552, -0.2611077130, 0.1428876221, -0.0333424807, -0.2085819393, 0.2173097283, -0.1528595090, -0.1979836673, 0.1241932213, 0.0482102372, 0.0870765299, 0.0711630881, -0.0296227038, -0.0396121629, -0.0827974975, -0.0577522889, 0.0489833318, -0.0203486942, 0.0083385184, 0.0993305147, -0.1021891385, 0.0513609573, 0.0675090626, -0.0068930634, 0.0991841257, 0.0724086910, -0.0366487503, -0.0363686010, -0.0329751782, 0.0292661078, 0.0435585268, -0.0522148274, -0.0431885757, 0.0727661550, -0.0781536847, -0.0202421714, -0.0628602430, 0.0351405069, 0.0191039797, -0.0259841941, -0.0643972009, 0.0298181009, -0.0826801211, -0.0362517871, 0.0385031924, -0.0298511647, 0.0209610742, 0.0128182201, 0.0544756651, -0.0673254728, -0.0538684651, -0.0493999198, -0.0170114394, -0.0045463727, -0.0219337977, -0.0662299693, 0.0238493867, -0.0333434418, -0.0046566227, -0.1079726964, 0.0042355591, 0.0368617997, 0.0486350618, 0.0441200547, 0.0100170076, -0.0533848666, 0.0365311950, 0.0873538703, -0.0209078491, 0.0712106824, -0.0144222016, -0.0896059796, 0.0206826273, -0.0657838508, 0.0469273329, -0.0094469134, -0.0445208363, -0.0814752653, 0.0227955189, -0.0571470000, 0.0196983255, 0.0129560195, 0.0882106125, -0.0438776314, 0.0952044949, 0.0022066026, 0.0093399845, 0.1067592651, -0.1200013682, 0.0166657418, 0.0297157019, 0.0496859439, -0.0166358296, 0.0379573368, -0.0424750783, 0.0579397045, 0.0736175179, -0.0462396108, -0.0204763785, 0.0635510683, 0.0039727627, 0.1115772575, 0.1057558879, -0.0987703428, 0.0439789668, 0.0127275856, -0.0326969400, 0.0510891750, 0.1234184578, -0.0788896233, -0.0470789336, 0.1239244789, -0.0283024516, 0.0110040652, 0.0189070571, -0.0878207237, 0.0473355539, 0.0246729590, -0.0950078443, 0.0905372873, -0.0189341959, 0.0159723330, 0.0399654508, 0.0961684138, -0.1123052016, 0.0359172337, 0.0811477825, -0.0453569517, 0.0561468340, 0.1030708551, -0.0263584144, -0.0164568350, 0.0518909246, 0.0593208708, 0.0771247596, -0.0093146060, -0.0788014755, 0.0866076797, 0.1112744883, -0.1127617881, -0.0708581954, 0.0766095817, -0.1135327145, -0.0034580966, 0.1376975775, 0.0164948050, 0.0644698068, 0.1328312010, 0.0237904303, -0.0505400226, 0.1158992425, -0.0539664254, 0.0077644405, 0.0179684218, 0.0464790054, 0.1167378500, 0.0709160790, -0.0767051727, 0.0589734539, -0.0531709492, 0.0281342976, -0.0902914107, -0.0574010946, -0.0279416330, -0.0179740731, 0.0848701745, -0.0226128623, 0.0133114522, -0.0859165862, -0.1078536883, -0.1278102547, -0.0809866935, -0.0374305993, 0.0295246523, -0.0415149853, 0.0611976720, -0.1169064194, 0.0056169843, -0.0640826598, -0.0700142384, 0.1839457452, 0.0360434502, -0.0366079248, -0.0777002722, -0.1510239840, 0.1997061074, -0.0337287821, 0.0609138682, 0.1571210921, 0.0701250359, -0.0354890004, -0.0329379588, 0.1248386651, -0.1198420227, -0.0188828874, -0.0013080778, 0.0400753170, -0.1366811842, 0.1096496657, 0.2235567719, -0.1183877513, 0.0681199059, 0.0976308286, 0.0391775295, -0.1859409511, -0.0162766911, 0.1191031188, 0.0535896905, -0.0690266714, 0.0630025044, -0.2402537912, -0.2931151986, 0.1679870635, -0.1344863474, 0.0845265836, -0.2602941394, 0.1044606939, 0.1105667129, -0.0197304077, 0.0422498994, -0.1006948873, -0.0263617057, -0.1225726828, 0.1428315639, -0.1246853098, 0.0268736985, 0.0116969477, 0.0476457216, -0.1786867082, -0.1073528081, 0.1248754859, 0.1076951846, 0.2403335124, -0.0337094292, -0.0701483041, -0.0308344401, -0.0425504297, -0.0374341272, 0.0113146091, -0.0252431016, -0.1105711013, -0.1209105700, 0.0328290910, 0.0940389484, 0.1692928374, -0.0313554816, 0.1115175635, -0.0516336858, -0.0067920061, -0.0790407285, -0.1392508149, -0.0516378880, -0.0168265626, 0.0121319601, -0.1942475587, 0.1348920316, -0.1101084724, 0.0933923721, 0.0677756667, 0.0777881220, -0.1872382462, 0.1052478105, 0.0033767472, 0.1155231968, 0.0649222806, 0.1528516263, -0.1192628965, -0.1108411402, -0.0140704149, 0.0829882249, 0.1282586604, 0.0162388738, -0.0073763607, -0.0328799300, -0.0638380349, -0.0568698049, 0.0546943508, 0.0268773101, 0.0051068366, -0.0207473133, 0.1824486107, -0.1182426065, 0.0600198023, -0.0238161888, 0.1310933083, 0.0187955052, 0.0595002249, -0.0297935419, -0.0850725695, -0.0237240456, 0.0997644886, -0.0668848455, 0.1617066860, -0.0255533401, -0.0275491700, 0.0543330275, -0.0264561828, 0.1018206552, -0.0560439713, 0.0233462565, 0.0724989325, -0.0008367745, 0.0973573998, 0.0862156600, 0.0377730280, -0.0646861717, -0.1605063379, -0.0078267111, -0.0234231241, 0.2470268905, 0.0827505961, -0.0181755889, -0.0540803038, -0.2864767015, 0.0248061698, -0.1701883823, -0.0185736436, 0.0068178307, -0.1533681899, 0.0952340588, 0.0316381566, -0.0419123843, 0.1227342039, -0.0229114406, 0.1175308600, 0.0366188437, -0.1297119558, 0.1071396992, -0.0399172753, 0.0405689627, -0.0546690933, 0.1089881733, -0.1345161498, 0.0309822690, -0.0707058385, 0.1422341913, -0.0847233087, -0.0402881727, -0.0649216920, -0.1050043330, 0.0707860887, -0.1855994761, 0.1261242181, 0.0572014898, -0.0369913019, 0.0424430594, -0.0289539825, 0.0648750216, 0.0402024910, -0.0729099810, 0.1761757582, -0.1772049218, -0.0378349237, -0.0203450136, -0.2861956358, -0.1916299462, 0.1137128472, 0.0343238674, 0.2135729194, -0.1830351502, -0.0217562839, -0.0109401532, -0.0822248459, 0.2066537142, 0.0441754758, -0.0057322821, 0.1647513956, -0.0894850641, 0.1896975935, -0.2074204683, -0.3106368482, 0.2249363810, -0.0131518245, 0.1120157018, -0.0955938175, 0.0594459139, -0.1504200101, 0.0671302676, -0.0509691089, 0.1071074754, -0.0020062509, 0.0855501443, 0.1131594256, -0.1556397229, -0.0951791033, -0.0631254315, 0.0690110996, -0.1225688979, 0.0154096195, -0.0089389840, -0.0576264597, 0.0758290738, -0.0264039114, -0.0531204119, 0.0786594301, -0.0525224097, 0.0037861741, 0.1121471450, -0.1300326884, 0.0037655341, -0.0797590539, 0.1038529351, -0.1529483646, -0.0521485582, 0.0543842129, -0.0148094166, 0.1271319389, -0.0737451091, 0.0133953681, 0.1567548513, -0.1285169125, -0.0635958090, 0.0274092034, 0.0162943881, -0.0556747764, 0.0861117765, 0.0702444091, -0.0850183368, 0.0718346536, -0.0201771986, -0.0725338086, 0.0392362960, 0.0236698519, -0.0498427264, 0.0067584296, 0.0229827650, -0.0734913126, 0.1346396208, -0.0932823122, -0.1354505718, -0.0688776821, 0.0046687257, -0.0276206117, -0.0388143063, -0.0813007727, -0.1485477090, 0.0626304597, -0.0975404084, -0.0497374795, 0.1672999114, -0.0011251924, -0.1149861664, 0.0754021630, -0.0469814353, -0.0627668425, -0.0029706608, -0.0091265766, -0.0204129647, -0.0182461496, -0.0012327388, -0.1419921219, 0.0329884365, 0.0160420146, -0.1223530769, 0.1556175053, -0.1186862439, -0.1051548645, 0.0338433869, -0.0422193184, 0.0372087061, -0.0630247295, -0.0703460947, -0.0380426534, -0.0064997231, 0.0166831277, -0.0347918123, 0.0485757180, -0.0320225954, 0.0612906367, -0.0254085213, 0.0207896773, -0.0878406018, -0.0140075525, 0.0251820628, -0.0420832038, -0.0392272063, 0.0125263585, -0.0142940152, -0.0961649790, 0.0991278887, 0.0524766631, 0.0635377616, -0.0782374293, -0.0116689941, -0.0928161815, 0.0950509459, 0.0426162146, -0.0430351570, -0.0859535411, -0.0234547630, 0.0051976899, -0.0386686139, -0.1067838073, -0.0116779534, 0.0970483199, 0.0499354899, 0.0330817103, -0.0923185423, -0.0093173990, 0.0184513871, -0.0526695214, 0.0695829615, 0.0118988352, 0.0254402496, 0.0845458508, 0.0587275587, -0.0021856555, 0.0470789894, -0.0506878681, -0.0734602511, 0.0144706219, 0.0084354198, -0.0709858462, -0.1022397727, -0.0158417709, 0.0767700300, -0.0845603123, -0.0445160903, -0.0771147460, 0.0481568575, -0.0507219806, -0.0879704058, -0.0696023405, -0.0780082718, 0.0665767491, -0.0241581351, 0.0515976660, 0.0827293769, -0.0033346964, 0.0161950551, 0.0114591382, -0.0705912039, 0.0619122721, -0.0803797767};
#endif

#endif
