//Numpy array shape [4, 4, 24, 1]
//Min -0.312525779009
//Max 0.439543277025
//Number of zeros 0

#ifndef W8_H_
#define W8_H_

#ifndef __SYNTHESIS__
depthwise_conv2d_221_weight_t w8[384];
#else
depthwise_conv2d_221_weight_t w8[384] = {0.0502751097, 0.0571524538, 0.1375567764, 0.3319059312, -0.1750717461, 0.0427909344, 0.0063503799, 0.0350461118, 0.2127861232, -0.0775582939, 0.0359893218, -0.1472944915, -0.1116773486, 0.0706584677, 0.0745212510, 0.1562269032, -0.1157297716, -0.0978197604, -0.0103871431, 0.0511273928, -0.0844060704, 0.1580165625, 0.1720263064, -0.0013958130, 0.0283511449, -0.0696764439, -0.0833950117, 0.1141519472, -0.1555519253, 0.1638740152, 0.1475036144, 0.0675103590, -0.1841299981, -0.1467813849, 0.0771864355, -0.1225605980, 0.0616661347, 0.1019923761, -0.0086486815, 0.1115527228, 0.0424554385, 0.1014310047, -0.0976786092, 0.1456893086, -0.0190601572, -0.0959117189, 0.0422115214, 0.1259605438, -0.0597672500, 0.0398824774, -0.1023888737, 0.1878253073, 0.1388098001, 0.1580758095, 0.0151677877, -0.0311549641, -0.1775316745, -0.0081657059, -0.0888186619, -0.0057730242, 0.1966129839, -0.0364179462, 0.0043925238, 0.1081483737, 0.0898115933, -0.0917031989, -0.0442457348, -0.1490232348, -0.1098577306, -0.1590511352, -0.1218992099, -0.0637952238, 0.1470303982, 0.0092929248, 0.0610066541, -0.0791400075, 0.1677916646, 0.0958192796, 0.1331775486, 0.0022355344, 0.1507505625, 0.0752572417, 0.0163948573, -0.2405060679, 0.0181734860, 0.0667335615, -0.0138503313, 0.2768857181, 0.0648949221, 0.0515059121, 0.0206492562, -0.1308309585, 0.0109601887, -0.0993958265, -0.2386734635, -0.0627087951, 0.0132774748, 0.0250400249, 0.0377067402, 0.2179286629, -0.0016043379, 0.1325985193, 0.1504016370, -0.0115772355, -0.3125257790, -0.0453534350, 0.0128843803, 0.2806568444, -0.1098400429, 0.0187308583, -0.0235375371, 0.1247362196, 0.1994775534, 0.0543902740, -0.1587618291, 0.0333488248, -0.0657059997, 0.0656052753, 0.1310451925, 0.1445385069, 0.0189100709, -0.0423367657, 0.1059829891, 0.1205816939, 0.2902981043, 0.0828631967, 0.0984347686, 0.0906038433, -0.2449113280, 0.0548651107, -0.0690482929, 0.2314303070, 0.1036598831, 0.0660831258, 0.0665133372, -0.0339127071, 0.1770363450, 0.0835589990, -0.1197218001, -0.0713742375, 0.0874639899, -0.0849069580, 0.2083683759, 0.0392624065, 0.0101468191, 0.0867524147, 0.0534635894, 0.0591756999, -0.0413603820, 0.1616200656, -0.0146683380, 0.0708826110, 0.4395432770, -0.0169238970, -0.1106297970, 0.2850248516, 0.0753563046, -0.0996949077, 0.0730497018, 0.0947633982, 0.1681291610, -0.0318378434, -0.2183363736, -0.0489134602, 0.1095956266, 0.1444793940, 0.0086833639, 0.0561339557, 0.1247373521, 0.0236729160, -0.0311467666, -0.0167975239, -0.2387794554, 0.1501839012, 0.1600490063, -0.0598665513, 0.0657405332, 0.0749697611, 0.0913389921, 0.1305392981, 0.1650211215, 0.1141868010, 0.0503045730, 0.2012969553, 0.1797616482, 0.0594179928, -0.1571076959, 0.1816273779, 0.1192848980, 0.0738885328, -0.1571339369, -0.0625434741, 0.1374592632, -0.0713848919, -0.0550643466, 0.1454722732, 0.1790321022, 0.1437000036, -0.0412654579, 0.0965783969, 0.0541737638, -0.1376435310, -0.0903506055, 0.0608623810, -0.2772645950, 0.1010800675, 0.1210976467, -0.1569481194, -0.1508395672, 0.1056578234, -0.0376569815, 0.1191252321, 0.1749421209, -0.0014145111, 0.2668282688, 0.1199664399, 0.0933068544, -0.0479021445, 0.0493618138, 0.0266329553, -0.1024791449, 0.1696267575, 0.0166115128, -0.0972145423, 0.3957338035, -0.0035561048, 0.0780939385, 0.0688808039, 0.0564584360, 0.0677242652, -0.0074294438, -0.1576692313, -0.1681615263, 0.0835698396, -0.1009196490, -0.0207750518, 0.0371546112, 0.1339671314, 0.1696018726, -0.0337817259, 0.0066405265, -0.0849116743, 0.0879780576, -0.1302274019, -0.2635106742, 0.1882922798, 0.0667156279, 0.0401867516, -0.1019720361, -0.0331774242, -0.1152730286, 0.2686953247, 0.0100875348, 0.0779196471, -0.0362204053, -0.0209443402, -0.1587320268, -0.0935078189, -0.1149555966, 0.0787059590, 0.1060835794, -0.1133285612, 0.0751223937, -0.0786761492, 0.1508540660, -0.0157200396, 0.0091185244, -0.2614262402, 0.2305933982, 0.1493280679, -0.0481402948, -0.0107548563, -0.2863790393, -0.0481864214, 0.1028917581, 0.0530438945, 0.0967434496, 0.0592476353, -0.0521710292, -0.0236783735, -0.2750266194, -0.0149114029, -0.1284942776, -0.1580992192, 0.0747666508, 0.1120032966, -0.0789050832, -0.0397576205, 0.1428924054, 0.0129270749, 0.1706637591, 0.0883135572, -0.0401697382, 0.0467539951, 0.0151455188, -0.0852615014, 0.1503133774, -0.1809789240, 0.0550707951, -0.2227572948, -0.2601595819, -0.1270457655, -0.0694233105, -0.1962794363, -0.0959401429, 0.0881938562, 0.0453424267, -0.1948609501, -0.1104491279, -0.0538625754, 0.1680750102, 0.0946946740, 0.0191530325, -0.0040561995, 0.1630607396, -0.1615871638, -0.1616625488, 0.1901121438, 0.0433242545, 0.0309086330, 0.0247230269, 0.0734630153, -0.0711204782, -0.2289331108, 0.0148065817, 0.0407041609, 0.0042915288, -0.1766100675, -0.0757122710, 0.0422146097, -0.1868776530, -0.1011495441, -0.0842983946, 0.2081664354, 0.1546895802, -0.0619372912, -0.0651705340, -0.0811031386, 0.0791456997, -0.2171193659, 0.2872271538, 0.0905918106, 0.1079642475, -0.0982591286, -0.2809960544, -0.0056767808, 0.0437315367, -0.2171939462, 0.0793091804, -0.0209012106, 0.0909011215, -0.1162745282, 0.0439360216, 0.0514751635, 0.0163000375, 0.1169374734, -0.0985073820, -0.0807803720, -0.0253426358, -0.0395664796, 0.1072078794, -0.1213155165, 0.0660092533, -0.2456896752, -0.1153695732, 0.1830226928, 0.1819670945, 0.0339545198, 0.1008247212, -0.0568822622, 0.0143083045, -0.2064170390, -0.0177681893, -0.0134799974, 0.1163224652, -0.1481004953, 0.0881979913, 0.0664422438, -0.0419817269, 0.1406882554, -0.0638303161, -0.2287179977, -0.2298413366, 0.0398510918};
#endif

#endif
